<?xml version="1.0"?>
<opencv_storage>
<stage14>
  <maxWeakCount>14</maxWeakCount>
  <stageThreshold>-1.1392946243286133e+00</stageThreshold>
  <weakClassifiers>
    <_>
      <internalNodes>
        0 -1 15725 1532492799 -67288809 419433979 1192183979 2065404383
        -344809468 956869311 1464718991</internalNodes>
      <leafValues>
        -5.4113036394119263e-01 1.6510066390037537e-01</leafValues></_>
    <_>
      <internalNodes>
        0 -1 14970 956642303 1067416535 269836087 89248025 -248782293
        520333465 294323499 1208875674</internalNodes>
      <leafValues>
        -4.3880683183670044e-01 2.6411268115043640e-01</leafValues></_>
    <_>
      <internalNodes>
        0 -1 4798 224119459 105345582 1379992897 -894088936 991458095
        -343719526 1072939522 -154741584</internalNodes>
      <leafValues>
        -4.4320392608642578e-01 2.6632449030876160e-01</leafValues></_>
    <_>
      <internalNodes>
        0 -1 561 -26555006 -1209842644 272810256 -657108662 407829337
        814178475 -1341602384 486891274</internalNodes>
      <leafValues>
        -4.2416721582412720e-01 2.7937519550323486e-01</leafValues></_>
    <_>
      <internalNodes>
        0 -1 12209 51723709 -1978908595 -716140023 -804982012
        -1089998232 -452459486 427993503 439816657</internalNodes>
      <leafValues>
        -4.8819279670715332e-01 2.7992492914199829e-01</leafValues></_>
    <_>
      <internalNodes>
        0 -1 19665 1871314688 454242412 -750663024 -1211565168
        -1467393920 -1165053184 1376728688 1385273476</internalNodes>
      <leafValues>
        -5.8438533544540405e-01 2.0098446309566498e-01</leafValues></_>
    <_>
      <internalNodes>
        0 -1 14446 944520171 -434431494 17023031 1381978139 -1878413304
        -1431699410 58822861 1450968733</internalNodes>
      <leafValues>
        -4.5494705438613892e-01 2.8388983011245728e-01</leafValues></_>
    <_>
      <internalNodes>
        0 -1 13078 269824497 1426804883 25223381 1163334043 -1316883954
        -930512248 -1744353062 -39058047</internalNodes>
      <leafValues>
        -3.4281203150749207e-01 3.8560333847999573e-01</leafValues></_>
    <_>
      <internalNodes>
        0 -1 17135 1535858643 -819100543 -2113925005 18825241
        -1289871345 159928453 554400351 1328203797</internalNodes>
      <leafValues>
        -3.7902298569679260e-01 3.5642141103744507e-01</leafValues></_>
    <_>
      <internalNodes>
        0 -1 8660 -74818051 -1811133325 268456340 1515864785 180937169
        628097065 135261098 993659341</internalNodes>
      <leafValues>
        -4.0303593873977661e-01 3.5146999359130859e-01</leafValues></_>
    <_>
      <internalNodes>
        0 -1 20879 -1289788239 -2062315199 -469724784 -398335908
        948052785 -863305470 -380422048 -11810107</internalNodes>
      <leafValues>
        -3.7491866946220398e-01 3.6799919605255127e-01</leafValues></_>
    <_>
      <internalNodes>
        0 -1 381 -373363129 -322355994 1979653476 339271501 201059630
        -717263041 133642022 -146061268</internalNodes>
      <leafValues>
        -3.4240552783012390e-01 4.1153633594512939e-01</leafValues></_>
    <_>
      <internalNodes>
        0 -1 15775 964950639 -2054905663 268767699 1545568267 320568315
        1797587114 1207962307 84173088</internalNodes>
      <leafValues>
        -5.5684024095535278e-01 2.6674461364746094e-01</leafValues></_>
    <_>
      <internalNodes>
        0 -1 15992 -1143887860 1526706409 -636445481 -697188245
        473080888 -325601262 -1828667342 277506431</internalNodes>
      <leafValues>
        -5.1187366247177124e-01 2.7191957831382751e-01</leafValues></_></weakClassifiers></stage14>
</opencv_storage>
