<?xml version="1.0"?>
<opencv_storage>
<stage8>
  <maxWeakCount>13</maxWeakCount>
  <stageThreshold>-1.4906187057495117e+00</stageThreshold>
  <weakClassifiers>
    <_>
      <internalNodes>
        0 -1 16420 1062433279 -3694349 1430485127 1469421019 -267650369
        -1475378812 1395898267 1534706375</internalNodes>
      <leafValues>
        -5.7971012592315674e-01 2.6558265089988708e-01</leafValues></_>
    <_>
      <internalNodes>
        0 -1 13498 1569930235 1402279749 1359026143 1952011159 -92081157
        -1379191807 414101935 167831484</internalNodes>
      <leafValues>
        -4.3070226907730103e-01 3.6111944913864136e-01</leafValues></_>
    <_>
      <internalNodes>
        0 -1 13643 188227004 -3189764 -581948931 -1704029730 -1182393388
        -387628352 856330749 781716940</internalNodes>
      <leafValues>
        -6.9938147068023682e-01 2.1541325747966766e-01</leafValues></_>
    <_>
      <internalNodes>
        0 -1 11457 489961461 -972233471 -955736050 2061242648
        -1626838742 -723189501 -1567966889 -1087356491</internalNodes>
      <leafValues>
        -4.6684476733207703e-01 3.4208518266677856e-01</leafValues></_>
    <_>
      <internalNodes>
        0 -1 3546 2002213038 1920680023 -1635766292 323617180 583587838
        -927956856 -623436089 461062654</internalNodes>
      <leafValues>
        -5.7539272308349609e-01 2.7589839696884155e-01</leafValues></_>
    <_>
      <internalNodes>
        0 -1 15750 932399087 1573945435 1719698717 5227546 436283562
        16943104 1401258679 1108359173</internalNodes>
      <leafValues>
        -5.8891183137893677e-01 2.8788122534751892e-01</leafValues></_>
    <_>
      <internalNodes>
        0 -1 14916 520173791 -510574115 -2121708967 1280171037
        -1324749954 -498499560 1770573599 1280907280</internalNodes>
      <leafValues>
        -4.6463415026664734e-01 3.4890836477279663e-01</leafValues></_>
    <_>
      <internalNodes>
        0 -1 16500 898750459 158024799 1141020893 81621257 176718355
        1484784176 16793687 475302865</internalNodes>
      <leafValues>
        -5.5602788925170898e-01 3.1366604566574097e-01</leafValues></_>
    <_>
      <internalNodes>
        0 -1 15850 893919025 -472923847 -804024847 231444767 -1304288334
        -1635442269 597335900 -1189345152</internalNodes>
      <leafValues>
        -4.5807588100433350e-01 3.8113349676132202e-01</leafValues></_>
    <_>
      <internalNodes>
        0 -1 15608 769471353 -1985193601 486621501 1212273773 -645287058
        -595394549 1216732543 -283315004</internalNodes>
      <leafValues>
        -4.3558818101882935e-01 4.0687698125839233e-01</leafValues></_>
    <_>
      <internalNodes>
        0 -1 1281 238611495 -6859909 -32369094 -890709182 1740332365
        1867712573 -1345840657 -38069498</internalNodes>
      <leafValues>
        -4.3717855215072632e-01 4.2665398120880127e-01</leafValues></_>
    <_>
      <internalNodes>
        0 -1 13478 324409855 389615709 335577161 -1563686651 729917887
        -2122153941 -1827953837 230336788</internalNodes>
      <leafValues>
        -4.3870717287063599e-01 4.2707300186157227e-01</leafValues></_>
    <_>
      <internalNodes>
        0 -1 211 1216538927 -1354365634 -701238966 -77823851 899806167
        2089521680 -2044701744 -483958235</internalNodes>
      <leafValues>
        -4.5986410975456238e-01 4.0400481224060059e-01</leafValues></_></weakClassifiers></stage8>
</opencv_storage>
