<?xml version="1.0"?>
<opencv_storage>
<cascade>
  <stageType>BOOST</stageType>
  <featureType>HAAR</featureType>
  <height>12</height>
  <width>25</width>
  <stageParams>
    <boostType>GAB</boostType>
    <minHitRate>9.9998998641967773e-01</minHitRate>
    <maxFalseAlarm>5.0000000000000000e-01</maxFalseAlarm>
    <weightTrimRate>9.4999999999999996e-01</weightTrimRate>
    <maxDepth>1</maxDepth>
    <maxWeakCount>100</maxWeakCount></stageParams>
  <featureParams>
    <maxCatCount>0</maxCatCount>
    <featSize>1</featSize>
    <mode>BASIC</mode></featureParams>
  <stageNum>20</stageNum>
  <stages>
    <!-- stage 0 -->
    <_>
      <maxWeakCount>5</maxWeakCount>
      <stageThreshold>-1.0205624103546143e+00</stageThreshold>
      <weakClassifiers>
        <_>
          <internalNodes>
            0 -1 63 1.2716758251190186e-01</internalNodes>
          <leafValues>
            -8.0184942483901978e-01 8.9285713434219360e-01</leafValues></_>
        <_>
          <internalNodes>
            0 -1 48 2.6168411970138550e-01</internalNodes>
          <leafValues>
            -4.1831228137016296e-01 8.9564174413681030e-01</leafValues></_>
        <_>
          <internalNodes>
            0 -1 36 2.5065867230296135e-03</internalNodes>
          <leafValues>
            3.6836561560630798e-01 -9.6561092138290405e-01</leafValues></_>
        <_>
          <internalNodes>
            0 -1 5 1.0474640130996704e-01</internalNodes>
          <leafValues>
            -4.4288107752799988e-01 6.8236958980560303e-01</leafValues></_>
        <_>
          <internalNodes>
            0 -1 117 2.7473196387290955e-03</internalNodes>
          <leafValues>
            2.7411466836929321e-01 -9.6676748991012573e-01</leafValues></_></weakClassifiers></_>
    <!-- stage 1 -->
    <_>
      <maxWeakCount>6</maxWeakCount>
      <stageThreshold>-1.4476052522659302e+00</stageThreshold>
      <weakClassifiers>
        <_>
          <internalNodes>
            0 -1 80 1.5417520701885223e-01</internalNodes>
          <leafValues>
            -7.4311923980712891e-01 7.8787881135940552e-01</leafValues></_>
        <_>
          <internalNodes>
            0 -1 3 9.6488192677497864e-02</internalNodes>
          <leafValues>
            -5.4050940275192261e-01 6.0765612125396729e-01</leafValues></_>
        <_>
          <internalNodes>
            0 -1 117 -1.9713451620191336e-03</internalNodes>
          <leafValues>
            -8.5866856575012207e-01 4.0332993865013123e-01</leafValues></_>
        <_>
          <internalNodes>
            0 -1 129 7.7977934852242470e-03</internalNodes>
          <leafValues>
            2.2204573452472687e-01 -9.6644425392150879e-01</leafValues></_>
        <_>
          <internalNodes>
            0 -1 37 -1.0964132845401764e-02</internalNodes>
          <leafValues>
            -9.7095471620559692e-01 2.2880375385284424e-01</leafValues></_>
        <_>
          <internalNodes>
            0 -1 51 -7.3951054364442825e-03</internalNodes>
          <leafValues>
            -9.7290289402008057e-01 2.4384249746799469e-01</leafValues></_></weakClassifiers></_>
    <!-- stage 2 -->
    <_>
      <maxWeakCount>6</maxWeakCount>
      <stageThreshold>-1.2848863601684570e+00</stageThreshold>
      <weakClassifiers>
        <_>
          <internalNodes>
            0 -1 63 2.2859734296798706e-01</internalNodes>
          <leafValues>
            -6.5313655138015747e-01 8.0000001192092896e-01</leafValues></_>
        <_>
          <internalNodes>
            0 -1 138 -1.0719226673245430e-02</internalNodes>
          <leafValues>
            -9.5559859275817871e-01 2.4908161163330078e-01</leafValues></_>
        <_>
          <internalNodes>
            0 -1 144 5.5254427716135979e-03</internalNodes>
          <leafValues>
            2.2900320589542389e-01 -8.9380002021789551e-01</leafValues></_>
        <_>
          <internalNodes>
            0 -1 14 7.2609640657901764e-02</internalNodes>
          <leafValues>
            -4.3489125370979309e-01 6.1474883556365967e-01</leafValues></_>
        <_>
          <internalNodes>
            0 -1 173 3.1167066190391779e-03</internalNodes>
          <leafValues>
            2.7922448515892029e-01 -8.9090138673782349e-01</leafValues></_>
        <_>
          <internalNodes>
            0 -1 185 3.7081758491694927e-03</internalNodes>
          <leafValues>
            2.8912118077278137e-01 -8.3164405822753906e-01</leafValues></_></weakClassifiers></_>
    <!-- stage 3 -->
    <_>
      <maxWeakCount>5</maxWeakCount>
      <stageThreshold>-1.4827231168746948e+00</stageThreshold>
      <weakClassifiers>
        <_>
          <internalNodes>
            0 -1 34 2.8377458453178406e-01</internalNodes>
          <leafValues>
            -6.0779535770416260e-01 7.0588237047195435e-01</leafValues></_>
        <_>
          <internalNodes>
            0 -1 159 5.4500051774084568e-03</internalNodes>
          <leafValues>
            2.2252137959003448e-01 -9.3522363901138306e-01</leafValues></_>
        <_>
          <internalNodes>
            0 -1 2 1.0592688620090485e-01</internalNodes>
          <leafValues>
            -5.1644450426101685e-01 4.5227336883544922e-01</leafValues></_>
        <_>
          <internalNodes>
            0 -1 107 7.7887158840894699e-03</internalNodes>
          <leafValues>
            2.6870098710060120e-01 -9.3746727705001831e-01</leafValues></_>
        <_>
          <internalNodes>
            0 -1 109 -4.7098696231842041e-03</internalNodes>
          <leafValues>
            -8.4970563650131226e-01 2.9939901828765869e-01</leafValues></_></weakClassifiers></_>
    <!-- stage 4 -->
    <_>
      <maxWeakCount>8</maxWeakCount>
      <stageThreshold>-1.2280137538909912e+00</stageThreshold>
      <weakClassifiers>
        <_>
          <internalNodes>
            0 -1 64 2.4018031358718872e-01</internalNodes>
          <leafValues>
            -6.4563757181167603e-01 5.0000000000000000e-01</leafValues></_>
        <_>
          <internalNodes>
            0 -1 108 -5.4019768722355366e-03</internalNodes>
          <leafValues>
            -7.8179413080215454e-01 1.9445693492889404e-01</leafValues></_>
        <_>
          <internalNodes>
            0 -1 82 -5.0112367607653141e-03</internalNodes>
          <leafValues>
            -8.9536970853805542e-01 1.8639118969440460e-01</leafValues></_>
        <_>
          <internalNodes>
            0 -1 84 4.9363253638148308e-03</internalNodes>
          <leafValues>
            2.2326101362705231e-01 -7.6413953304290771e-01</leafValues></_>
        <_>
          <internalNodes>
            0 -1 110 4.2110281065106392e-03</internalNodes>
          <leafValues>
            2.5706464052200317e-01 -7.9669010639190674e-01</leafValues></_>
        <_>
          <internalNodes>
            0 -1 160 -7.4085436062887311e-04</internalNodes>
          <leafValues>
            -7.7165716886520386e-01 2.0729812979698181e-01</leafValues></_>
        <_>
          <internalNodes>
            0 -1 186 -4.8776669427752495e-03</internalNodes>
          <leafValues>
            -8.5677826404571533e-01 2.2078080475330353e-01</leafValues></_>
        <_>
          <internalNodes>
            0 -1 87 -9.7048410680145025e-04</internalNodes>
          <leafValues>
            -7.8986793756484985e-01 2.0119833946228027e-01</leafValues></_></weakClassifiers></_>
    <!-- stage 5 -->
    <_>
      <maxWeakCount>8</maxWeakCount>
      <stageThreshold>-1.2817293405532837e+00</stageThreshold>
      <weakClassifiers>
        <_>
          <internalNodes>
            0 -1 17 4.8726254701614380e-01</internalNodes>
          <leafValues>
            -5.3810083866119385e-01 6.3333332538604736e-01</leafValues></_>
        <_>
          <internalNodes>
            0 -1 111 -3.3365930430591106e-03</internalNodes>
          <leafValues>
            -8.2095760107040405e-01 2.4500842392444611e-01</leafValues></_>
        <_>
          <internalNodes>
            0 -1 89 -4.4755744747817516e-03</internalNodes>
          <leafValues>
            -8.0630922317504883e-01 1.8025177717208862e-01</leafValues></_>
        <_>
          <internalNodes>
            0 -1 192 -3.4224446862936020e-03</internalNodes>
          <leafValues>
            -7.7867257595062256e-01 2.0575824379920959e-01</leafValues></_>
        <_>
          <internalNodes>
            0 -1 143 -1.7746690660715103e-02</internalNodes>
          <leafValues>
            -7.6726794242858887e-01 2.4712906777858734e-01</leafValues></_>
        <_>
          <internalNodes>
            0 -1 113 4.8879580572247505e-03</internalNodes>
          <leafValues>
            1.4021275937557220e-01 -9.6045827865600586e-01</leafValues></_>
        <_>
          <internalNodes>
            0 -1 151 -3.0121034942567348e-03</internalNodes>
          <leafValues>
            -9.2449134588241577e-01 1.0481026768684387e-01</leafValues></_>
        <_>
          <internalNodes>
            0 -1 154 3.0520935542881489e-03</internalNodes>
          <leafValues>
            1.8572796881198883e-01 -9.1684454679489136e-01</leafValues></_></weakClassifiers></_>
    <!-- stage 6 -->
    <_>
      <maxWeakCount>8</maxWeakCount>
      <stageThreshold>-1.0669051408767700e+00</stageThreshold>
      <weakClassifiers>
        <_>
          <internalNodes>
            0 -1 79 9.1715067625045776e-02</internalNodes>
          <leafValues>
            -6.2691134214401245e-01 2.3462414741516113e-01</leafValues></_>
        <_>
          <internalNodes>
            0 -1 155 -3.5986765287816525e-03</internalNodes>
          <leafValues>
            -8.5894542932510376e-01 1.9727595150470734e-01</leafValues></_>
        <_>
          <internalNodes>
            0 -1 157 1.9008491653949022e-03</internalNodes>
          <leafValues>
            2.2041530907154083e-01 -7.8192806243896484e-01</leafValues></_>
        <_>
          <internalNodes>
            0 -1 177 4.3868110515177250e-03</internalNodes>
          <leafValues>
            2.0418177545070648e-01 -8.0077111721038818e-01</leafValues></_>
        <_>
          <internalNodes>
            0 -1 4 9.0379662811756134e-02</internalNodes>
          <leafValues>
            -3.7012785673141479e-01 4.9749645590782166e-01</leafValues></_>
        <_>
          <internalNodes>
            0 -1 57 5.3051197901368141e-03</internalNodes>
          <leafValues>
            2.1437333524227142e-01 -9.0765208005905151e-01</leafValues></_>
        <_>
          <internalNodes>
            0 -1 66 -6.6355755552649498e-03</internalNodes>
          <leafValues>
            -8.3456015586853027e-01 2.0906583964824677e-01</leafValues></_>
        <_>
          <internalNodes>
            0 -1 67 4.6545267105102539e-03</internalNodes>
          <leafValues>
            2.0658427476882935e-01 -8.5253590345382690e-01</leafValues></_></weakClassifiers></_>
    <!-- stage 7 -->
    <_>
      <maxWeakCount>9</maxWeakCount>
      <stageThreshold>-1.5746226310729980e+00</stageThreshold>
      <weakClassifiers>
        <_>
          <internalNodes>
            0 -1 16 -2.5353405624628067e-02</internalNodes>
          <leafValues>
            4.4525548815727234e-01 -5.2380955219268799e-01</leafValues></_>
        <_>
          <internalNodes>
            0 -1 166 -4.8760045319795609e-03</internalNodes>
          <leafValues>
            -8.1048005819320679e-01 2.0702305436134338e-01</leafValues></_>
        <_>
          <internalNodes>
            0 -1 169 3.7474150303751230e-03</internalNodes>
          <leafValues>
            1.7776261270046234e-01 -9.0753245353698730e-01</leafValues></_>
        <_>
          <internalNodes>
            0 -1 114 -6.7221629433333874e-04</internalNodes>
          <leafValues>
            -7.3588764667510986e-01 2.1722991764545441e-01</leafValues></_>
        <_>
          <internalNodes>
            0 -1 114 8.9598807971924543e-04</internalNodes>
          <leafValues>
            2.2697637975215912e-01 -7.5372213125228882e-01</leafValues></_>
        <_>
          <internalNodes>
            0 -1 139 5.7075088843703270e-03</internalNodes>
          <leafValues>
            -4.9257460236549377e-01 3.2373708486557007e-01</leafValues></_>
        <_>
          <internalNodes>
            0 -1 204 -6.2597496435046196e-03</internalNodes>
          <leafValues>
            -7.9256182909011841e-01 1.9397696852684021e-01</leafValues></_>
        <_>
          <internalNodes>
            0 -1 203 8.8155549019575119e-03</internalNodes>
          <leafValues>
            2.3520478606224060e-01 -6.9067525863647461e-01</leafValues></_>
        <_>
          <internalNodes>
            0 -1 96 6.8354899995028973e-03</internalNodes>
          <leafValues>
            1.2697091698646545e-01 -7.8162556886672974e-01</leafValues></_></weakClassifiers></_>
    <!-- stage 8 -->
    <_>
      <maxWeakCount>10</maxWeakCount>
      <stageThreshold>-1.7620828151702881e+00</stageThreshold>
      <weakClassifiers>
        <_>
          <internalNodes>
            0 -1 8 -1.3193139433860779e-01</internalNodes>
          <leafValues>
            6.5822786092758179e-01 -4.3957218527793884e-01</leafValues></_>
        <_>
          <internalNodes>
            0 -1 99 -5.3675379604101181e-03</internalNodes>
          <leafValues>
            -8.3765757083892822e-01 2.1988409757614136e-01</leafValues></_>
        <_>
          <internalNodes>
            0 -1 100 3.9215367287397385e-03</internalNodes>
          <leafValues>
            1.5529601275920868e-01 -8.6825913190841675e-01</leafValues></_>
        <_>
          <internalNodes>
            0 -1 88 3.5514722112566233e-03</internalNodes>
          <leafValues>
            1.5538765490055084e-01 -8.1026709079742432e-01</leafValues></_>
        <_>
          <internalNodes>
            0 -1 89 -3.0716480687260628e-03</internalNodes>
          <leafValues>
            -6.5341883897781372e-01 2.5523984432220459e-01</leafValues></_>
        <_>
          <internalNodes>
            0 -1 95 3.5366336815059185e-03</internalNodes>
          <leafValues>
            1.9073367118835449e-01 -7.6230698823928833e-01</leafValues></_>
        <_>
          <internalNodes>
            0 -1 22 -4.9985209479928017e-03</internalNodes>
          <leafValues>
            -9.0273761749267578e-01 7.3080159723758698e-02</leafValues></_>
        <_>
          <internalNodes>
            0 -1 53 -6.8760281428694725e-03</internalNodes>
          <leafValues>
            -8.9900511503219604e-01 1.8250691890716553e-01</leafValues></_>
        <_>
          <internalNodes>
            0 -1 49 6.9609815254807472e-03</internalNodes>
          <leafValues>
            2.0363685488700867e-01 -7.3963999748229980e-01</leafValues></_>
        <_>
          <internalNodes>
            0 -1 198 -3.4227133728563786e-03</internalNodes>
          <leafValues>
            -7.6910912990570068e-01 1.1721484363079071e-01</leafValues></_></weakClassifiers></_>
    <!-- stage 9 -->
    <_>
      <maxWeakCount>10</maxWeakCount>
      <stageThreshold>-1.4178043603897095e+00</stageThreshold>
      <weakClassifiers>
        <_>
          <internalNodes>
            0 -1 147 1.9138190895318985e-02</internalNodes>
          <leafValues>
            -7.5559377670288086e-01 2.5781250000000000e-01</leafValues></_>
        <_>
          <internalNodes>
            0 -1 70 -4.3024778366088867e-02</internalNodes>
          <leafValues>
            5.3047233819961548e-01 -4.0504908561706543e-01</leafValues></_>
        <_>
          <internalNodes>
            0 -1 10 -9.4494849443435669e-02</internalNodes>
          <leafValues>
            -7.3271977901458740e-01 2.4259215593338013e-01</leafValues></_>
        <_>
          <internalNodes>
            0 -1 23 2.1288632415235043e-03</internalNodes>
          <leafValues>
            2.0393675565719604e-01 -6.8343353271484375e-01</leafValues></_>
        <_>
          <internalNodes>
            0 -1 205 -7.8677646815776825e-03</internalNodes>
          <leafValues>
            -9.1143167018890381e-01 1.3268573582172394e-01</leafValues></_>
        <_>
          <internalNodes>
            0 -1 93 -1.1653769761323929e-02</internalNodes>
          <leafValues>
            7.0077180862426758e-01 -2.1412990987300873e-01</leafValues></_>
        <_>
          <internalNodes>
            0 -1 26 2.7504544705152512e-02</internalNodes>
          <leafValues>
            -2.2463616728782654e-01 8.1303811073303223e-01</leafValues></_>
        <_>
          <internalNodes>
            0 -1 21 -8.7652448564767838e-04</internalNodes>
          <leafValues>
            -5.9186083078384399e-01 2.7327349781990051e-01</leafValues></_>
        <_>
          <internalNodes>
            0 -1 122 1.1711828410625458e-02</internalNodes>
          <leafValues>
            1.9051685929298401e-01 -6.2947326898574829e-01</leafValues></_>
        <_>
          <internalNodes>
            0 -1 168 -8.6148157715797424e-03</internalNodes>
          <leafValues>
            -8.4260958433151245e-01 1.3294962048530579e-01</leafValues></_></weakClassifiers></_>
    <!-- stage 10 -->
    <_>
      <maxWeakCount>11</maxWeakCount>
      <stageThreshold>-1.4781707525253296e+00</stageThreshold>
      <weakClassifiers>
        <_>
          <internalNodes>
            0 -1 106 8.7039709091186523e-02</internalNodes>
          <leafValues>
            -4.9940687417984009e-01 4.5600000023841858e-01</leafValues></_>
        <_>
          <internalNodes>
            0 -1 156 -2.4461117573082447e-03</internalNodes>
          <leafValues>
            -7.1679800748825073e-01 1.8939459323883057e-01</leafValues></_>
        <_>
          <internalNodes>
            0 -1 135 -9.5350416377186775e-03</internalNodes>
          <leafValues>
            6.4498901367187500e-01 -2.2898317873477936e-01</leafValues></_>
        <_>
          <internalNodes>
            0 -1 43 -1.6227934509515762e-02</internalNodes>
          <leafValues>
            4.3546655774116516e-01 -3.2291391491889954e-01</leafValues></_>
        <_>
          <internalNodes>
            0 -1 74 -1.0160373523831367e-02</internalNodes>
          <leafValues>
            -7.4543225765228271e-01 2.2505909204483032e-01</leafValues></_>
        <_>
          <internalNodes>
            0 -1 98 3.0898023396730423e-03</internalNodes>
          <leafValues>
            1.7013500630855560e-01 -7.1893054246902466e-01</leafValues></_>
        <_>
          <internalNodes>
            0 -1 69 -4.8460038378834724e-03</internalNodes>
          <leafValues>
            -7.3303496837615967e-01 1.4785490930080414e-01</leafValues></_>
        <_>
          <internalNodes>
            0 -1 196 -5.3063705563545227e-03</internalNodes>
          <leafValues>
            -6.8855673074722290e-01 1.7997120320796967e-01</leafValues></_>
        <_>
          <internalNodes>
            0 -1 193 9.0653281658887863e-03</internalNodes>
          <leafValues>
            1.6917158663272858e-01 -7.8591024875640869e-01</leafValues></_>
        <_>
          <internalNodes>
            0 -1 121 -1.4567184261977673e-03</internalNodes>
          <leafValues>
            -5.7762163877487183e-01 1.7471435666084290e-01</leafValues></_>
        <_>
          <internalNodes>
            0 -1 152 -2.9074982739984989e-03</internalNodes>
          <leafValues>
            -8.0078786611557007e-01 1.0663750767707825e-01</leafValues></_></weakClassifiers></_>
    <!-- stage 11 -->
    <_>
      <maxWeakCount>13</maxWeakCount>
      <stageThreshold>-1.6017012596130371e+00</stageThreshold>
      <weakClassifiers>
        <_>
          <internalNodes>
            0 -1 104 2.1053090691566467e-02</internalNodes>
          <leafValues>
            -6.3221883773803711e-01 2.5057470798492432e-01</leafValues></_>
        <_>
          <internalNodes>
            0 -1 29 -1.4951504766941071e-02</internalNodes>
          <leafValues>
            5.9763503074645996e-01 -3.0995106697082520e-01</leafValues></_>
        <_>
          <internalNodes>
            0 -1 153 3.2126884907484055e-03</internalNodes>
          <leafValues>
            2.1885675191879272e-01 -6.7625629901885986e-01</leafValues></_>
        <_>
          <internalNodes>
            0 -1 90 -6.4288969151675701e-03</internalNodes>
          <leafValues>
            -7.2973656654357910e-01 2.1477322280406952e-01</leafValues></_>
        <_>
          <internalNodes>
            0 -1 78 -1.4794640243053436e-02</internalNodes>
          <leafValues>
            8.1999897956848145e-01 -1.9912923872470856e-01</leafValues></_>
        <_>
          <internalNodes>
            0 -1 92 2.5533870793879032e-03</internalNodes>
          <leafValues>
            -2.7202111482620239e-01 4.8486465215682983e-01</leafValues></_>
        <_>
          <internalNodes>
            0 -1 68 -1.1002682149410248e-03</internalNodes>
          <leafValues>
            -6.3432389497756958e-01 2.1378484368324280e-01</leafValues></_>
        <_>
          <internalNodes>
            0 -1 71 -1.0244516655802727e-02</internalNodes>
          <leafValues>
            6.5311181545257568e-01 -2.4371889233589172e-01</leafValues></_>
        <_>
          <internalNodes>
            0 -1 85 5.0442881882190704e-02</internalNodes>
          <leafValues>
            -3.0914747714996338e-01 3.7408715486526489e-01</leafValues></_>
        <_>
          <internalNodes>
            0 -1 12 1.4036407694220543e-02</internalNodes>
          <leafValues>
            -1.5633897483348846e-01 7.9681491851806641e-01</leafValues></_>
        <_>
          <internalNodes>
            0 -1 182 3.0005166307091713e-02</internalNodes>
          <leafValues>
            -3.1773635745048523e-01 4.1631841659545898e-01</leafValues></_>
        <_>
          <internalNodes>
            0 -1 200 4.9855252727866173e-03</internalNodes>
          <leafValues>
            1.8003733456134796e-01 -6.8443012237548828e-01</leafValues></_>
        <_>
          <internalNodes>
            0 -1 194 1.9021056592464447e-02</internalNodes>
          <leafValues>
            1.4933581650257111e-01 -7.1973055601119995e-01</leafValues></_></weakClassifiers></_>
    <!-- stage 12 -->
    <_>
      <maxWeakCount>14</maxWeakCount>
      <stageThreshold>-1.4828914403915405e+00</stageThreshold>
      <weakClassifiers>
        <_>
          <internalNodes>
            0 -1 62 -2.2367192432284355e-02</internalNodes>
          <leafValues>
            7.2058820724487305e-01 -4.2319747805595398e-01</leafValues></_>
        <_>
          <internalNodes>
            0 -1 47 8.3400398492813110e-02</internalNodes>
          <leafValues>
            -2.1303462982177734e-01 6.1669266223907471e-01</leafValues></_>
        <_>
          <internalNodes>
            0 -1 7 2.5201931595802307e-02</internalNodes>
          <leafValues>
            -2.4293440580368042e-01 4.5186781883239746e-01</leafValues></_>
        <_>
          <internalNodes>
            0 -1 88 3.5219718702137470e-03</internalNodes>
          <leafValues>
            1.3456480205059052e-01 -7.6816838979721069e-01</leafValues></_>
        <_>
          <internalNodes>
            0 -1 15 -3.8332641124725342e-02</internalNodes>
          <leafValues>
            -6.0219252109527588e-01 1.8509189784526825e-01</leafValues></_>
        <_>
          <internalNodes>
            0 -1 195 -2.3092515766620636e-03</internalNodes>
          <leafValues>
            -5.6416720151901245e-01 1.7838427424430847e-01</leafValues></_>
        <_>
          <internalNodes>
            0 -1 142 -4.7676998656243086e-04</internalNodes>
          <leafValues>
            -6.1352258920669556e-01 1.2515687942504883e-01</leafValues></_>
        <_>
          <internalNodes>
            0 -1 130 3.9310185238718987e-03</internalNodes>
          <leafValues>
            2.2550395131111145e-01 -5.2264583110809326e-01</leafValues></_>
        <_>
          <internalNodes>
            0 -1 81 4.3244086205959320e-02</internalNodes>
          <leafValues>
            -1.5830463171005249e-01 7.4670302867889404e-01</leafValues></_>
        <_>
          <internalNodes>
            0 -1 131 -8.4495265036821365e-03</internalNodes>
          <leafValues>
            7.4038875102996826e-01 -1.0625396668910980e-01</leafValues></_>
        <_>
          <internalNodes>
            0 -1 146 -3.8895239122211933e-03</internalNodes>
          <leafValues>
            -7.2699600458145142e-01 1.4285004138946533e-01</leafValues></_>
        <_>
          <internalNodes>
            0 -1 19 6.0946051962673664e-03</internalNodes>
          <leafValues>
            8.5653476417064667e-02 -7.4989324808120728e-01</leafValues></_>
        <_>
          <internalNodes>
            0 -1 201 -2.5572595186531544e-03</internalNodes>
          <leafValues>
            -5.2050912380218506e-01 1.6324770450592041e-01</leafValues></_>
        <_>
          <internalNodes>
            0 -1 25 -3.4555114805698395e-02</internalNodes>
          <leafValues>
            8.1091946363449097e-01 -1.0943383723497391e-01</leafValues></_></weakClassifiers></_>
    <!-- stage 13 -->
    <_>
      <maxWeakCount>15</maxWeakCount>
      <stageThreshold>-1.6969910860061646e+00</stageThreshold>
      <weakClassifiers>
        <_>
          <internalNodes>
            0 -1 91 -9.6707064658403397e-03</internalNodes>
          <leafValues>
            6.3398694992065430e-01 -4.2978724837303162e-01</leafValues></_>
        <_>
          <internalNodes>
            0 -1 133 4.1331015527248383e-02</internalNodes>
          <leafValues>
            -4.7894352674484253e-01 2.9310455918312073e-01</leafValues></_>
        <_>
          <internalNodes>
            0 -1 27 7.7789751812815666e-03</internalNodes>
          <leafValues>
            -3.0519697070121765e-01 5.2712476253509521e-01</leafValues></_>
        <_>
          <internalNodes>
            0 -1 59 6.1259195208549500e-03</internalNodes>
          <leafValues>
            1.9886776804924011e-01 -7.7619820833206177e-01</leafValues></_>
        <_>
          <internalNodes>
            0 -1 58 -4.1693113744258881e-03</internalNodes>
          <leafValues>
            -5.9003156423568726e-01 2.3558256030082703e-01</leafValues></_>
        <_>
          <internalNodes>
            0 -1 11 7.6937958598136902e-02</internalNodes>
          <leafValues>
            -2.3275320231914520e-01 5.5424296855926514e-01</leafValues></_>
        <_>
          <internalNodes>
            0 -1 146 4.4056335464119911e-03</internalNodes>
          <leafValues>
            1.2862849235534668e-01 -7.6186197996139526e-01</leafValues></_>
        <_>
          <internalNodes>
            0 -1 72 2.7126893401145935e-02</internalNodes>
          <leafValues>
            -2.0226672291755676e-01 6.0611701011657715e-01</leafValues></_>
        <_>
          <internalNodes>
            0 -1 172 7.1650568861514330e-04</internalNodes>
          <leafValues>
            2.0533789694309235e-01 -6.2542068958282471e-01</leafValues></_>
        <_>
          <internalNodes>
            0 -1 171 -1.6098255291581154e-03</internalNodes>
          <leafValues>
            -5.8225035667419434e-01 1.8913944065570831e-01</leafValues></_>
        <_>
          <internalNodes>
            0 -1 18 2.0994821563363075e-02</internalNodes>
          <leafValues>
            -2.3922757804393768e-01 4.5634436607360840e-01</leafValues></_>
        <_>
          <internalNodes>
            0 -1 167 8.1235347315669060e-03</internalNodes>
          <leafValues>
            -1.8444868922233582e-01 5.2175945043563843e-01</leafValues></_>
        <_>
          <internalNodes>
            0 -1 76 -2.5475502479821444e-03</internalNodes>
          <leafValues>
            -6.6752135753631592e-01 1.5738286077976227e-01</leafValues></_>
        <_>
          <internalNodes>
            0 -1 42 1.4464672654867172e-02</internalNodes>
          <leafValues>
            -1.5567310154438019e-01 7.9901927709579468e-01</leafValues></_>
        <_>
          <internalNodes>
            0 -1 127 -2.5043110363185406e-03</internalNodes>
          <leafValues>
            -6.8053543567657471e-01 1.8775679171085358e-01</leafValues></_></weakClassifiers></_>
    <!-- stage 14 -->
    <_>
      <maxWeakCount>14</maxWeakCount>
      <stageThreshold>-1.3349241018295288e+00</stageThreshold>
      <weakClassifiers>
        <_>
          <internalNodes>
            0 -1 164 8.1508398056030273e-02</internalNodes>
          <leafValues>
            -5.4262518882751465e-01 2.6553672552108765e-01</leafValues></_>
        <_>
          <internalNodes>
            0 -1 77 -2.3737106472253799e-02</internalNodes>
          <leafValues>
            3.2957518100738525e-01 -3.9012712240219116e-01</leafValues></_>
        <_>
          <internalNodes>
            0 -1 52 -4.4047930277884007e-03</internalNodes>
          <leafValues>
            -6.1743116378784180e-01 1.6486428678035736e-01</leafValues></_>
        <_>
          <internalNodes>
            0 -1 101 3.4771384671330452e-03</internalNodes>
          <leafValues>
            1.4076021313667297e-01 -7.6151674985885620e-01</leafValues></_>
        <_>
          <internalNodes>
            0 -1 136 -1.3834077864885330e-02</internalNodes>
          <leafValues>
            6.7016130685806274e-01 -1.8672369420528412e-01</leafValues></_>
        <_>
          <internalNodes>
            0 -1 102 -4.1984654963016510e-03</internalNodes>
          <leafValues>
            -6.9386863708496094e-01 1.9715638458728790e-01</leafValues></_>
        <_>
          <internalNodes>
            0 -1 148 1.2722773477435112e-02</internalNodes>
          <leafValues>
            -2.6341247558593750e-01 5.7571125030517578e-01</leafValues></_>
        <_>
          <internalNodes>
            0 -1 54 2.8084577061235905e-03</internalNodes>
          <leafValues>
            1.8396039307117462e-01 -6.3117969036102295e-01</leafValues></_>
        <_>
          <internalNodes>
            0 -1 132 -1.8083428964018822e-02</internalNodes>
          <leafValues>
            6.3521105051040649e-01 -1.7767687141895294e-01</leafValues></_>
        <_>
          <internalNodes>
            0 -1 116 -2.7752900496125221e-03</internalNodes>
          <leafValues>
            -5.9736931324005127e-01 2.1031567454338074e-01</leafValues></_>
        <_>
          <internalNodes>
            0 -1 126 -1.3321687001734972e-03</internalNodes>
          <leafValues>
            -5.6822681427001953e-01 1.0966572910547256e-01</leafValues></_>
        <_>
          <internalNodes>
            0 -1 123 -4.0524912765249610e-04</internalNodes>
          <leafValues>
            -4.8456427454948425e-01 1.9613352417945862e-01</leafValues></_>
        <_>
          <internalNodes>
            0 -1 175 -1.4386581256985664e-02</internalNodes>
          <leafValues>
            -7.5798642635345459e-01 9.6156403422355652e-02</leafValues></_>
        <_>
          <internalNodes>
            0 -1 55 -9.6848364919424057e-03</internalNodes>
          <leafValues>
            4.9554613232612610e-01 -1.9279211759567261e-01</leafValues></_></weakClassifiers></_>
    <!-- stage 15 -->
    <_>
      <maxWeakCount>14</maxWeakCount>
      <stageThreshold>-1.5425137281417847e+00</stageThreshold>
      <weakClassifiers>
        <_>
          <internalNodes>
            0 -1 39 1.4222240447998047e-01</internalNodes>
          <leafValues>
            -5.5145120620727539e-01 3.3134329319000244e-01</leafValues></_>
        <_>
          <internalNodes>
            0 -1 134 2.7769995853304863e-02</internalNodes>
          <leafValues>
            -4.7194334864616394e-01 2.2733075916767120e-01</leafValues></_>
        <_>
          <internalNodes>
            0 -1 32 -5.0071738660335541e-03</internalNodes>
          <leafValues>
            6.8370515108108521e-01 -1.8252630531787872e-01</leafValues></_>
        <_>
          <internalNodes>
            0 -1 46 1.2686465866863728e-02</internalNodes>
          <leafValues>
            -1.6986148059368134e-01 6.3754922151565552e-01</leafValues></_>
        <_>
          <internalNodes>
            0 -1 208 -5.6072170846164227e-03</internalNodes>
          <leafValues>
            3.2563462853431702e-01 -3.3286094665527344e-01</leafValues></_>
        <_>
          <internalNodes>
            0 -1 165 4.4455910101532936e-03</internalNodes>
          <leafValues>
            1.7643086612224579e-01 -7.3022305965423584e-01</leafValues></_>
        <_>
          <internalNodes>
            0 -1 190 -1.2184286490082741e-02</internalNodes>
          <leafValues>
            8.3409667015075684e-01 -1.7804850637912750e-01</leafValues></_>
        <_>
          <internalNodes>
            0 -1 199 -2.7887709438800812e-03</internalNodes>
          <leafValues>
            -5.1297295093536377e-01 1.8974253535270691e-01</leafValues></_>
        <_>
          <internalNodes>
            0 -1 161 -3.0104722827672958e-03</internalNodes>
          <leafValues>
            -6.1869889497756958e-01 1.3550649583339691e-01</leafValues></_>
        <_>
          <internalNodes>
            0 -1 145 4.4711148366332054e-03</internalNodes>
          <leafValues>
            -1.6365985572338104e-01 6.0819792747497559e-01</leafValues></_>
        <_>
          <internalNodes>
            0 -1 197 4.4719632714986801e-03</internalNodes>
          <leafValues>
            1.7680478096008301e-01 -6.0379678010940552e-01</leafValues></_>
        <_>
          <internalNodes>
            0 -1 206 -1.1083664372563362e-02</internalNodes>
          <leafValues>
            3.2359302043914795e-01 -2.6070126891136169e-01</leafValues></_>
        <_>
          <internalNodes>
            0 -1 125 -8.9144695084542036e-04</internalNodes>
          <leafValues>
            -5.4361820220947266e-01 1.5576957166194916e-01</leafValues></_>
        <_>
          <internalNodes>
            0 -1 40 2.4967629462480545e-02</internalNodes>
          <leafValues>
            -1.9430418312549591e-01 4.6735754609107971e-01</leafValues></_></weakClassifiers></_>
    <!-- stage 16 -->
    <_>
      <maxWeakCount>17</maxWeakCount>
      <stageThreshold>-1.2064235210418701e+00</stageThreshold>
      <weakClassifiers>
        <_>
          <internalNodes>
            0 -1 33 -1.6771234571933746e-02</internalNodes>
          <leafValues>
            4.0932643413543701e-01 -4.2888888716697693e-01</leafValues></_>
        <_>
          <internalNodes>
            0 -1 20 -2.2850640118122101e-02</internalNodes>
          <leafValues>
            4.2154073715209961e-01 -2.7374950051307678e-01</leafValues></_>
        <_>
          <internalNodes>
            0 -1 31 -2.6260460726916790e-03</internalNodes>
          <leafValues>
            -5.8988010883331299e-01 1.3297109305858612e-01</leafValues></_>
        <_>
          <internalNodes>
            0 -1 45 7.8096007928252220e-03</internalNodes>
          <leafValues>
            1.8370145559310913e-01 -5.7568717002868652e-01</leafValues></_>
        <_>
          <internalNodes>
            0 -1 94 -7.2421235963702202e-03</internalNodes>
          <leafValues>
            -8.3550876379013062e-01 8.0370545387268066e-02</leafValues></_>
        <_>
          <internalNodes>
            0 -1 61 3.4313946962356567e-02</internalNodes>
          <leafValues>
            -1.9841885566711426e-01 4.5651522278785706e-01</leafValues></_>
        <_>
          <internalNodes>
            0 -1 119 -5.3055305033922195e-03</internalNodes>
          <leafValues>
            -6.7734915018081665e-01 1.8233986198902130e-01</leafValues></_>
        <_>
          <internalNodes>
            0 -1 184 -5.8071210514754057e-04</internalNodes>
          <leafValues>
            -5.7529836893081665e-01 1.4495527744293213e-01</leafValues></_>
        <_>
          <internalNodes>
            0 -1 112 -3.0989153310656548e-03</internalNodes>
          <leafValues>
            -6.2398886680603027e-01 1.3246126472949982e-01</leafValues></_>
        <_>
          <internalNodes>
            0 -1 44 -8.0593340098857880e-03</internalNodes>
          <leafValues>
            -6.7215228080749512e-01 1.1717420071363449e-01</leafValues></_>
        <_>
          <internalNodes>
            0 -1 183 2.3697733413428068e-03</internalNodes>
          <leafValues>
            8.6249500513076782e-02 -6.1115759611129761e-01</leafValues></_>
        <_>
          <internalNodes>
            0 -1 180 4.3218526989221573e-03</internalNodes>
          <leafValues>
            -3.3809635043144226e-01 2.5164717435836792e-01</leafValues></_>
        <_>
          <internalNodes>
            0 -1 209 -6.4315404742956161e-03</internalNodes>
          <leafValues>
            5.1397728919982910e-01 -1.6449573636054993e-01</leafValues></_>
        <_>
          <internalNodes>
            0 -1 65 -7.1016103029251099e-03</internalNodes>
          <leafValues>
            6.4675873517990112e-01 -1.1216410249471664e-01</leafValues></_>
        <_>
          <internalNodes>
            0 -1 6 9.3899350613355637e-03</internalNodes>
          <leafValues>
            -2.2148336470127106e-01 3.8183015584945679e-01</leafValues></_>
        <_>
          <internalNodes>
            0 -1 13 -3.5867926198989153e-03</internalNodes>
          <leafValues>
            -7.1102756261825562e-01 1.1403398960828781e-01</leafValues></_>
        <_>
          <internalNodes>
            0 -1 28 7.4968189001083374e-03</internalNodes>
          <leafValues>
            -2.2930203378200531e-01 3.5492259263992310e-01</leafValues></_></weakClassifiers></_>
    <!-- stage 17 -->
    <_>
      <maxWeakCount>16</maxWeakCount>
      <stageThreshold>-1.1631809473037720e+00</stageThreshold>
      <weakClassifiers>
        <_>
          <internalNodes>
            0 -1 0 -3.6949619650840759e-02</internalNodes>
          <leafValues>
            4.0880504250526428e-01 -3.9828693866729736e-01</leafValues></_>
        <_>
          <internalNodes>
            0 -1 141 -5.0777075812220573e-03</internalNodes>
          <leafValues>
            -7.0161294937133789e-01 1.3580670952796936e-01</leafValues></_>
        <_>
          <internalNodes>
            0 -1 120 6.0954098589718342e-03</internalNodes>
          <leafValues>
            9.0664319694042206e-02 -7.6644933223724365e-01</leafValues></_>
        <_>
          <internalNodes>
            0 -1 124 -2.0476093050092459e-04</internalNodes>
          <leafValues>
            -4.2326197028160095e-01 2.1433092653751373e-01</leafValues></_>
        <_>
          <internalNodes>
            0 -1 50 3.4634970128536224e-02</internalNodes>
          <leafValues>
            -1.5801742672920227e-01 7.1029323339462280e-01</leafValues></_>
        <_>
          <internalNodes>
            0 -1 22 -4.9795843660831451e-03</internalNodes>
          <leafValues>
            -8.2171398401260376e-01 1.1368133872747421e-01</leafValues></_>
        <_>
          <internalNodes>
            0 -1 83 -5.0661731511354446e-03</internalNodes>
          <leafValues>
            -7.7683109045028687e-01 8.5917234420776367e-02</leafValues></_>
        <_>
          <internalNodes>
            0 -1 149 6.1501432210206985e-03</internalNodes>
          <leafValues>
            -1.8502381443977356e-01 4.5868879556655884e-01</leafValues></_>
        <_>
          <internalNodes>
            0 -1 179 -5.2990214899182320e-03</internalNodes>
          <leafValues>
            -8.9672875404357910e-01 8.8583916425704956e-02</leafValues></_>
        <_>
          <internalNodes>
            0 -1 83 4.4158762320876122e-03</internalNodes>
          <leafValues>
            1.2267263233661652e-01 -5.5074548721313477e-01</leafValues></_>
        <_>
          <internalNodes>
            0 -1 207 4.5272866263985634e-03</internalNodes>
          <leafValues>
            -3.1398296356201172e-01 2.4938942492008209e-01</leafValues></_>
        <_>
          <internalNodes>
            0 -1 128 5.3296247497200966e-03</internalNodes>
          <leafValues>
            7.5202964246273041e-02 -9.1853654384613037e-01</leafValues></_>
        <_>
          <internalNodes>
            0 -1 67 5.2437847480177879e-03</internalNodes>
          <leafValues>
            7.2646416723728180e-02 -8.0034965276718140e-01</leafValues></_>
        <_>
          <internalNodes>
            0 -1 73 2.5583846494555473e-02</internalNodes>
          <leafValues>
            1.9935095310211182e-01 -3.5971319675445557e-01</leafValues></_>
        <_>
          <internalNodes>
            0 -1 189 5.4056080989539623e-03</internalNodes>
          <leafValues>
            1.3680006563663483e-01 -5.4566562175750732e-01</leafValues></_>
        <_>
          <internalNodes>
            0 -1 178 -1.0202385019510984e-03</internalNodes>
          <leafValues>
            -4.8701429367065430e-01 1.7051771283149719e-01</leafValues></_></weakClassifiers></_>
    <!-- stage 18 -->
    <_>
      <maxWeakCount>17</maxWeakCount>
      <stageThreshold>-1.2281476259231567e+00</stageThreshold>
      <weakClassifiers>
        <_>
          <internalNodes>
            0 -1 56 -1.2709268368780613e-02</internalNodes>
          <leafValues>
            1.7585301399230957e-01 -5.2528089284896851e-01</leafValues></_>
        <_>
          <internalNodes>
            0 -1 174 -9.6172606572508812e-04</internalNodes>
          <leafValues>
            -5.0278580188751221e-01 1.7898449301719666e-01</leafValues></_>
        <_>
          <internalNodes>
            0 -1 105 -7.5737563893198967e-03</internalNodes>
          <leafValues>
            4.7454404830932617e-01 -1.9683058559894562e-01</leafValues></_>
        <_>
          <internalNodes>
            0 -1 162 1.7185295000672340e-02</internalNodes>
          <leafValues>
            -2.2006541490554810e-01 3.7769007682800293e-01</leafValues></_>
        <_>
          <internalNodes>
            0 -1 168 6.3332938589155674e-03</internalNodes>
          <leafValues>
            1.5726938843727112e-01 -7.7631866931915283e-01</leafValues></_>
        <_>
          <internalNodes>
            0 -1 35 -1.4042793773114681e-02</internalNodes>
          <leafValues>
            5.7244926691055298e-01 -2.0515264570713043e-01</leafValues></_>
        <_>
          <internalNodes>
            0 -1 137 -3.9034960791468620e-03</internalNodes>
          <leafValues>
            -6.2702715396881104e-01 1.9013825058937073e-01</leafValues></_>
        <_>
          <internalNodes>
            0 -1 187 2.7616368606686592e-03</internalNodes>
          <leafValues>
            -2.2536435723304749e-01 3.8202512264251709e-01</leafValues></_>
        <_>
          <internalNodes>
            0 -1 202 -7.2059379890561104e-03</internalNodes>
          <leafValues>
            -5.6666725873947144e-01 1.3135744631290436e-01</leafValues></_>
        <_>
          <internalNodes>
            0 -1 140 3.8679311983287334e-03</internalNodes>
          <leafValues>
            8.9634656906127930e-02 -8.6231571435928345e-01</leafValues></_>
        <_>
          <internalNodes>
            0 -1 181 -2.1695926785469055e-02</internalNodes>
          <leafValues>
            5.9662097692489624e-01 -1.5299585461616516e-01</leafValues></_>
        <_>
          <internalNodes>
            0 -1 170 -2.2750667994841933e-04</internalNodes>
          <leafValues>
            -4.3069425225257874e-01 2.1702609956264496e-01</leafValues></_>
        <_>
          <internalNodes>
            0 -1 163 6.1320075765252113e-03</internalNodes>
          <leafValues>
            -2.0433634519577026e-01 4.5920905470848083e-01</leafValues></_>
        <_>
          <internalNodes>
            0 -1 86 -6.8554037716239691e-04</internalNodes>
          <leafValues>
            -5.8438062667846680e-01 1.5048721432685852e-01</leafValues></_>
        <_>
          <internalNodes>
            0 -1 188 -2.0418134517967701e-03</internalNodes>
          <leafValues>
            5.1215243339538574e-01 -1.4298561215400696e-01</leafValues></_>
        <_>
          <internalNodes>
            0 -1 97 -6.8810060620307922e-03</internalNodes>
          <leafValues>
            -5.6233847141265869e-01 1.4079326391220093e-01</leafValues></_>
        <_>
          <internalNodes>
            0 -1 150 7.1500311605632305e-03</internalNodes>
          <leafValues>
            -3.3972138166427612e-01 2.1673436462879181e-01</leafValues></_></weakClassifiers></_>
    <!-- stage 19 -->
    <_>
      <maxWeakCount>15</maxWeakCount>
      <stageThreshold>-1.1389313936233521e+00</stageThreshold>
      <weakClassifiers>
        <_>
          <internalNodes>
            0 -1 60 -3.6845035851001740e-02</internalNodes>
          <leafValues>
            7.2602736949920654e-01 -3.5294118523597717e-01</leafValues></_>
        <_>
          <internalNodes>
            0 -1 38 2.1018062252551317e-03</internalNodes>
          <leafValues>
            -3.0536943674087524e-01 2.9794281721115112e-01</leafValues></_>
        <_>
          <internalNodes>
            0 -1 191 -5.7466714642941952e-03</internalNodes>
          <leafValues>
            -6.4923590421676636e-01 1.7099988460540771e-01</leafValues></_>
        <_>
          <internalNodes>
            0 -1 24 5.1279356703162193e-03</internalNodes>
          <leafValues>
            1.2742455303668976e-01 -6.8818926811218262e-01</leafValues></_>
        <_>
          <internalNodes>
            0 -1 158 -6.1964651104062796e-04</internalNodes>
          <leafValues>
            -4.5959547162055969e-01 1.5982498228549957e-01</leafValues></_>
        <_>
          <internalNodes>
            0 -1 115 1.5543226618319750e-03</internalNodes>
          <leafValues>
            2.0303533971309662e-01 -4.0334248542785645e-01</leafValues></_>
        <_>
          <internalNodes>
            0 -1 103 -1.4834035187959671e-02</internalNodes>
          <leafValues>
            7.4064642190933228e-01 -1.1467387527227402e-01</leafValues></_>
        <_>
          <internalNodes>
            0 -1 118 4.0501160547137260e-03</internalNodes>
          <leafValues>
            -1.3980774581432343e-01 6.6358667612075806e-01</leafValues></_>
        <_>
          <internalNodes>
            0 -1 30 1.0677255690097809e-02</internalNodes>
          <leafValues>
            1.1733848601579666e-01 -9.2597562074661255e-01</leafValues></_>
        <_>
          <internalNodes>
            0 -1 37 -4.0798466652631760e-03</internalNodes>
          <leafValues>
            -5.8978569507598877e-01 1.0731836408376694e-01</leafValues></_>
        <_>
          <internalNodes>
            0 -1 1 -1.7207239568233490e-01</internalNodes>
          <leafValues>
            -6.9403344392776489e-01 9.8947107791900635e-02</leafValues></_>
        <_>
          <internalNodes>
            0 -1 176 -1.9581618835218251e-04</internalNodes>
          <leafValues>
            -4.2470976710319519e-01 1.4210870862007141e-01</leafValues></_>
        <_>
          <internalNodes>
            0 -1 41 8.2829035818576813e-03</internalNodes>
          <leafValues>
            9.4183810055255890e-02 -7.5903880596160889e-01</leafValues></_>
        <_>
          <internalNodes>
            0 -1 75 -2.9367725364863873e-03</internalNodes>
          <leafValues>
            -4.6168106794357300e-01 1.2136383354663849e-01</leafValues></_>
        <_>
          <internalNodes>
            0 -1 9 1.2336922809481621e-02</internalNodes>
          <leafValues>
            -1.1509344726800919e-01 6.1590230464935303e-01</leafValues></_></weakClassifiers></_></stages>
  <features>
    <_>
      <rects>
        <_>
          0 0 12 3 -1.</_>
        <_>
          0 1 12 1 3.</_></rects>
      <tilted>0</tilted></_>
    <_>
      <rects>
        <_>
          0 0 24 10 -1.</_>
        <_>
          12 0 12 10 2.</_></rects>
      <tilted>0</tilted></_>
    <_>
      <rects>
        <_>
          0 3 18 6 -1.</_>
        <_>
          9 3 9 6 2.</_></rects>
      <tilted>0</tilted></_>
    <_>
      <rects>
        <_>
          0 3 20 6 -1.</_>
        <_>
          10 3 10 6 2.</_></rects>
      <tilted>0</tilted></_>
    <_>
      <rects>
        <_>
          0 5 12 7 -1.</_>
        <_>
          6 5 6 7 2.</_></rects>
      <tilted>0</tilted></_>
    <_>
      <rects>
        <_>
          0 5 18 6 -1.</_>
        <_>
          9 5 9 6 2.</_></rects>
      <tilted>0</tilted></_>
    <_>
      <rects>
        <_>
          0 6 15 1 -1.</_>
        <_>
          5 6 5 1 3.</_></rects>
      <tilted>0</tilted></_>
    <_>
      <rects>
        <_>
          0 7 6 4 -1.</_>
        <_>
          3 7 3 4 2.</_></rects>
      <tilted>0</tilted></_>
    <_>
      <rects>
        <_>
          0 8 21 4 -1.</_>
        <_>
          0 10 21 2 2.</_></rects>
      <tilted>0</tilted></_>
    <_>
      <rects>
        <_>
          0 10 12 2 -1.</_>
        <_>
          0 10 6 1 2.</_>
        <_>
          6 11 6 1 2.</_></rects>
      <tilted>0</tilted></_>
    <_>
      <rects>
        <_>
          1 0 20 11 -1.</_>
        <_>
          11 0 10 11 2.</_></rects>
      <tilted>0</tilted></_>
    <_>
      <rects>
        <_>
          1 6 15 6 -1.</_>
        <_>
          1 8 15 2 3.</_></rects>
      <tilted>0</tilted></_>
    <_>
      <rects>
        <_>
          1 10 13 2 -1.</_>
        <_>
          1 11 13 1 2.</_></rects>
      <tilted>0</tilted></_>
    <_>
      <rects>
        <_>
          2 0 3 2 -1.</_>
        <_>
          3 0 1 2 3.</_></rects>
      <tilted>0</tilted></_>
    <_>
      <rects>
        <_>
          2 0 23 4 -1.</_>
        <_>
          2 2 23 2 2.</_></rects>
      <tilted>0</tilted></_>
    <_>
      <rects>
        <_>
          2 3 20 9 -1.</_>
        <_>
          12 3 10 9 2.</_></rects>
      <tilted>0</tilted></_>
    <_>
      <rects>
        <_>
          2 10 19 2 -1.</_>
        <_>
          2 11 19 1 2.</_></rects>
      <tilted>0</tilted></_>
    <_>
      <rects>
        <_>
          3 0 21 12 -1.</_>
        <_>
          3 4 21 4 3.</_></rects>
      <tilted>0</tilted></_>
    <_>
      <rects>
        <_>
          3 2 4 4 -1.</_>
        <_>
          3 4 4 2 2.</_></rects>
      <tilted>0</tilted></_>
    <_>
      <rects>
        <_>
          3 8 3 4 -1.</_>
        <_>
          4 8 1 4 3.</_></rects>
      <tilted>0</tilted></_>
    <_>
      <rects>
        <_>
          3 8 6 4 -1.</_>
        <_>
          3 10 6 2 2.</_></rects>
      <tilted>0</tilted></_>
    <_>
      <rects>
        <_>
          3 9 3 1 -1.</_>
        <_>
          4 9 1 1 3.</_></rects>
      <tilted>0</tilted></_>
    <_>
      <rects>
        <_>
          3 9 3 3 -1.</_>
        <_>
          4 9 1 3 3.</_></rects>
      <tilted>0</tilted></_>
    <_>
      <rects>
        <_>
          3 10 3 2 -1.</_>
        <_>
          4 10 1 2 3.</_></rects>
      <tilted>0</tilted></_>
    <_>
      <rects>
        <_>
          4 0 3 4 -1.</_>
        <_>
          5 0 1 4 3.</_></rects>
      <tilted>0</tilted></_>
    <_>
      <rects>
        <_>
          4 0 20 2 -1.</_>
        <_>
          4 0 10 1 2.</_>
        <_>
          14 1 10 1 2.</_></rects>
      <tilted>0</tilted></_>
    <_>
      <rects>
        <_>
          4 0 15 2 -1.</_>
        <_>
          4 1 15 1 2.</_></rects>
      <tilted>0</tilted></_>
    <_>
      <rects>
        <_>
          4 1 6 3 -1.</_>
        <_>
          4 2 6 1 3.</_></rects>
      <tilted>0</tilted></_>
    <_>
      <rects>
        <_>
          4 9 11 3 -1.</_>
        <_>
          4 10 11 1 3.</_></rects>
      <tilted>0</tilted></_>
    <_>
      <rects>
        <_>
          4 10 9 2 -1.</_>
        <_>
          4 11 9 1 2.</_></rects>
      <tilted>0</tilted></_>
    <_>
      <rects>
        <_>
          5 0 3 7 -1.</_>
        <_>
          6 0 1 7 3.</_></rects>
      <tilted>0</tilted></_>
    <_>
      <rects>
        <_>
          5 0 2 11 -1.</_>
        <_>
          6 0 1 11 2.</_></rects>
      <tilted>0</tilted></_>
    <_>
      <rects>
        <_>
          5 0 2 2 -1.</_>
        <_>
          5 1 2 1 2.</_></rects>
      <tilted>0</tilted></_>
    <_>
      <rects>
        <_>
          5 0 8 2 -1.</_>
        <_>
          5 1 8 1 2.</_></rects>
      <tilted>0</tilted></_>
    <_>
      <rects>
        <_>
          5 0 17 8 -1.</_>
        <_>
          5 4 17 4 2.</_></rects>
      <tilted>0</tilted></_>
    <_>
      <rects>
        <_>
          5 1 14 2 -1.</_>
        <_>
          5 1 7 1 2.</_>
        <_>
          12 2 7 1 2.</_></rects>
      <tilted>0</tilted></_>
    <_>
      <rects>
        <_>
          5 2 3 1 -1.</_>
        <_>
          6 2 1 1 3.</_></rects>
      <tilted>0</tilted></_>
    <_>
      <rects>
        <_>
          5 2 3 7 -1.</_>
        <_>
          6 2 1 7 3.</_></rects>
      <tilted>0</tilted></_>
    <_>
      <rects>
        <_>
          5 2 4 3 -1.</_>
        <_>
          5 3 4 1 3.</_></rects>
      <tilted>0</tilted></_>
    <_>
      <rects>
        <_>
          5 3 13 9 -1.</_>
        <_>
          5 6 13 3 3.</_></rects>
      <tilted>0</tilted></_>
    <_>
      <rects>
        <_>
          5 4 3 8 -1.</_>
        <_>
          5 8 3 4 2.</_></rects>
      <tilted>0</tilted></_>
    <_>
      <rects>
        <_>
          5 6 3 6 -1.</_>
        <_>
          6 6 1 6 3.</_></rects>
      <tilted>0</tilted></_>
    <_>
      <rects>
        <_>
          5 10 7 2 -1.</_>
        <_>
          5 11 7 1 2.</_></rects>
      <tilted>0</tilted></_>
    <_>
      <rects>
        <_>
          5 10 17 2 -1.</_>
        <_>
          5 11 17 1 2.</_></rects>
      <tilted>0</tilted></_>
    <_>
      <rects>
        <_>
          6 0 3 10 -1.</_>
        <_>
          7 0 1 10 3.</_></rects>
      <tilted>0</tilted></_>
    <_>
      <rects>
        <_>
          6 0 3 12 -1.</_>
        <_>
          7 0 1 12 3.</_></rects>
      <tilted>0</tilted></_>
    <_>
      <rects>
        <_>
          6 0 6 3 -1.</_>
        <_>
          6 1 6 1 3.</_></rects>
      <tilted>0</tilted></_>
    <_>
      <rects>
        <_>
          6 0 9 4 -1.</_>
        <_>
          6 2 9 2 2.</_></rects>
      <tilted>0</tilted></_>
    <_>
      <rects>
        <_>
          6 0 17 12 -1.</_>
        <_>
          6 4 17 4 3.</_></rects>
      <tilted>0</tilted></_>
    <_>
      <rects>
        <_>
          6 1 3 7 -1.</_>
        <_>
          7 1 1 7 3.</_></rects>
      <tilted>0</tilted></_>
    <_>
      <rects>
        <_>
          6 1 16 2 -1.</_>
        <_>
          6 1 8 1 2.</_>
        <_>
          14 2 8 1 2.</_></rects>
      <tilted>0</tilted></_>
    <_>
      <rects>
        <_>
          6 3 3 4 -1.</_>
        <_>
          7 3 1 4 3.</_></rects>
      <tilted>0</tilted></_>
    <_>
      <rects>
        <_>
          6 3 3 9 -1.</_>
        <_>
          7 3 1 9 3.</_></rects>
      <tilted>0</tilted></_>
    <_>
      <rects>
        <_>
          6 5 3 6 -1.</_>
        <_>
          7 5 1 6 3.</_></rects>
      <tilted>0</tilted></_>
    <_>
      <rects>
        <_>
          6 7 3 2 -1.</_>
        <_>
          7 7 1 2 3.</_></rects>
      <tilted>0</tilted></_>
    <_>
      <rects>
        <_>
          6 9 16 2 -1.</_>
        <_>
          6 9 8 1 2.</_>
        <_>
          14 10 8 1 2.</_></rects>
      <tilted>0</tilted></_>
    <_>
      <rects>
        <_>
          6 9 12 2 -1.</_>
        <_>
          6 10 12 1 2.</_></rects>
      <tilted>0</tilted></_>
    <_>
      <rects>
        <_>
          7 0 3 4 -1.</_>
        <_>
          8 0 1 4 3.</_></rects>
      <tilted>0</tilted></_>
    <_>
      <rects>
        <_>
          7 0 3 6 -1.</_>
        <_>
          8 0 1 6 3.</_></rects>
      <tilted>0</tilted></_>
    <_>
      <rects>
        <_>
          7 0 3 7 -1.</_>
        <_>
          8 0 1 7 3.</_></rects>
      <tilted>0</tilted></_>
    <_>
      <rects>
        <_>
          7 0 2 6 -1.</_>
        <_>
          7 2 2 2 3.</_></rects>
      <tilted>0</tilted></_>
    <_>
      <rects>
        <_>
          7 0 4 6 -1.</_>
        <_>
          7 2 4 2 3.</_></rects>
      <tilted>0</tilted></_>
    <_>
      <rects>
        <_>
          7 0 8 2 -1.</_>
        <_>
          7 1 8 1 2.</_></rects>
      <tilted>0</tilted></_>
    <_>
      <rects>
        <_>
          7 0 14 8 -1.</_>
        <_>
          7 4 14 4 2.</_></rects>
      <tilted>0</tilted></_>
    <_>
      <rects>
        <_>
          7 0 17 8 -1.</_>
        <_>
          7 4 17 4 2.</_></rects>
      <tilted>0</tilted></_>
    <_>
      <rects>
        <_>
          7 1 7 2 -1.</_>
        <_>
          7 2 7 1 2.</_></rects>
      <tilted>0</tilted></_>
    <_>
      <rects>
        <_>
          7 2 3 6 -1.</_>
        <_>
          8 2 1 6 3.</_></rects>
      <tilted>0</tilted></_>
    <_>
      <rects>
        <_>
          7 5 3 5 -1.</_>
        <_>
          8 5 1 5 3.</_></rects>
      <tilted>0</tilted></_>
    <_>
      <rects>
        <_>
          7 6 3 1 -1.</_>
        <_>
          8 6 1 1 3.</_></rects>
      <tilted>0</tilted></_>
    <_>
      <rects>
        <_>
          7 7 3 5 -1.</_>
        <_>
          8 7 1 5 3.</_></rects>
      <tilted>0</tilted></_>
    <_>
      <rects>
        <_>
          7 8 11 4 -1.</_>
        <_>
          7 10 11 2 2.</_></rects>
      <tilted>0</tilted></_>
    <_>
      <rects>
        <_>
          8 0 3 3 -1.</_>
        <_>
          8 1 3 1 3.</_></rects>
      <tilted>0</tilted></_>
    <_>
      <rects>
        <_>
          8 0 3 6 -1.</_>
        <_>
          8 2 3 2 3.</_></rects>
      <tilted>0</tilted></_>
    <_>
      <rects>
        <_>
          8 0 10 8 -1.</_>
        <_>
          8 0 5 4 2.</_>
        <_>
          13 4 5 4 2.</_></rects>
      <tilted>0</tilted></_>
    <_>
      <rects>
        <_>
          8 2 4 8 -1.</_>
        <_>
          10 2 2 8 2.</_></rects>
      <tilted>0</tilted></_>
    <_>
      <rects>
        <_>
          8 4 3 6 -1.</_>
        <_>
          9 4 1 6 3.</_></rects>
      <tilted>0</tilted></_>
    <_>
      <rects>
        <_>
          8 6 6 1 -1.</_>
        <_>
          10 6 2 1 3.</_></rects>
      <tilted>0</tilted></_>
    <_>
      <rects>
        <_>
          8 8 9 4 -1.</_>
        <_>
          8 10 9 2 2.</_></rects>
      <tilted>0</tilted></_>
    <_>
      <rects>
        <_>
          9 0 7 2 -1.</_>
        <_>
          9 1 7 1 2.</_></rects>
      <tilted>0</tilted></_>
    <_>
      <rects>
        <_>
          9 0 8 6 -1.</_>
        <_>
          9 3 8 3 2.</_></rects>
      <tilted>0</tilted></_>
    <_>
      <rects>
        <_>
          9 0 12 8 -1.</_>
        <_>
          9 4 12 4 2.</_></rects>
      <tilted>0</tilted></_>
    <_>
      <rects>
        <_>
          9 0 16 2 -1.</_>
        <_>
          9 1 16 1 2.</_></rects>
      <tilted>0</tilted></_>
    <_>
      <rects>
        <_>
          9 1 3 6 -1.</_>
        <_>
          10 1 1 6 3.</_></rects>
      <tilted>0</tilted></_>
    <_>
      <rects>
        <_>
          9 1 3 7 -1.</_>
        <_>
          10 1 1 7 3.</_></rects>
      <tilted>0</tilted></_>
    <_>
      <rects>
        <_>
          9 3 3 5 -1.</_>
        <_>
          10 3 1 5 3.</_></rects>
      <tilted>0</tilted></_>
    <_>
      <rects>
        <_>
          9 3 9 9 -1.</_>
        <_>
          9 6 9 3 3.</_></rects>
      <tilted>0</tilted></_>
    <_>
      <rects>
        <_>
          9 5 3 1 -1.</_>
        <_>
          10 5 1 1 3.</_></rects>
      <tilted>0</tilted></_>
    <_>
      <rects>
        <_>
          9 7 3 1 -1.</_>
        <_>
          10 7 1 1 3.</_></rects>
      <tilted>0</tilted></_>
    <_>
      <rects>
        <_>
          10 0 3 3 -1.</_>
        <_>
          11 0 1 3 3.</_></rects>
      <tilted>0</tilted></_>
    <_>
      <rects>
        <_>
          10 0 3 5 -1.</_>
        <_>
          11 0 1 5 3.</_></rects>
      <tilted>0</tilted></_>
    <_>
      <rects>
        <_>
          10 0 3 12 -1.</_>
        <_>
          11 0 1 12 3.</_></rects>
      <tilted>0</tilted></_>
    <_>
      <rects>
        <_>
          10 0 3 2 -1.</_>
        <_>
          10 1 3 1 2.</_></rects>
      <tilted>0</tilted></_>
    <_>
      <rects>
        <_>
          10 0 4 3 -1.</_>
        <_>
          10 1 4 1 3.</_></rects>
      <tilted>0</tilted></_>
    <_>
      <rects>
        <_>
          10 0 6 2 -1.</_>
        <_>
          10 1 6 1 2.</_></rects>
      <tilted>0</tilted></_>
    <_>
      <rects>
        <_>
          10 1 3 9 -1.</_>
        <_>
          11 1 1 9 3.</_></rects>
      <tilted>0</tilted></_>
    <_>
      <rects>
        <_>
          10 3 3 5 -1.</_>
        <_>
          11 3 1 5 3.</_></rects>
      <tilted>0</tilted></_>
    <_>
      <rects>
        <_>
          10 3 3 9 -1.</_>
        <_>
          11 3 1 9 3.</_></rects>
      <tilted>0</tilted></_>
    <_>
      <rects>
        <_>
          10 3 9 4 -1.</_>
        <_>
          13 3 3 4 3.</_></rects>
      <tilted>0</tilted></_>
    <_>
      <rects>
        <_>
          10 5 3 4 -1.</_>
        <_>
          11 5 1 4 3.</_></rects>
      <tilted>0</tilted></_>
    <_>
      <rects>
        <_>
          10 6 3 6 -1.</_>
        <_>
          11 6 1 6 3.</_></rects>
      <tilted>0</tilted></_>
    <_>
      <rects>
        <_>
          10 9 3 3 -1.</_>
        <_>
          11 9 1 3 3.</_></rects>
      <tilted>0</tilted></_>
    <_>
      <rects>
        <_>
          11 0 3 3 -1.</_>
        <_>
          12 0 1 3 3.</_></rects>
      <tilted>0</tilted></_>
    <_>
      <rects>
        <_>
          11 0 3 7 -1.</_>
        <_>
          12 0 1 7 3.</_></rects>
      <tilted>0</tilted></_>
    <_>
      <rects>
        <_>
          11 0 2 3 -1.</_>
        <_>
          11 1 2 1 3.</_></rects>
      <tilted>0</tilted></_>
    <_>
      <rects>
        <_>
          11 0 2 6 -1.</_>
        <_>
          11 3 2 3 2.</_></rects>
      <tilted>0</tilted></_>
    <_>
      <rects>
        <_>
          11 0 5 2 -1.</_>
        <_>
          11 1 5 1 2.</_></rects>
      <tilted>0</tilted></_>
    <_>
      <rects>
        <_>
          11 0 10 4 -1.</_>
        <_>
          11 2 10 2 2.</_></rects>
      <tilted>0</tilted></_>
    <_>
      <rects>
        <_>
          11 1 3 7 -1.</_>
        <_>
          12 1 1 7 3.</_></rects>
      <tilted>0</tilted></_>
    <_>
      <rects>
        <_>
          11 1 3 8 -1.</_>
        <_>
          12 1 1 8 3.</_></rects>
      <tilted>0</tilted></_>
    <_>
      <rects>
        <_>
          11 2 3 6 -1.</_>
        <_>
          12 2 1 6 3.</_></rects>
      <tilted>0</tilted></_>
    <_>
      <rects>
        <_>
          11 2 3 7 -1.</_>
        <_>
          12 2 1 7 3.</_></rects>
      <tilted>0</tilted></_>
    <_>
      <rects>
        <_>
          11 3 3 5 -1.</_>
        <_>
          12 3 1 5 3.</_></rects>
      <tilted>0</tilted></_>
    <_>
      <rects>
        <_>
          11 3 3 7 -1.</_>
        <_>
          12 3 1 7 3.</_></rects>
      <tilted>0</tilted></_>
    <_>
      <rects>
        <_>
          11 5 3 3 -1.</_>
        <_>
          12 5 1 3 3.</_></rects>
      <tilted>0</tilted></_>
    <_>
      <rects>
        <_>
          11 6 3 1 -1.</_>
        <_>
          12 6 1 1 3.</_></rects>
      <tilted>0</tilted></_>
    <_>
      <rects>
        <_>
          11 6 6 1 -1.</_>
        <_>
          14 6 3 1 2.</_></rects>
      <tilted>0</tilted></_>
    <_>
      <rects>
        <_>
          11 8 3 4 -1.</_>
        <_>
          12 8 1 4 3.</_></rects>
      <tilted>0</tilted></_>
    <_>
      <rects>
        <_>
          12 0 3 1 -1.</_>
        <_>
          13 0 1 1 3.</_></rects>
      <tilted>0</tilted></_>
    <_>
      <rects>
        <_>
          12 0 1 3 -1.</_>
        <_>
          12 1 1 1 3.</_></rects>
      <tilted>0</tilted></_>
    <_>
      <rects>
        <_>
          12 0 2 12 -1.</_>
        <_>
          13 0 1 12 2.</_></rects>
      <tilted>0</tilted></_>
    <_>
      <rects>
        <_>
          12 1 3 7 -1.</_>
        <_>
          13 1 1 7 3.</_></rects>
      <tilted>0</tilted></_>
    <_>
      <rects>
        <_>
          12 2 3 5 -1.</_>
        <_>
          13 2 1 5 3.</_></rects>
      <tilted>0</tilted></_>
    <_>
      <rects>
        <_>
          12 3 6 6 -1.</_>
        <_>
          14 3 2 6 3.</_></rects>
      <tilted>0</tilted></_>
    <_>
      <rects>
        <_>
          12 4 3 2 -1.</_>
        <_>
          13 4 1 2 3.</_></rects>
      <tilted>0</tilted></_>
    <_>
      <rects>
        <_>
          12 5 3 1 -1.</_>
        <_>
          13 5 1 1 3.</_></rects>
      <tilted>0</tilted></_>
    <_>
      <rects>
        <_>
          12 6 3 3 -1.</_>
        <_>
          13 6 1 3 3.</_></rects>
      <tilted>0</tilted></_>
    <_>
      <rects>
        <_>
          12 6 6 2 -1.</_>
        <_>
          14 6 2 2 3.</_></rects>
      <tilted>0</tilted></_>
    <_>
      <rects>
        <_>
          12 8 3 4 -1.</_>
        <_>
          13 8 1 4 3.</_></rects>
      <tilted>0</tilted></_>
    <_>
      <rects>
        <_>
          13 0 3 3 -1.</_>
        <_>
          14 0 1 3 3.</_></rects>
      <tilted>0</tilted></_>
    <_>
      <rects>
        <_>
          13 0 3 6 -1.</_>
        <_>
          14 0 1 6 3.</_></rects>
      <tilted>0</tilted></_>
    <_>
      <rects>
        <_>
          13 0 2 9 -1.</_>
        <_>
          14 0 1 9 2.</_></rects>
      <tilted>0</tilted></_>
    <_>
      <rects>
        <_>
          13 0 3 2 -1.</_>
        <_>
          13 1 3 1 2.</_></rects>
      <tilted>0</tilted></_>
    <_>
      <rects>
        <_>
          13 0 3 3 -1.</_>
        <_>
          13 1 3 1 3.</_></rects>
      <tilted>0</tilted></_>
    <_>
      <rects>
        <_>
          13 0 3 12 -1.</_>
        <_>
          13 4 3 4 3.</_></rects>
      <tilted>0</tilted></_>
    <_>
      <rects>
        <_>
          13 0 4 6 -1.</_>
        <_>
          13 3 4 3 2.</_></rects>
      <tilted>0</tilted></_>
    <_>
      <rects>
        <_>
          13 0 5 2 -1.</_>
        <_>
          13 1 5 1 2.</_></rects>
      <tilted>0</tilted></_>
    <_>
      <rects>
        <_>
          13 0 8 2 -1.</_>
        <_>
          13 1 8 1 2.</_></rects>
      <tilted>0</tilted></_>
    <_>
      <rects>
        <_>
          13 1 3 4 -1.</_>
        <_>
          14 1 1 4 3.</_></rects>
      <tilted>0</tilted></_>
    <_>
      <rects>
        <_>
          13 1 3 11 -1.</_>
        <_>
          14 1 1 11 3.</_></rects>
      <tilted>0</tilted></_>
    <_>
      <rects>
        <_>
          13 1 7 2 -1.</_>
        <_>
          13 2 7 1 2.</_></rects>
      <tilted>0</tilted></_>
    <_>
      <rects>
        <_>
          13 3 3 2 -1.</_>
        <_>
          14 3 1 2 3.</_></rects>
      <tilted>0</tilted></_>
    <_>
      <rects>
        <_>
          13 3 3 9 -1.</_>
        <_>
          14 3 1 9 3.</_></rects>
      <tilted>0</tilted></_>
    <_>
      <rects>
        <_>
          13 6 3 1 -1.</_>
        <_>
          14 6 1 1 3.</_></rects>
      <tilted>0</tilted></_>
    <_>
      <rects>
        <_>
          13 6 6 6 -1.</_>
        <_>
          15 6 2 6 3.</_></rects>
      <tilted>0</tilted></_>
    <_>
      <rects>
        <_>
          13 7 3 5 -1.</_>
        <_>
          14 7 1 5 3.</_></rects>
      <tilted>0</tilted></_>
    <_>
      <rects>
        <_>
          13 9 2 3 -1.</_>
        <_>
          13 10 2 1 3.</_></rects>
      <tilted>0</tilted></_>
    <_>
      <rects>
        <_>
          14 0 3 3 -1.</_>
        <_>
          15 0 1 3 3.</_></rects>
      <tilted>0</tilted></_>
    <_>
      <rects>
        <_>
          14 0 3 6 -1.</_>
        <_>
          14 3 3 3 2.</_></rects>
      <tilted>0</tilted></_>
    <_>
      <rects>
        <_>
          14 0 5 2 -1.</_>
        <_>
          14 1 5 1 2.</_></rects>
      <tilted>0</tilted></_>
    <_>
      <rects>
        <_>
          14 1 3 3 -1.</_>
        <_>
          14 2 3 1 3.</_></rects>
      <tilted>0</tilted></_>
    <_>
      <rects>
        <_>
          14 1 10 2 -1.</_>
        <_>
          14 2 10 1 2.</_></rects>
      <tilted>0</tilted></_>
    <_>
      <rects>
        <_>
          14 2 3 2 -1.</_>
        <_>
          15 2 1 2 3.</_></rects>
      <tilted>0</tilted></_>
    <_>
      <rects>
        <_>
          14 2 3 3 -1.</_>
        <_>
          15 2 1 3 3.</_></rects>
      <tilted>0</tilted></_>
    <_>
      <rects>
        <_>
          14 2 3 5 -1.</_>
        <_>
          15 2 1 5 3.</_></rects>
      <tilted>0</tilted></_>
    <_>
      <rects>
        <_>
          14 3 3 2 -1.</_>
        <_>
          15 3 1 2 3.</_></rects>
      <tilted>0</tilted></_>
    <_>
      <rects>
        <_>
          14 3 3 5 -1.</_>
        <_>
          15 3 1 5 3.</_></rects>
      <tilted>0</tilted></_>
    <_>
      <rects>
        <_>
          14 4 3 5 -1.</_>
        <_>
          15 4 1 5 3.</_></rects>
      <tilted>0</tilted></_>
    <_>
      <rects>
        <_>
          14 6 3 2 -1.</_>
        <_>
          15 6 1 2 3.</_></rects>
      <tilted>0</tilted></_>
    <_>
      <rects>
        <_>
          14 6 3 3 -1.</_>
        <_>
          15 6 1 3 3.</_></rects>
      <tilted>0</tilted></_>
    <_>
      <rects>
        <_>
          14 7 3 4 -1.</_>
        <_>
          15 7 1 4 3.</_></rects>
      <tilted>0</tilted></_>
    <_>
      <rects>
        <_>
          14 8 3 1 -1.</_>
        <_>
          15 8 1 1 3.</_></rects>
      <tilted>0</tilted></_>
    <_>
      <rects>
        <_>
          15 0 3 4 -1.</_>
        <_>
          16 0 1 4 3.</_></rects>
      <tilted>0</tilted></_>
    <_>
      <rects>
        <_>
          15 0 2 4 -1.</_>
        <_>
          15 2 2 2 2.</_></rects>
      <tilted>0</tilted></_>
    <_>
      <rects>
        <_>
          15 0 5 3 -1.</_>
        <_>
          15 1 5 1 3.</_></rects>
      <tilted>0</tilted></_>
    <_>
      <rects>
        <_>
          15 0 6 6 -1.</_>
        <_>
          15 3 6 3 2.</_></rects>
      <tilted>0</tilted></_>
    <_>
      <rects>
        <_>
          15 1 3 4 -1.</_>
        <_>
          16 1 1 4 3.</_></rects>
      <tilted>0</tilted></_>
    <_>
      <rects>
        <_>
          15 1 3 7 -1.</_>
        <_>
          16 1 1 7 3.</_></rects>
      <tilted>0</tilted></_>
    <_>
      <rects>
        <_>
          15 1 6 3 -1.</_>
        <_>
          15 2 6 1 3.</_></rects>
      <tilted>0</tilted></_>
    <_>
      <rects>
        <_>
          15 2 3 9 -1.</_>
        <_>
          16 2 1 9 3.</_></rects>
      <tilted>0</tilted></_>
    <_>
      <rects>
        <_>
          15 3 3 3 -1.</_>
        <_>
          16 3 1 3 3.</_></rects>
      <tilted>0</tilted></_>
    <_>
      <rects>
        <_>
          15 5 1 3 -1.</_>
        <_>
          15 6 1 1 3.</_></rects>
      <tilted>0</tilted></_>
    <_>
      <rects>
        <_>
          15 5 3 3 -1.</_>
        <_>
          16 5 1 3 3.</_></rects>
      <tilted>0</tilted></_>
    <_>
      <rects>
        <_>
          15 6 3 1 -1.</_>
        <_>
          16 6 1 1 3.</_></rects>
      <tilted>0</tilted></_>
    <_>
      <rects>
        <_>
          15 6 3 3 -1.</_>
        <_>
          16 6 1 3 3.</_></rects>
      <tilted>0</tilted></_>
    <_>
      <rects>
        <_>
          15 6 3 4 -1.</_>
        <_>
          16 6 1 4 3.</_></rects>
      <tilted>0</tilted></_>
    <_>
      <rects>
        <_>
          15 6 6 6 -1.</_>
        <_>
          17 6 2 6 3.</_></rects>
      <tilted>0</tilted></_>
    <_>
      <rects>
        <_>
          15 7 3 1 -1.</_>
        <_>
          16 7 1 1 3.</_></rects>
      <tilted>0</tilted></_>
    <_>
      <rects>
        <_>
          15 7 3 4 -1.</_>
        <_>
          16 7 1 4 3.</_></rects>
      <tilted>0</tilted></_>
    <_>
      <rects>
        <_>
          15 7 6 1 -1.</_>
        <_>
          17 7 2 1 3.</_></rects>
      <tilted>0</tilted></_>
    <_>
      <rects>
        <_>
          15 9 3 3 -1.</_>
        <_>
          16 9 1 3 3.</_></rects>
      <tilted>0</tilted></_>
    <_>
      <rects>
        <_>
          16 0 1 9 -1.</_>
        <_>
          16 3 1 3 3.</_></rects>
      <tilted>0</tilted></_>
    <_>
      <rects>
        <_>
          16 0 4 3 -1.</_>
        <_>
          16 1 4 1 3.</_></rects>
      <tilted>0</tilted></_>
    <_>
      <rects>
        <_>
          16 0 7 4 -1.</_>
        <_>
          16 2 7 2 2.</_></rects>
      <tilted>0</tilted></_>
    <_>
      <rects>
        <_>
          16 3 3 3 -1.</_>
        <_>
          17 3 1 3 3.</_></rects>
      <tilted>0</tilted></_>
    <_>
      <rects>
        <_>
          16 6 3 1 -1.</_>
        <_>
          17 6 1 1 3.</_></rects>
      <tilted>0</tilted></_>
    <_>
      <rects>
        <_>
          16 6 3 3 -1.</_>
        <_>
          17 6 1 3 3.</_></rects>
      <tilted>0</tilted></_>
    <_>
      <rects>
        <_>
          16 6 3 6 -1.</_>
        <_>
          17 6 1 6 3.</_></rects>
      <tilted>0</tilted></_>
    <_>
      <rects>
        <_>
          16 9 2 3 -1.</_>
        <_>
          16 10 2 1 3.</_></rects>
      <tilted>0</tilted></_>
    <_>
      <rects>
        <_>
          17 0 1 2 -1.</_>
        <_>
          17 1 1 1 2.</_></rects>
      <tilted>0</tilted></_>
    <_>
      <rects>
        <_>
          17 0 3 9 -1.</_>
        <_>
          18 0 1 9 3.</_></rects>
      <tilted>0</tilted></_>
    <_>
      <rects>
        <_>
          17 0 3 2 -1.</_>
        <_>
          17 1 3 1 2.</_></rects>
      <tilted>0</tilted></_>
    <_>
      <rects>
        <_>
          17 1 3 10 -1.</_>
        <_>
          18 1 1 10 3.</_></rects>
      <tilted>0</tilted></_>
    <_>
      <rects>
        <_>
          17 6 3 6 -1.</_>
        <_>
          18 6 1 6 3.</_></rects>
      <tilted>0</tilted></_>
    <_>
      <rects>
        <_>
          18 0 3 10 -1.</_>
        <_>
          19 0 1 10 3.</_></rects>
      <tilted>0</tilted></_>
    <_>
      <rects>
        <_>
          18 0 4 12 -1.</_>
        <_>
          18 0 2 6 2.</_>
        <_>
          20 6 2 6 2.</_></rects>
      <tilted>0</tilted></_>
    <_>
      <rects>
        <_>
          18 1 3 3 -1.</_>
        <_>
          19 1 1 3 3.</_></rects>
      <tilted>0</tilted></_>
    <_>
      <rects>
        <_>
          18 2 3 7 -1.</_>
        <_>
          19 2 1 7 3.</_></rects>
      <tilted>0</tilted></_>
    <_>
      <rects>
        <_>
          18 5 3 5 -1.</_>
        <_>
          19 5 1 5 3.</_></rects>
      <tilted>0</tilted></_>
    <_>
      <rects>
        <_>
          18 6 3 4 -1.</_>
        <_>
          19 6 1 4 3.</_></rects>
      <tilted>0</tilted></_>
    <_>
      <rects>
        <_>
          18 6 3 6 -1.</_>
        <_>
          19 6 1 6 3.</_></rects>
      <tilted>0</tilted></_>
    <_>
      <rects>
        <_>
          19 0 3 4 -1.</_>
        <_>
          20 0 1 4 3.</_></rects>
      <tilted>0</tilted></_>
    <_>
      <rects>
        <_>
          19 0 3 5 -1.</_>
        <_>
          20 0 1 5 3.</_></rects>
      <tilted>0</tilted></_>
    <_>
      <rects>
        <_>
          19 0 3 12 -1.</_>
        <_>
          20 0 1 12 3.</_></rects>
      <tilted>0</tilted></_>
    <_>
      <rects>
        <_>
          19 1 3 11 -1.</_>
        <_>
          20 1 1 11 3.</_></rects>
      <tilted>0</tilted></_>
    <_>
      <rects>
        <_>
          19 2 3 5 -1.</_>
        <_>
          20 2 1 5 3.</_></rects>
      <tilted>0</tilted></_>
    <_>
      <rects>
        <_>
          19 7 3 4 -1.</_>
        <_>
          20 7 1 4 3.</_></rects>
      <tilted>0</tilted></_>
    <_>
      <rects>
        <_>
          20 6 2 6 -1.</_>
        <_>
          20 9 2 3 2.</_></rects>
      <tilted>0</tilted></_>
    <_>
      <rects>
        <_>
          21 1 1 8 -1.</_>
        <_>
          21 5 1 4 2.</_></rects>
      <tilted>0</tilted></_>
    <_>
      <rects>
        <_>
          21 2 4 10 -1.</_>
        <_>
          23 2 2 10 2.</_></rects>
      <tilted>0</tilted></_>
    <_>
      <rects>
        <_>
          21 10 4 2 -1.</_>
        <_>
          21 11 4 1 2.</_></rects>
      <tilted>0</tilted></_></features></cascade>
</opencv_storage>
