<?xml version="1.0"?>
<opencv_storage>
<stage17>
  <maxWeakCount>61</maxWeakCount>
  <stageThreshold>-1.4761443138122559e+00</stageThreshold>
  <weakClassifiers>
    <_>
      <internalNodes>
        0 -1 347 6.0820192098617554e-02</internalNodes>
      <leafValues>
        -4.6921303868293762e-01 4.7740668058395386e-01</leafValues></_>
    <_>
      <internalNodes>
        0 -1 12911 -1.0407695546746254e-02</internalNodes>
      <leafValues>
        2.9624271392822266e-01 -1.8891495466232300e-01</leafValues></_>
    <_>
      <internalNodes>
        0 -1 115842 1.3443871401250362e-02</internalNodes>
      <leafValues>
        -1.5583764016628265e-01 3.1084549427032471e-01</leafValues></_>
    <_>
      <internalNodes>
        0 -1 173365 2.3471445310860872e-03</internalNodes>
      <leafValues>
        1.2514120340347290e-01 -3.8447514176368713e-01</leafValues></_>
    <_>
      <internalNodes>
        0 -1 112313 6.5318746492266655e-03</internalNodes>
      <leafValues>
        -9.9121466279029846e-02 3.1061995029449463e-01</leafValues></_>
    <_>
      <internalNodes>
        0 -1 131188 -2.2027082741260529e-03</internalNodes>
      <leafValues>
        -5.6891083717346191e-01 3.8670402020215988e-02</leafValues></_>
    <_>
      <internalNodes>
        0 -1 131417 -2.1782973781228065e-03</internalNodes>
      <leafValues>
        3.8281068205833435e-01 -8.2929946482181549e-02</leafValues></_>
    <_>
      <internalNodes>
        0 -1 61620 -9.5995247829705477e-04</internalNodes>
      <leafValues>
        -3.1522631645202637e-01 1.1187443882226944e-01</leafValues></_>
    <_>
      <internalNodes>
        0 -1 156856 -1.5763477422297001e-03</internalNodes>
      <leafValues>
        -3.2978659868240356e-01 1.1063560843467712e-01</leafValues></_>
    <_>
      <internalNodes>
        0 -1 54325 -2.2048170212656260e-03</internalNodes>
      <leafValues>
        -5.1778388023376465e-01 4.0428724139928818e-02</leafValues></_>
    <_>
      <internalNodes>
        0 -1 24719 2.7329353615641594e-03</internalNodes>
      <leafValues>
        -8.3879999816417694e-02 4.1371566057205200e-01</leafValues></_>
    <_>
      <internalNodes>
        0 -1 27586 9.8437280394136906e-04</internalNodes>
      <leafValues>
        1.2890641391277313e-01 -2.8682896494865417e-01</leafValues></_>
    <_>
      <internalNodes>
        0 -1 8875 4.0226258337497711e-02</internalNodes>
      <leafValues>
        -9.5544904470443726e-02 3.4948793053627014e-01</leafValues></_>
    <_>
      <internalNodes>
        0 -1 63285 1.5393171925097704e-03</internalNodes>
      <leafValues>
        -1.3875178992748260e-01 3.1482127308845520e-01</leafValues></_>
    <_>
      <internalNodes>
        0 -1 80308 -3.0662063509225845e-03</internalNodes>
      <leafValues>
        -4.4706016778945923e-01 7.8960597515106201e-02</leafValues></_>
    <_>
      <internalNodes>
        0 -1 29334 -1.0294200852513313e-02</internalNodes>
      <leafValues>
        -7.4327999353408813e-01 3.8781519979238510e-02</leafValues></_>
    <_>
      <internalNodes>
        0 -1 5429 -3.6387653090059757e-03</internalNodes>
      <leafValues>
        3.4884718060493469e-01 -1.0343629866838455e-01</leafValues></_>
    <_>
      <internalNodes>
        0 -1 5431 1.6829974483698606e-03</internalNodes>
      <leafValues>
        -1.5661562979221344e-01 2.2179453074932098e-01</leafValues></_>
    <_>
      <internalNodes>
        0 -1 147025 8.2308379933238029e-04</internalNodes>
      <leafValues>
        -1.0284098237752914e-01 2.6500043272972107e-01</leafValues></_>
    <_>
      <internalNodes>
        0 -1 29290 6.0571334324777126e-04</internalNodes>
      <leafValues>
        8.3880618214607239e-02 -3.9026960730552673e-01</leafValues></_>
    <_>
      <internalNodes>
        0 -1 151317 -4.8884842544794083e-04</internalNodes>
      <leafValues>
        -3.2772564888000488e-01 8.4791608154773712e-02</leafValues></_>
    <_>
      <internalNodes>
        0 -1 165642 -4.5577511191368103e-03</internalNodes>
      <leafValues>
        4.4765624403953552e-01 -7.0526614785194397e-02</leafValues></_>
    <_>
      <internalNodes>
        0 -1 145473 -3.1214256887324154e-04</internalNodes>
      <leafValues>
        -2.0884807407855988e-01 1.3463738560676575e-01</leafValues></_>
    <_>
      <internalNodes>
        0 -1 55912 1.3124891556799412e-03</internalNodes>
      <leafValues>
        -1.3157033920288086e-01 2.1057319641113281e-01</leafValues></_>
    <_>
      <internalNodes>
        0 -1 138149 1.9692133646458387e-03</internalNodes>
      <leafValues>
        6.5612889826297760e-02 -3.8570973277091980e-01</leafValues></_>
    <_>
      <internalNodes>
        0 -1 129622 1.4084180584177375e-03</internalNodes>
      <leafValues>
        -3.0389487743377686e-02 9.1994446516036987e-01</leafValues></_>
    <_>
      <internalNodes>
        0 -1 14574 -7.6505390461534262e-04</internalNodes>
      <leafValues>
        -2.8821444511413574e-01 1.0793126374483109e-01</leafValues></_>
    <_>
      <internalNodes>
        0 -1 184684 2.4115415289998055e-03</internalNodes>
      <leafValues>
        -4.1592992842197418e-02 7.3054277896881104e-01</leafValues></_>
    <_>
      <internalNodes>
        0 -1 170941 3.2398942857980728e-03</internalNodes>
      <leafValues>
        7.6747469604015350e-02 -3.9437854290008545e-01</leafValues></_>
    <_>
      <internalNodes>
        0 -1 51312 -1.8278481438755989e-03</internalNodes>
      <leafValues>
        -4.2511135339736938e-01 5.7786867022514343e-02</leafValues></_>
    <_>
      <internalNodes>
        0 -1 51263 1.2496083509176970e-03</internalNodes>
      <leafValues>
        7.7003195881843567e-02 -3.7063750624656677e-01</leafValues></_>
    <_>
      <internalNodes>
        0 -1 6221 -7.9183053458109498e-04</internalNodes>
      <leafValues>
        5.5154371261596680e-01 -6.3373126089572906e-02</leafValues></_>
    <_>
      <internalNodes>
        0 -1 41346 -3.3620727481320500e-04</internalNodes>
      <leafValues>
        -2.9460319876670837e-01 1.0061042010784149e-01</leafValues></_>
    <_>
      <internalNodes>
        0 -1 88433 -4.7077643685042858e-03</internalNodes>
      <leafValues>
        6.7293804883956909e-01 -4.3333839625120163e-02</leafValues></_>
    <_>
      <internalNodes>
        0 -1 66562 2.3813338950276375e-02</internalNodes>
      <leafValues>
        -1.2279064208269119e-01 2.1845701336860657e-01</leafValues></_>
    <_>
      <internalNodes>
        0 -1 120875 7.8953197225928307e-03</internalNodes>
      <leafValues>
        -1.2546202540397644e-01 2.3106370866298676e-01</leafValues></_>
    <_>
      <internalNodes>
        0 -1 76249 2.8386514633893967e-02</internalNodes>
      <leafValues>
        -1.0715701431035995e-01 2.5570097565650940e-01</leafValues></_>
    <_>
      <internalNodes>
        0 -1 30491 -1.3398138107731938e-03</internalNodes>
      <leafValues>
        3.3100125193595886e-01 -9.8605424165725708e-02</leafValues></_>
    <_>
      <internalNodes>
        0 -1 102034 2.7544698677957058e-03</internalNodes>
      <leafValues>
        -4.2899738997220993e-02 7.2828412055969238e-01</leafValues></_>
    <_>
      <internalNodes>
        0 -1 111348 6.2518646009266376e-03</internalNodes>
      <leafValues>
        6.2111411243677139e-02 -5.1734274625778198e-01</leafValues></_>
    <_>
      <internalNodes>
        0 -1 173020 -1.3081364333629608e-02</internalNodes>
      <leafValues>
        3.0695912241935730e-01 -9.1729156672954559e-02</leafValues></_>
    <_>
      <internalNodes>
        0 -1 152791 2.4082963354885578e-03</internalNodes>
      <leafValues>
        9.3597650527954102e-02 -3.2843261957168579e-01</leafValues></_>
    <_>
      <internalNodes>
        0 -1 152104 7.6020497363060713e-04</internalNodes>
      <leafValues>
        -1.3933898508548737e-01 2.1911828219890594e-01</leafValues></_>
    <_>
      <internalNodes>
        0 -1 190381 8.5538119310513139e-04</internalNodes>
      <leafValues>
        -4.1733264923095703e-02 6.2397497892379761e-01</leafValues></_>
    <_>
      <internalNodes>
        0 -1 174052 -1.9424074562266469e-03</internalNodes>
      <leafValues>
        -3.4170374274253845e-01 9.6816763281822205e-02</leafValues></_>
    <_>
      <internalNodes>
        0 -1 174157 -5.3754582768306136e-04</internalNodes>
      <leafValues>
        -3.0017456412315369e-01 8.8180154561996460e-02</leafValues></_>
    <_>
      <internalNodes>
        0 -1 185538 3.8824687362648547e-04</internalNodes>
      <leafValues>
        -7.2212606668472290e-02 4.0057790279388428e-01</leafValues></_>
    <_>
      <internalNodes>
        0 -1 118293 -1.1489819735288620e-03</internalNodes>
      <leafValues>
        -4.5291891694068909e-01 7.0577934384346008e-02</leafValues></_>
    <_>
      <internalNodes>
        0 -1 165548 1.5174039872363210e-03</internalNodes>
      <leafValues>
        7.6600305736064911e-02 -3.8392820954322815e-01</leafValues></_>
    <_>
      <internalNodes>
        0 -1 68118 1.7591479700058699e-03</internalNodes>
      <leafValues>
        -9.4470873475074768e-02 2.8760734200477600e-01</leafValues></_>
    <_>
      <internalNodes>
        0 -1 105094 -1.8648938834667206e-01</internalNodes>
      <leafValues>
        7.7295476198196411e-01 -3.3013500273227692e-02</leafValues></_>
    <_>
      <internalNodes>
        0 -1 148517 -2.1954362746328115e-03</internalNodes>
      <leafValues>
        -2.2161710262298584e-01 1.3779568672180176e-01</leafValues></_>
    <_>
      <internalNodes>
        0 -1 55832 4.0843850001692772e-03</internalNodes>
      <leafValues>
        6.9555677473545074e-02 -3.6446309089660645e-01</leafValues></_>
    <_>
      <internalNodes>
        0 -1 102252 -2.3928801529109478e-03</internalNodes>
      <leafValues>
        4.6366056799888611e-01 -6.1514031141996384e-02</leafValues></_>
    <_>
      <internalNodes>
        0 -1 87418 1.1524851433932781e-03</internalNodes>
      <leafValues>
        1.0400757193565369e-01 -2.9003727436065674e-01</leafValues></_>
    <_>
      <internalNodes>
        0 -1 87408 -3.0568244983442128e-04</internalNodes>
      <leafValues>
        -2.0838971436023712e-01 1.3676023483276367e-01</leafValues></_>
    <_>
      <internalNodes>
        0 -1 25512 -4.8383511602878571e-02</internalNodes>
      <leafValues>
        4.1202118992805481e-01 -6.6536635160446167e-02</leafValues></_>
    <_>
      <internalNodes>
        0 -1 127784 3.2838555052876472e-03</internalNodes>
      <leafValues>
        6.8626634776592255e-02 -4.5646187663078308e-01</leafValues></_>
    <_>
      <internalNodes>
        0 -1 11330 -8.0327939940616488e-04</internalNodes>
      <leafValues>
        3.9058980345726013e-01 -8.4732919931411743e-02</leafValues></_>
    <_>
      <internalNodes>
        0 -1 9526 -1.3983084354549646e-03</internalNodes>
      <leafValues>
        -4.0869557857513428e-01 7.0511840283870697e-02</leafValues></_>
    <_>
      <internalNodes>
        0 -1 5301 7.9617544542998075e-04</internalNodes>
      <leafValues>
        -4.9205154180526733e-02 6.2541091442108154e-01</leafValues></_></weakClassifiers></stage17>
</opencv_storage>
