<?xml version="1.0"?>
<opencv_storage>
<stage13>
  <maxWeakCount>20</maxWeakCount>
  <stageThreshold>-1.2459851503372192e+00</stageThreshold>
  <weakClassifiers>
    <_>
      <internalNodes>
        0 -1 2799 -44704261 -3416067 1129782699 -143695744 799398303
        -1987477309 -1653888001 500789719</internalNodes>
      <leafValues>
        -5.1130563020706177e-01 2.1834060549736023e-02</leafValues></_>
    <_>
      <internalNodes>
        0 -1 6077 75312805 550007859 1415325224 1322813696 726620031
        2106840186 1388399204 -527110074</internalNodes>
      <leafValues>
        -4.8868274688720703e-01 1.3291370868682861e-01</leafValues></_>
    <_>
      <internalNodes>
        0 -1 14004 780348708 -1899396835 1099502043 -1095567967
        726362749 -410959735 -1614581360 -1741684155</internalNodes>
      <leafValues>
        -5.0848358869552612e-01 1.4445830881595612e-01</leafValues></_>
    <_>
      <internalNodes>
        0 -1 7834 -439560962 68489346 273780913 826671710 1523667158
        -1567995254 809674458 72265769</internalNodes>
      <leafValues>
        -4.7331172227859497e-01 1.8201705813407898e-01</leafValues></_>
    <_>
      <internalNodes>
        0 -1 17767 128956726 -1475569570 -732443052 -1403764300
        387592310 193816635 313064304 -2075034776</internalNodes>
      <leafValues>
        -4.8684597015380859e-01 1.7458426952362061e-01</leafValues></_>
    <_>
      <internalNodes>
        0 -1 726 -626570564 -1216509121 1806626093 -13957087 993513165
        -1826523401 1853329038 -147715063</internalNodes>
      <leafValues>
        -2.5496190786361694e-01 3.2492896914482117e-01</leafValues></_>
    <_>
      <internalNodes>
        0 -1 19062 1025311559 790192595 -184499459 -1361700461
        1669535302 -1086047693 983702864 -99044381</internalNodes>
      <leafValues>
        -3.7111172080039978e-01 2.4440225958824158e-01</leafValues></_>
    <_>
      <internalNodes>
        0 -1 12610 785930332 505306385 1900364093 645531988 1793221776
        -612368359 -371690501 -1130488467</internalNodes>
      <leafValues>
        -5.1141381263732910e-01 1.5703821182250977e-01</leafValues></_>
    <_>
      <internalNodes>
        0 -1 1793 70741203 -1901693469 1091621221 1317343626 846822254
        1117037796 -787490029 -419650316</internalNodes>
      <leafValues>
        -3.6040744185447693e-01 2.3895445466041565e-01</leafValues></_>
    <_>
      <internalNodes>
        0 -1 5044 -1488720261 -41619646 -1141396947 461635557
        -2045448740 -968556684 -1770230025 956006271</internalNodes>
      <leafValues>
        -2.6522690057754517e-01 3.5362109541893005e-01</leafValues></_>
    <_>
      <internalNodes>
        0 -1 15349 -1061199671 1913581871 -721202796 -1772899558
        302108248 -1156060879 -124728684 -1105881025</internalNodes>
      <leafValues>
        -3.2711407542228699e-01 2.7318915724754333e-01</leafValues></_>
    <_>
      <internalNodes>
        0 -1 14431 125139835 373347788 -984528899 257753174 -218031950
        -1196425079 -100033578 -1375165838</internalNodes>
      <leafValues>
        -3.1096634268760681e-01 2.8510913252830505e-01</leafValues></_>
    <_>
      <internalNodes>
        0 -1 8675 -828766349 56127967 -622794484 985813463 -28835092
        -938934142 -176110778 1113065555</internalNodes>
      <leafValues>
        -4.1489687561988831e-01 2.2643816471099854e-01</leafValues></_>
    <_>
      <internalNodes>
        0 -1 16326 784802103 -1193449405 -1056845357 -782540419
        -125347207 -1449422822 -225529079 -111670459</internalNodes>
      <leafValues>
        -3.8830733299255371e-01 2.3327322304248810e-01</leafValues></_>
    <_>
      <internalNodes>
        0 -1 18761 964488639 -1349674333 -536920212 -420626632
        1039646581 1979579895 -25215416 -706761227</internalNodes>
      <leafValues>
        -2.9817754030227661e-01 3.2720986008644104e-01</leafValues></_>
    <_>
      <internalNodes>
        0 -1 1209 1366084858 1572123022 -1889862508 1459699776 95712892
        1922242635 -2014774511 826476715</internalNodes>
      <leafValues>
        -3.8908019661903381e-01 2.4511530995368958e-01</leafValues></_>
    <_>
      <internalNodes>
        0 -1 19388 -1257819101 -885155470 -1727950110 -1429436072
        1672112384 1526939775 1923584564 -155528203</internalNodes>
      <leafValues>
        -4.1402107477188110e-01 2.4060785770416260e-01</leafValues></_>
    <_>
      <internalNodes>
        0 -1 7807 -1833657646 1426743783 -1744721769 889606478 587408065
        -24360949 187421136 119935607</internalNodes>
      <leafValues>
        -5.6373322010040283e-01 1.6068105399608612e-01</leafValues></_>
    <_>
      <internalNodes>
        0 -1 12735 80110991 1060344983 1078117812 638118000 1477460037
        -620035926 -1308019754 -1264272544</internalNodes>
      <leafValues>
        -4.3754374980926514e-01 2.2810964286327362e-01</leafValues></_>
    <_>
      <internalNodes>
        0 -1 15561 1438938832 1070150497 298419178 938889626 -1553350500
        825049099 -938154340 1897238879</internalNodes>
      <leafValues>
        -3.1909933686256409e-01 3.1053143739700317e-01</leafValues></_></weakClassifiers></stage13>
</opencv_storage>
