<?xml version="1.0"?>
<opencv_storage>
<stage19>
  <maxWeakCount>21</maxWeakCount>
  <stageThreshold>-1.0431547164916992e+00</stageThreshold>
  <weakClassifiers>
    <_>
      <internalNodes>
        0 -1 300 -15876713 -682839406 -1856941955 -12062716 -769957586
        -1154567461 1933237191 -739387469</internalNodes>
      <leafValues>
        -4.7743466496467590e-01 2.9940119013190269e-02</leafValues></_>
    <_>
      <internalNodes>
        0 -1 13948 145977985 -577699645 1090519451 332206108 -1610434526
        -897023727 151232995 2065189332</internalNodes>
      <leafValues>
        -3.1773242354393005e-01 2.0414327085018158e-01</leafValues></_>
    <_>
      <internalNodes>
        0 -1 12711 131954675 802065107 1073824388 -1366781666 1747607768
        -337491957 1476923783 -198549464</internalNodes>
      <leafValues>
        -3.0976909399032593e-01 2.2032426297664642e-01</leafValues></_>
    <_>
      <internalNodes>
        0 -1 19569 -1243270170 713494537 -1040121549 650891405
        1497829385 -1040150528 -536779838 -1035079304</internalNodes>
      <leafValues>
        -3.1111371517181396e-01 2.1099828183650970e-01</leafValues></_>
    <_>
      <internalNodes>
        0 -1 9655 -49189185 148402258 -1073704877 978493833 1971535950
        -904519156 -939285714 -630800098</internalNodes>
      <leafValues>
        -3.0475288629531860e-01 2.4019801616668701e-01</leafValues></_>
    <_>
      <internalNodes>
        0 -1 6205 424027055 576422530 272716085 411258990 -1198878182
        -1073610614 -1157559534 952772858</internalNodes>
      <leafValues>
        -3.1231260299682617e-01 2.2522400319576263e-01</leafValues></_>
    <_>
      <internalNodes>
        0 -1 17207 858059987 -749830012 17027085 -749911919 -1190944244
        -1979580414 52666518 -1695547223</internalNodes>
      <leafValues>
        -2.4100778996944427e-01 3.2237491011619568e-01</leafValues></_>
    <_>
      <internalNodes>
        0 -1 19850 604177477 215207942 -788412012 40996998 1535856433
        1896185994 2068320576 -1338287612</internalNodes>
      <leafValues>
        -4.7606235742568970e-01 1.7123784124851227e-01</leafValues></_>
    <_>
      <internalNodes>
        0 -1 18619 -557900047 -978719041 1056872349 414965353
        -1527014316 -1367441409 2146409815 1542374767</internalNodes>
      <leafValues>
        -2.3630279302597046e-01 3.2357478141784668e-01</leafValues></_>
    <_>
      <internalNodes>
        0 -1 16670 998592698 -649018993 1090540050 1225097424 1778727810
        -1299707894 1367441939 1246543585</internalNodes>
      <leafValues>
        -3.1280359625816345e-01 2.4933254718780518e-01</leafValues></_>
    <_>
      <internalNodes>
        0 -1 12374 -1330420184 1075908812 4669569 345634260 -104822270
        960774153 -2092890017 973078894</internalNodes>
      <leafValues>
        -4.4683119654655457e-01 1.8260043859481812e-01</leafValues></_>
    <_>
      <internalNodes>
        0 -1 11448 -8427777 1561062074 2063592055 -553730313 -1111740954
        -1061273991 -1918263509 -806918226</internalNodes>
      <leafValues>
        -1.6556444764137268e-01 5.0656622648239136e-01</leafValues></_>
    <_>
      <internalNodes>
        0 -1 3966 108947177 919152723 -1005042875 2031190339 -1942850972
        186275851 -72811890 -211789798</internalNodes>
      <leafValues>
        -3.0084156990051270e-01 2.7771845459938049e-01</leafValues></_>
    <_>
      <internalNodes>
        0 -1 11922 1392574109 978090390 1494304108 -1927343718
        1646302137 -1349677022 -905793059 515703351</internalNodes>
      <leafValues>
        -2.8629356622695923e-01 3.1068474054336548e-01</leafValues></_>
    <_>
      <internalNodes>
        0 -1 8294 723009579 -1606053754 285427588 -951881252 671705162
        1212350680 866768918 -722123786</internalNodes>
      <leafValues>
        -3.8232946395874023e-01 2.2886827588081360e-01</leafValues></_>
    <_>
      <internalNodes>
        0 -1 380 -1484438573 244117594 286351383 -1353951243 -1692690308
        -1870592872 2073616567 -1438288652</internalNodes>
      <leafValues>
        -3.2302358746528625e-01 2.6386582851409912e-01</leafValues></_>
    <_>
      <internalNodes>
        0 -1 12967 -1049237373 1771602995 1426267340 2067838562
        302557389 -234745848 -618733551 844969355</internalNodes>
      <leafValues>
        -2.9207304120063782e-01 2.9059270024299622e-01</leafValues></_>
    <_>
      <internalNodes>
        0 -1 19630 -244843245 -370212933 788184689 -209322153
        -1653291910 1560264694 2146875363 -641155683</internalNodes>
      <leafValues>
        -2.1386794745922089e-01 4.0420791506767273e-01</leafValues></_>
    <_>
      <internalNodes>
        0 -1 309 1813497347 -1619754549 403814308 -2081777662 -905695406
        1352794250 45280211 162227435</internalNodes>
      <leafValues>
        -3.3037158846855164e-01 2.7201497554779053e-01</leafValues></_>
    <_>
      <internalNodes>
        0 -1 1540 -1085838085 -886636572 -1442840587 1761406650
        -1135173256 -289710087 393588435 466224556</internalNodes>
      <leafValues>
        -2.7143520116806030e-01 3.1094720959663391e-01</leafValues></_>
    <_>
      <internalNodes>
        0 -1 17818 51764743 -1881452368 -717209017 1291063804 897605637
        -364369792 -224892626 -2013744812</internalNodes>
      <leafValues>
        -3.8205665349960327e-01 2.2987189888954163e-01</leafValues></_></weakClassifiers></stage19>
</opencv_storage>
