<?xml version="1.0"?>
<opencv_storage>
<stage15>
  <maxWeakCount>23</maxWeakCount>
  <stageThreshold>-1.2666838169097900e+00</stageThreshold>
  <weakClassifiers>
    <_>
      <internalNodes>
        0 -1 5484 -34481293 2135825848 -704045155 -607645332 1129232062
        128702658 969374653 234686327</internalNodes>
      <leafValues>
        -5.5354720354080200e-01 -7.7246449887752533e-02</leafValues></_>
    <_>
      <internalNodes>
        0 -1 17967 308497477 788539709 -1806649946 676983111 -167143219
        1602957739 178017408 -1299825704</internalNodes>
      <leafValues>
        -3.8490507006645203e-01 1.6680739820003510e-01</leafValues></_>
    <_>
      <internalNodes>
        0 -1 13210 -1560070946 -1052278652 285737333 1843365020
        -1853162581 -1196752757 833303543 -886242876</internalNodes>
      <leafValues>
        -2.7925056219100952e-01 2.4698935449123383e-01</leafValues></_>
    <_>
      <internalNodes>
        0 -1 14650 138674741 886118677 -997686333 1053218192 -1106742768
        -1322647398 998470455 -1897910163</internalNodes>
      <leafValues>
        -3.8127979636192322e-01 2.0834439992904663e-01</leafValues></_>
    <_>
      <internalNodes>
        0 -1 20126 215437773 759897037 294394326 251494661 2124288817
        -134135672 -1081458347 -127922336</internalNodes>
      <leafValues>
        -3.5982215404510498e-01 1.9287988543510437e-01</leafValues></_>
    <_>
      <internalNodes>
        0 -1 9578 146870020 219178758 1078024309 847404118 1402598116
        53174425 675959239 257906911</internalNodes>
      <leafValues>
        -5.2471667528152466e-01 1.4708529412746429e-01</leafValues></_>
    <_>
      <internalNodes>
        0 -1 2196 1769974199 -1991301899 1363288338 -758349145 -71083457
        1522532753 1377362247 -957051906</internalNodes>
      <leafValues>
        -2.6927909255027771e-01 2.7593421936035156e-01</leafValues></_>
    <_>
      <internalNodes>
        0 -1 16535 -851460191 -1091136576 -679380662 -780206124
        1259041113 808583299 1250099405 -1931290454</internalNodes>
      <leafValues>
        -3.1759560108184814e-01 2.2854839265346527e-01</leafValues></_>
    <_>
      <internalNodes>
        0 -1 6386 720838429 782067882 1174442052 240259683 -884332478
        -1115682675 1367730390 -1293884515</internalNodes>
      <leafValues>
        -3.6456355452537537e-01 2.1404963731765747e-01</leafValues></_>
    <_>
      <internalNodes>
        0 -1 18234 -294139133 1059618728 -102069215 -671412488 775030394
        557023101 2136075763 -1989343369</internalNodes>
      <leafValues>
        -2.6087448000907898e-01 3.0181530117988586e-01</leafValues></_>
    <_>
      <internalNodes>
        0 -1 16390 -1829818787 -704663681 1879015261 1354215423 -8413833
        -1484882049 1425996711 -631578436</internalNodes>
      <leafValues>
        -2.5391507148742676e-01 3.1114411354064941e-01</leafValues></_>
    <_>
      <internalNodes>
        0 -1 19275 -353583833 -1467034699 -1962676206 -461709323
        1863027517 -1609989423 1251157109 -25102332</internalNodes>
      <leafValues>
        -3.5485956072807312e-01 2.3089644312858582e-01</leafValues></_>
    <_>
      <internalNodes>
        0 -1 13900 826672883 1644331154 16810837 482953435 -1608777646
        -1970798454 1267319623 302834113</internalNodes>
      <leafValues>
        -3.8239312171936035e-01 2.1144694089889526e-01</leafValues></_>
    <_>
      <internalNodes>
        0 -1 460 262627219 1873765745 -468627370 -1898983211 -299394437
        1442978314 1435859542 -620912416</internalNodes>
      <leafValues>
        -2.9917612671852112e-01 2.8839665651321411e-01</leafValues></_>
    <_>
      <internalNodes>
        0 -1 18013 1844055424 301160230 692199459 662918344 1301428140
        460548448 1490584330 1748374630</internalNodes>
      <leafValues>
        -4.8528122901916504e-01 1.6496933996677399e-01</leafValues></_>
    <_>
      <internalNodes>
        0 -1 12802 -933268289 -168461325 -1946157088 1005322230
        -134357668 -1343307921 1040138110 -1709609089</internalNodes>
      <leafValues>
        -2.3138570785522461e-01 3.6134070158004761e-01</leafValues></_>
    <_>
      <internalNodes>
        0 -1 16806 1269927469 1070187005 285839863 -1903726386
        -1710553000 681181971 463000341 -1225768505</internalNodes>
      <leafValues>
        -3.7441524863243103e-01 2.2505326569080353e-01</leafValues></_>
    <_>
      <internalNodes>
        0 -1 20535 659116551 -810166542 51592921 -325865285 -360023975
        -2071224311 -108530861 1560067537</internalNodes>
      <leafValues>
        -3.0736821889877319e-01 2.7059522271156311e-01</leafValues></_>
    <_>
      <internalNodes>
        0 -1 15993 -153559872 369914846 320703486 753897762 180535484
        -356286315 -1331584800 307571353</internalNodes>
      <leafValues>
        -3.9618140459060669e-01 2.1996849775314331e-01</leafValues></_>
    <_>
      <internalNodes>
        0 -1 8293 1863644067 -985661421 1358991363 2119393346 1652753370
        411078787 553728295 -1676881449</internalNodes>
      <leafValues>
        -3.3239626884460449e-01 2.5711119174957275e-01</leafValues></_>
    <_>
      <internalNodes>
        0 -1 1673 -616170341 2012955740 -41812 -609885390 -1619416595
        863209157 1584725707 -1355552358</internalNodes>
      <leafValues>
        -1.9436804950237274e-01 4.8463973402976990e-01</leafValues></_>
    <_>
      <internalNodes>
        0 -1 15860 845029631 -1965485950 17035933 -837860936 1367873585
        -1073020799 1904395217 2116559544</internalNodes>
      <leafValues>
        -4.1391050815582275e-01 2.2150763869285583e-01</leafValues></_>
    <_>
      <internalNodes>
        0 -1 4973 -266913093 -1102346260 -2097101476 1784070782
        -75220945 1363980297 -888608034 -1506449841</internalNodes>
      <leafValues>
        -3.1227725744247437e-01 2.7941849827766418e-01</leafValues></_></weakClassifiers></stage15>
</opencv_storage>
