<?xml version="1.0"?>
<opencv_storage>
<stage8>
  <maxWeakCount>9</maxWeakCount>
  <stageThreshold>-1.0621688365936279e+00</stageThreshold>
  <weakClassifiers>
    <_>
      <internalNodes>
        0 -1 11284 1071454719 -67153479 1497494987 2111264733
        -1094653253 -41828224 453569179 461905081</internalNodes>
      <leafValues>
        -7.1822804212570190e-01 1.2554112076759338e-01</leafValues></_>
    <_>
      <internalNodes>
        0 -1 12681 454418399 1574818000 -855603841 1606807701 -343346241
        -1302687597 1562542075 520411549</internalNodes>
      <leafValues>
        -5.0358909368515015e-01 3.9840680360794067e-01</leafValues></_>
    <_>
      <internalNodes>
        0 -1 13365 390665215 -187726647 331698811 2098676393 -1203195906
        -578387804 960567807 421012157</internalNodes>
      <leafValues>
        -5.1517570018768311e-01 3.8643947243690491e-01</leafValues></_>
    <_>
      <internalNodes>
        0 -1 11976 867177841 2113011576 -134778923 -8884763 2146762686
        -268601475 1056765439 -1615290904</internalNodes>
      <leafValues>
        -3.6311039328575134e-01 5.3359609842300415e-01</leafValues></_>
    <_>
      <internalNodes>
        0 -1 12362 191656441 -982695717 -1069444781 501182489 283701758
        -1714908672 824289821 447748337</internalNodes>
      <leafValues>
        -6.1145710945129395e-01 3.5742101073265076e-01</leafValues></_>
    <_>
      <internalNodes>
        0 -1 11403 412423165 1937097458 -788440761 2102726877 403276730
        -1585315700 1073841067 532681209</internalNodes>
      <leafValues>
        -5.4310923814773560e-01 3.8584896922111511e-01</leafValues></_>
    <_>
      <internalNodes>
        0 -1 9116 -551953464 -879803763 320962991 -82607208 -1291009877
        -1467350813 1577294363 124406275</internalNodes>
      <leafValues>
        -5.2349412441253662e-01 4.1061997413635254e-01</leafValues></_>
    <_>
      <internalNodes>
        0 -1 13280 1018443737 -4293197 2147397623 -71340174 -1350662401
        -1115684866 1610546879 -1959118884</internalNodes>
      <leafValues>
        -3.6904209852218628e-01 6.0462063550949097e-01</leafValues></_>
    <_>
      <internalNodes>
        0 -1 12261 1009799903 1293332545 -1962881001 110957659
        -117018225 -3496807 184652195 235413657</internalNodes>
      <leafValues>
        -4.9116793274879456e-01 4.3938967585563660e-01</leafValues></_></weakClassifiers></stage8>
</opencv_storage>
