<?xml version="1.0"?>
<opencv_storage>
<stage13>
  <maxWeakCount>10</maxWeakCount>
  <stageThreshold>-1.1111216545104980e+00</stageThreshold>
  <weakClassifiers>
    <_>
      <internalNodes>
        0 -1 9800 1064383999 2140620253 -1324878515 1608374669
        -1115161633 -155475802 2072179711 534600189</internalNodes>
      <leafValues>
        -6.6545981168746948e-01 6.5160728991031647e-02</leafValues></_>
    <_>
      <internalNodes>
        0 -1 10412 405624787 -1655450957 420609503 1825292745 -889167250
        -20266789 1261507355 509345861</internalNodes>
      <leafValues>
        -4.8635229468345642e-01 2.9936504364013672e-01</leafValues></_>
    <_>
      <internalNodes>
        0 -1 12717 886855643 1871290823 -720170593 2120059369 961516223
        -1278758238 713128639 135285212</internalNodes>
      <leafValues>
        -5.8928483724594116e-01 2.5719544291496277e-01</leafValues></_>
    <_>
      <internalNodes>
        0 -1 13845 1069291999 -580242992 -482240353 1566405837
        -1686031818 -166944661 -605769260 454039849</internalNodes>
      <leafValues>
        -4.9475589394569397e-01 3.2955420017242432e-01</leafValues></_>
    <_>
      <internalNodes>
        0 -1 9414 526253019 1028398022 285295002 1608351887 2066346907
        185287144 1101601265 1295578005</internalNodes>
      <leafValues>
        -4.4856640696525574e-01 3.5279184579849243e-01</leafValues></_>
    <_>
      <internalNodes>
        0 -1 11523 680267415 -1527598627 84009437 530106829 2063677068
        -2324087 -1731638604 -595823628</internalNodes>
      <leafValues>
        -4.3161016702651978e-01 3.6446532607078552e-01</leafValues></_>
    <_>
      <internalNodes>
        0 -1 16291 -2079702415 201388373 30875029 -649826028 1938509876
        -119623039 -1354007211 -309061036</internalNodes>
      <leafValues>
        -6.2371379137039185e-01 2.2801721096038818e-01</leafValues></_>
    <_>
      <internalNodes>
        0 -1 10264 503666679 -119318017 31690911 487657604 -1097230278
        -1207271288 -1174314853 -1689710395</internalNodes>
      <leafValues>
        -4.1641631722450256e-01 3.7289386987686157e-01</leafValues></_>
    <_>
      <internalNodes>
        0 -1 4557 67244282 -1605029489 -786464536 -611184460 1935255886
        1849174048 1690872334 704678271</internalNodes>
      <leafValues>
        -5.2523100376129150e-01 3.0034035444259644e-01</leafValues></_>
    <_>
      <internalNodes>
        0 -1 2891 -1932332037 -2043926473 1090765223 -870690138
        864223233 -75290366 -1952425293 -1037068097</internalNodes>
      <leafValues>
        -4.1142025589942932e-01 3.9759728312492371e-01</leafValues></_></weakClassifiers></stage13>
</opencv_storage>
