<?xml version="1.0"?>
<opencv_storage>
<stage3>
  <maxWeakCount>12</maxWeakCount>
  <stageThreshold>-1.8119103908538818e+00</stageThreshold>
  <weakClassifiers>
    <_>
      <internalNodes>
        0 -1 10025 4.9242874979972839e-01</internalNodes>
      <leafValues>
        -6.1290323734283447e-01 7.7462118864059448e-01</leafValues></_>
    <_>
      <internalNodes>
        0 -1 27619 -1.6416937112808228e-02</internalNodes>
      <leafValues>
        -7.0931535959243774e-01 1.7027677595615387e-01</leafValues></_>
    <_>
      <internalNodes>
        0 -1 21450 -1.9505545496940613e-02</internalNodes>
      <leafValues>
        -8.4146124124526978e-01 1.7049331963062286e-01</leafValues></_>
    <_>
      <internalNodes>
        0 -1 18991 -5.8794054202735424e-03</internalNodes>
      <leafValues>
        -7.2139161825180054e-01 1.6324605047702789e-01</leafValues></_>
    <_>
      <internalNodes>
        0 -1 34042 -9.7470115870237350e-03</internalNodes>
      <leafValues>
        -8.0229252576828003e-01 1.3981139659881592e-01</leafValues></_>
    <_>
      <internalNodes>
        0 -1 28247 -2.0014490000903606e-03</internalNodes>
      <leafValues>
        -6.9426804780960083e-01 1.4952413737773895e-01</leafValues></_>
    <_>
      <internalNodes>
        0 -1 35858 -6.1259549111127853e-03</internalNodes>
      <leafValues>
        -6.8193113803863525e-01 1.4355783164501190e-01</leafValues></_>
    <_>
      <internalNodes>
        0 -1 30078 -7.5008627027273178e-03</internalNodes>
      <leafValues>
        -7.3802328109741211e-01 1.2989965081214905e-01</leafValues></_>
    <_>
      <internalNodes>
        0 -1 27392 9.0449370443820953e-02</internalNodes>
      <leafValues>
        1.1841595917940140e-01 -8.2738697528839111e-01</leafValues></_>
    <_>
      <internalNodes>
        0 -1 22745 2.2420842200517654e-02</internalNodes>
      <leafValues>
        1.1272275447845459e-01 -7.7894914150238037e-01</leafValues></_>
    <_>
      <internalNodes>
        0 -1 24944 -8.4198368713259697e-03</internalNodes>
      <leafValues>
        -8.3732438087463379e-01 8.8600002229213715e-02</leafValues></_>
    <_>
      <internalNodes>
        0 -1 20417 9.6082510426640511e-03</internalNodes>
      <leafValues>
        7.0346660912036896e-02 -9.4744277000427246e-01</leafValues></_></weakClassifiers></stage3>
</opencv_storage>
