<?xml version="1.0"?>
<opencv_storage>
<stage2>
  <maxWeakCount>8</maxWeakCount>
  <stageThreshold>-1.3377090692520142e+00</stageThreshold>
  <weakClassifiers>
    <_>
      <internalNodes>
        0 -1 2295 4.0588498115539551e-01</internalNodes>
      <leafValues>
        -6.1621177196502686e-01 8.8235294818878174e-01</leafValues></_>
    <_>
      <internalNodes>
        0 -1 24726 -1.7168119549751282e-02</internalNodes>
      <leafValues>
        -6.8363255262374878e-01 2.6050838828086853e-01</leafValues></_>
    <_>
      <internalNodes>
        0 -1 17089 9.8343305289745331e-03</internalNodes>
      <leafValues>
        1.7969906330108643e-01 -8.5451620817184448e-01</leafValues></_>
    <_>
      <internalNodes>
        0 -1 5734 -9.3501079827547073e-03</internalNodes>
      <leafValues>
        -8.0573230981826782e-01 1.8099597096443176e-01</leafValues></_>
    <_>
      <internalNodes>
        0 -1 16704 -5.8409534394741058e-03</internalNodes>
      <leafValues>
        -8.2000732421875000e-01 1.8039785325527191e-01</leafValues></_>
    <_>
      <internalNodes>
        0 -1 32120 -3.9623500779271126e-03</internalNodes>
      <leafValues>
        -7.6611173152923584e-01 1.5092062950134277e-01</leafValues></_>
    <_>
      <internalNodes>
        0 -1 29084 -4.1717444546520710e-03</internalNodes>
      <leafValues>
        -7.9249686002731323e-01 1.6851784288883209e-01</leafValues></_>
    <_>
      <internalNodes>
        0 -1 4043 1.4685887843370438e-02</internalNodes>
      <leafValues>
        1.7840649187564850e-01 -8.8323193788528442e-01</leafValues></_></weakClassifiers></stage2>
</opencv_storage>
