<?xml version="1.0"?>
<opencv_storage>
<stage9>
  <maxWeakCount>32</maxWeakCount>
  <stageThreshold>-1.6003193855285645e+00</stageThreshold>
  <weakClassifiers>
    <_>
      <internalNodes>
        0 -1 2295 5.7127827405929565e-01</internalNodes>
      <leafValues>
        -4.3467542529106140e-01 3.3681461215019226e-01</leafValues></_>
    <_>
      <internalNodes>
        0 -1 25341 -3.7071425467729568e-03</internalNodes>
      <leafValues>
        -5.3068554401397705e-01 1.5213143825531006e-01</leafValues></_>
    <_>
      <internalNodes>
        0 -1 28953 3.5556247457861900e-03</internalNodes>
      <leafValues>
        2.3312997817993164e-01 -3.7961432337760925e-01</leafValues></_>
    <_>
      <internalNodes>
        0 -1 16157 4.7508096322417259e-03</internalNodes>
      <leafValues>
        1.0739926248788834e-01 -6.8095111846923828e-01</leafValues></_>
    <_>
      <internalNodes>
        0 -1 35496 1.8609428079798818e-03</internalNodes>
      <leafValues>
        1.4326028525829315e-01 -5.6009876728057861e-01</leafValues></_>
    <_>
      <internalNodes>
        0 -1 4345 9.2714428901672363e-03</internalNodes>
      <leafValues>
        8.3964750170707703e-02 -6.9596230983734131e-01</leafValues></_>
    <_>
      <internalNodes>
        0 -1 35291 3.5097356885671616e-03</internalNodes>
      <leafValues>
        1.0412868857383728e-01 -5.7410198450088501e-01</leafValues></_>
    <_>
      <internalNodes>
        0 -1 5726 -9.1882599517703056e-03</internalNodes>
      <leafValues>
        -7.0021587610244751e-01 7.3501668870449066e-02</leafValues></_>
    <_>
      <internalNodes>
        0 -1 21834 2.3106735199689865e-02</internalNodes>
      <leafValues>
        1.4149445295333862e-01 -4.8253250122070312e-01</leafValues></_>
    <_>
      <internalNodes>
        0 -1 35971 -2.0102502312511206e-03</internalNodes>
      <leafValues>
        -4.7179096937179565e-01 1.3401122391223907e-01</leafValues></_>
    <_>
      <internalNodes>
        0 -1 7166 4.3131986260414124e-01</internalNodes>
      <leafValues>
        2.7181200683116913e-02 -7.2503185272216797e-01</leafValues></_>
    <_>
      <internalNodes>
        0 -1 3654 -1.0170650668442249e-02</internalNodes>
      <leafValues>
        -4.3708550930023193e-01 1.6218695044517517e-01</leafValues></_>
    <_>
      <internalNodes>
        0 -1 40555 4.1429037228226662e-03</internalNodes>
      <leafValues>
        8.9260086417198181e-02 -6.1347985267639160e-01</leafValues></_>
    <_>
      <internalNodes>
        0 -1 37648 7.3622674681246281e-03</internalNodes>
      <leafValues>
        5.2469376474618912e-02 -6.3500535488128662e-01</leafValues></_>
    <_>
      <internalNodes>
        0 -1 14862 -2.1246229298412800e-03</internalNodes>
      <leafValues>
        -4.7182527184486389e-01 9.8751336336135864e-02</leafValues></_>
    <_>
      <internalNodes>
        0 -1 2742 -4.4266018085181713e-03</internalNodes>
      <leafValues>
        -4.1725537180900574e-01 1.2443290650844574e-01</leafValues></_>
    <_>
      <internalNodes>
        0 -1 30820 -1.8410794436931610e-03</internalNodes>
      <leafValues>
        4.8243242502212524e-01 -1.1191021651029587e-01</leafValues></_>
    <_>
      <internalNodes>
        0 -1 5585 6.2511372379958630e-03</internalNodes>
      <leafValues>
        6.7599020898342133e-02 -7.0812755823135376e-01</leafValues></_>
    <_>
      <internalNodes>
        0 -1 33050 -3.5606692545115948e-03</internalNodes>
      <leafValues>
        -4.7305119037628174e-01 9.5639720559120178e-02</leafValues></_>
    <_>
      <internalNodes>
        0 -1 39536 4.8216702416539192e-03</internalNodes>
      <leafValues>
        -9.3911878764629364e-02 5.9233117103576660e-01</leafValues></_>
    <_>
      <internalNodes>
        0 -1 40760 -8.7026674300432205e-03</internalNodes>
      <leafValues>
        -4.6413052082061768e-01 1.1412741988897324e-01</leafValues></_>
    <_>
      <internalNodes>
        0 -1 35380 -2.5862138718366623e-03</internalNodes>
      <leafValues>
        -5.8934748172760010e-01 8.1237807869911194e-02</leafValues></_>
    <_>
      <internalNodes>
        0 -1 10465 3.4802870359271765e-03</internalNodes>
      <leafValues>
        -1.4630459249019623e-01 3.7291434407234192e-01</leafValues></_>
    <_>
      <internalNodes>
        0 -1 9541 -3.2497867941856384e-03</internalNodes>
      <leafValues>
        6.3915640115737915e-01 -8.8983170688152313e-02</leafValues></_>
    <_>
      <internalNodes>
        0 -1 32800 2.4540405720472336e-02</internalNodes>
      <leafValues>
        -1.0023958981037140e-01 4.3718153238296509e-01</leafValues></_>
    <_>
      <internalNodes>
        0 -1 20885 2.5239396840333939e-02</internalNodes>
      <leafValues>
        -2.9001927375793457e-01 2.3907399177551270e-01</leafValues></_>
    <_>
      <internalNodes>
        0 -1 40232 -3.3926539123058319e-02</internalNodes>
      <leafValues>
        -5.1605236530303955e-01 8.3574377000331879e-02</leafValues></_>
    <_>
      <internalNodes>
        0 -1 40275 1.4370086602866650e-02</internalNodes>
      <leafValues>
        -1.2736661732196808e-01 4.2410486936569214e-01</leafValues></_>
    <_>
      <internalNodes>
        0 -1 16591 -3.9981435984373093e-03</internalNodes>
      <leafValues>
        -6.1352843046188354e-01 1.0442838072776794e-01</leafValues></_>
    <_>
      <internalNodes>
        0 -1 40673 -2.3455189075320959e-03</internalNodes>
      <leafValues>
        -4.5478284358978271e-01 1.1096585541963577e-01</leafValues></_>
    <_>
      <internalNodes>
        0 -1 12584 6.7835345864295959e-02</internalNodes>
      <leafValues>
        6.7721255123615265e-02 -7.2906637191772461e-01</leafValues></_>
    <_>
      <internalNodes>
        0 -1 32745 -2.8381377342157066e-04</internalNodes>
      <leafValues>
        -3.4408187866210938e-01 1.6229715943336487e-01</leafValues></_></weakClassifiers></stage9>
</opencv_storage>
