<?xml version="1.0"?>
<opencv_storage>
<stage10>
  <maxWeakCount>100</maxWeakCount>
  <stageThreshold>-2.4314951896667480e+00</stageThreshold>
  <weakClassifiers>
    <_>
      <internalNodes>
        0 -1 7814 1.8894003331661224e-01</internalNodes>
      <leafValues>
        -5.3141182661056519e-01 -1.0355264879763126e-02</leafValues></_>
    <_>
      <internalNodes>
        0 -1 134082 8.3663567900657654e-02</internalNodes>
      <leafValues>
        -2.0836795866489410e-01 1.7431350052356720e-01</leafValues></_>
    <_>
      <internalNodes>
        0 -1 112807 -2.2378767607733607e-04</internalNodes>
      <leafValues>
        -2.7699065208435059e-01 1.0404627025127411e-01</leafValues></_>
    <_>
      <internalNodes>
        0 -1 112805 1.4201138401404023e-04</internalNodes>
      <leafValues>
        1.6709071397781372e-01 -2.8256711363792419e-01</leafValues></_>
    <_>
      <internalNodes>
        0 -1 112496 -3.6161375464871526e-04</internalNodes>
      <leafValues>
        -2.1268711984157562e-01 1.7269296944141388e-01</leafValues></_>
    <_>
      <internalNodes>
        0 -1 111483 -2.9442951199598610e-04</internalNodes>
      <leafValues>
        -2.8000968694686890e-01 9.8260469734668732e-02</leafValues></_>
    <_>
      <internalNodes>
        0 -1 111809 1.1069962056353688e-04</internalNodes>
      <leafValues>
        1.3907870650291443e-01 -2.1922345459461212e-01</leafValues></_>
    <_>
      <internalNodes>
        0 -1 121423 1.0362317785620689e-02</internalNodes>
      <leafValues>
        3.0088467523455620e-02 -5.2491128444671631e-01</leafValues></_>
    <_>
      <internalNodes>
        0 -1 154190 1.3386098667979240e-02</internalNodes>
      <leafValues>
        -6.0224980115890503e-02 3.3177754282951355e-01</leafValues></_>
    <_>
      <internalNodes>
        0 -1 139315 1.1306002736091614e-02</internalNodes>
      <leafValues>
        4.6733919531106949e-02 -4.5438262820243835e-01</leafValues></_>
    <_>
      <internalNodes>
        0 -1 120623 -1.8527261912822723e-02</internalNodes>
      <leafValues>
        4.8444956541061401e-01 -3.3737007528543472e-02</leafValues></_>
    <_>
      <internalNodes>
        0 -1 120236 1.2113212607800961e-02</internalNodes>
      <leafValues>
        -1.1847820132970810e-01 2.4062591791152954e-01</leafValues></_>
    <_>
      <internalNodes>
        0 -1 91520 -3.2399203628301620e-03</internalNodes>
      <leafValues>
        3.3875012397766113e-01 -7.4436120688915253e-02</leafValues></_>
    <_>
      <internalNodes>
        0 -1 107516 6.1635002493858337e-03</internalNodes>
      <leafValues>
        -8.8522896170616150e-02 2.3688833415508270e-01</leafValues></_>
    <_>
      <internalNodes>
        0 -1 99984 5.0719985738396645e-03</internalNodes>
      <leafValues>
        4.3716192245483398e-02 -4.5819029211997986e-01</leafValues></_>
    <_>
      <internalNodes>
        0 -1 134274 8.4227053448557854e-03</internalNodes>
      <leafValues>
        4.4735100120306015e-02 -4.3441793322563171e-01</leafValues></_>
    <_>
      <internalNodes>
        0 -1 5982 -1.6840804368257523e-02</internalNodes>
      <leafValues>
        2.7822589874267578e-01 -7.4520818889141083e-02</leafValues></_>
    <_>
      <internalNodes>
        0 -1 8300 2.0348854362964630e-02</internalNodes>
      <leafValues>
        -1.2025950849056244e-01 2.6646530628204346e-01</leafValues></_>
    <_>
      <internalNodes>
        0 -1 103167 -3.8716403651051223e-04</internalNodes>
      <leafValues>
        -2.5559413433074951e-01 9.2668212950229645e-02</leafValues></_>
    <_>
      <internalNodes>
        0 -1 125060 -4.1562996921129525e-04</internalNodes>
      <leafValues>
        -2.3349799215793610e-01 7.7793881297111511e-02</leafValues></_>
    <_>
      <internalNodes>
        0 -1 13355 -6.5927833318710327e-02</internalNodes>
      <leafValues>
        -6.0423970222473145e-01 3.0460299924015999e-02</leafValues></_>
    <_>
      <internalNodes>
        0 -1 96052 -1.9253717618994415e-04</internalNodes>
      <leafValues>
        -1.8405452370643616e-01 9.7550697624683380e-02</leafValues></_>
    <_>
      <internalNodes>
        0 -1 56981 1.0467164218425751e-01</internalNodes>
      <leafValues>
        -4.9428950995206833e-02 3.8764584064483643e-01</leafValues></_>
    <_>
      <internalNodes>
        0 -1 150712 6.0724169015884399e-03</internalNodes>
      <leafValues>
        -7.0270754396915436e-02 2.8619673848152161e-01</leafValues></_>
    <_>
      <internalNodes>
        0 -1 12322 1.0139537975192070e-02</internalNodes>
      <leafValues>
        -7.9349979758262634e-02 2.2688090801239014e-01</leafValues></_>
    <_>
      <internalNodes>
        0 -1 137414 -3.9002147968858480e-04</internalNodes>
      <leafValues>
        -1.6115891933441162e-01 1.1274691671133041e-01</leafValues></_>
    <_>
      <internalNodes>
        0 -1 128143 -3.6825001239776611e-02</internalNodes>
      <leafValues>
        4.3514749407768250e-01 -5.0907380878925323e-02</leafValues></_>
    <_>
      <internalNodes>
        0 -1 115541 4.2701945640146732e-03</internalNodes>
      <leafValues>
        5.0190869718790054e-02 -4.2241537570953369e-01</leafValues></_>
    <_>
      <internalNodes>
        0 -1 8725 8.7596029043197632e-03</internalNodes>
      <leafValues>
        3.3376507461071014e-02 -4.6664804220199585e-01</leafValues></_>
    <_>
      <internalNodes>
        0 -1 142619 1.2893635721411556e-04</internalNodes>
      <leafValues>
        7.8081585466861725e-02 -2.1326638758182526e-01</leafValues></_>
    <_>
      <internalNodes>
        0 -1 80355 5.4071079939603806e-03</internalNodes>
      <leafValues>
        -6.7430645227432251e-02 2.7639758586883545e-01</leafValues></_>
    <_>
      <internalNodes>
        0 -1 48416 8.4181586280465126e-03</internalNodes>
      <leafValues>
        4.5882299542427063e-02 -4.5443668961524963e-01</leafValues></_>
    <_>
      <internalNodes>
        0 -1 26711 -1.0088573396205902e-01</internalNodes>
      <leafValues>
        7.3621314764022827e-01 -2.7577271685004234e-02</leafValues></_>
    <_>
      <internalNodes>
        0 -1 120148 4.0922369807958603e-03</internalNodes>
      <leafValues>
        4.8134122043848038e-02 -3.9059242606163025e-01</leafValues></_>
    <_>
      <internalNodes>
        0 -1 120365 -2.6420142967253923e-04</internalNodes>
      <leafValues>
        -2.1830773353576660e-01 9.4305880367755890e-02</leafValues></_>
    <_>
      <internalNodes>
        0 -1 151416 -2.0479314029216766e-02</internalNodes>
      <leafValues>
        4.7385227680206299e-01 -3.9880868047475815e-02</leafValues></_>
    <_>
      <internalNodes>
        0 -1 151042 8.6206831037998199e-03</internalNodes>
      <leafValues>
        -7.6336801052093506e-02 2.3666061460971832e-01</leafValues></_>
    <_>
      <internalNodes>
        0 -1 115067 7.2581786662340164e-03</internalNodes>
      <leafValues>
        -5.4486267268657684e-02 3.0397945642471313e-01</leafValues></_>
    <_>
      <internalNodes>
        0 -1 74986 -5.6733787059783936e-03</internalNodes>
      <leafValues>
        -3.3941638469696045e-01 5.5584408342838287e-02</leafValues></_>
    <_>
      <internalNodes>
        0 -1 105406 -1.8436426296830177e-02</internalNodes>
      <leafValues>
        7.6522982120513916e-01 -2.5423726066946983e-02</leafValues></_>
    <_>
      <internalNodes>
        0 -1 88282 -1.2706907466053963e-02</internalNodes>
      <leafValues>
        1.8359047174453735e-01 -9.7712799906730652e-02</leafValues></_>
    <_>
      <internalNodes>
        0 -1 23588 7.9636909067630768e-03</internalNodes>
      <leafValues>
        4.4947646558284760e-02 -4.0485215187072754e-01</leafValues></_>
    <_>
      <internalNodes>
        0 -1 142853 -3.1992907170206308e-03</internalNodes>
      <leafValues>
        -3.4219387173652649e-01 5.2003361284732819e-02</leafValues></_>
    <_>
      <internalNodes>
        0 -1 143910 1.3919771881774068e-03</internalNodes>
      <leafValues>
        -6.4726337790489197e-02 2.9780656099319458e-01</leafValues></_>
    <_>
      <internalNodes>
        0 -1 117864 -1.2938471627421677e-04</internalNodes>
      <leafValues>
        -1.9753344357013702e-01 9.7335167229175568e-02</leafValues></_>
    <_>
      <internalNodes>
        0 -1 102503 -8.9875661069527268e-04</internalNodes>
      <leafValues>
        -2.0437297224998474e-01 8.4373190999031067e-02</leafValues></_>
    <_>
      <internalNodes>
        0 -1 94461 2.4426765739917755e-02</internalNodes>
      <leafValues>
        -8.2789473235607147e-02 2.6201710104942322e-01</leafValues></_>
    <_>
      <internalNodes>
        0 -1 93682 -7.3292991146445274e-04</internalNodes>
      <leafValues>
        -2.0085939764976501e-01 1.0296080261468887e-01</leafValues></_>
    <_>
      <internalNodes>
        0 -1 11963 -7.3186233639717102e-03</internalNodes>
      <leafValues>
        2.5131362676620483e-01 -7.2431698441505432e-02</leafValues></_>
    <_>
      <internalNodes>
        0 -1 34928 3.3513116650283337e-03</internalNodes>
      <leafValues>
        -7.6960273087024689e-02 2.3419775068759918e-01</leafValues></_>
    <_>
      <internalNodes>
        0 -1 7442 2.0683024078607559e-02</internalNodes>
      <leafValues>
        3.6349646747112274e-02 -5.3091537952423096e-01</leafValues></_>
    <_>
      <internalNodes>
        0 -1 19734 5.6248782202601433e-03</internalNodes>
      <leafValues>
        -9.6481151878833771e-02 1.9555765390396118e-01</leafValues></_>
    <_>
      <internalNodes>
        0 -1 127616 -8.0746291205286980e-03</internalNodes>
      <leafValues>
        4.6594271063804626e-01 -3.5141929984092712e-02</leafValues></_>
    <_>
      <internalNodes>
        0 -1 133315 5.3472467698156834e-03</internalNodes>
      <leafValues>
        -7.7828474342823029e-02 2.1292485296726227e-01</leafValues></_>
    <_>
      <internalNodes>
        0 -1 106294 5.4939552210271358e-03</internalNodes>
      <leafValues>
        3.5943858325481415e-02 -5.1157528162002563e-01</leafValues></_>
    <_>
      <internalNodes>
        0 -1 106677 -1.7136210808530450e-03</internalNodes>
      <leafValues>
        -3.3555048704147339e-01 5.2977517247200012e-02</leafValues></_>
    <_>
      <internalNodes>
        0 -1 153194 -8.3852708339691162e-03</internalNodes>
      <leafValues>
        5.4353350400924683e-01 -3.3581055700778961e-02</leafValues></_>
    <_>
      <internalNodes>
        0 -1 117878 -1.8585752695798874e-04</internalNodes>
      <leafValues>
        -1.6666306555271149e-01 1.0100319236516953e-01</leafValues></_>
    <_>
      <internalNodes>
        0 -1 5914 1.2798395939171314e-02</internalNodes>
      <leafValues>
        -6.0302585363388062e-02 2.8799277544021606e-01</leafValues></_>
    <_>
      <internalNodes>
        0 -1 13573 5.7276792824268341e-02</internalNodes>
      <leafValues>
        2.5235014036297798e-02 -8.0102711915969849e-01</leafValues></_>
    <_>
      <internalNodes>
        0 -1 73102 7.4856150895357132e-03</internalNodes>
      <leafValues>
        2.8253439813852310e-02 -4.8847004771232605e-01</leafValues></_>
    <_>
      <internalNodes>
        0 -1 9485 -1.7761878669261932e-02</internalNodes>
      <leafValues>
        5.4059630632400513e-01 -3.5291213542222977e-02</leafValues></_>
    <_>
      <internalNodes>
        0 -1 9133 4.9586035311222076e-03</internalNodes>
      <leafValues>
        4.4467665255069733e-02 -3.9445886015892029e-01</leafValues></_>
    <_>
      <internalNodes>
        0 -1 8949 -1.9113125745207071e-03</internalNodes>
      <leafValues>
        -2.8398400545120239e-01 5.2562389522790909e-02</leafValues></_>
    <_>
      <internalNodes>
        0 -1 11874 1.2874864041805267e-02</internalNodes>
      <leafValues>
        3.5111363977193832e-02 -4.3453633785247803e-01</leafValues></_>
    <_>
      <internalNodes>
        0 -1 105787 -5.7919300161302090e-04</internalNodes>
      <leafValues>
        -1.9038817286491394e-01 9.3872599303722382e-02</leafValues></_>
    <_>
      <internalNodes>
        0 -1 111444 -1.7798781394958496e-02</internalNodes>
      <leafValues>
        5.7218843698501587e-01 -2.9448352754116058e-02</leafValues></_>
    <_>
      <internalNodes>
        0 -1 72320 -5.2044093608856201e-03</internalNodes>
      <leafValues>
        4.0884569287300110e-01 -3.6846183240413666e-02</leafValues></_>
    <_>
      <internalNodes>
        0 -1 105095 -5.3047243272885680e-04</internalNodes>
      <leafValues>
        -2.0057749748229980e-01 8.1678472459316254e-02</leafValues></_>
    <_>
      <internalNodes>
        0 -1 159185 4.2050960473716259e-03</internalNodes>
      <leafValues>
        2.9506888240575790e-02 -5.0879985094070435e-01</leafValues></_>
    <_>
      <internalNodes>
        0 -1 131698 -9.6421584021300077e-04</internalNodes>
      <leafValues>
        -2.2126871347427368e-01 6.8051435053348541e-02</leafValues></_>
    <_>
      <internalNodes>
        0 -1 128743 5.4115969687700272e-03</internalNodes>
      <leafValues>
        -8.4781013429164886e-02 1.8792700767517090e-01</leafValues></_>
    <_>
      <internalNodes>
        0 -1 480 -2.4685535579919815e-02</internalNodes>
      <leafValues>
        -7.0499229431152344e-01 2.5358719751238823e-02</leafValues></_>
    <_>
      <internalNodes>
        0 -1 101573 1.8746471032500267e-03</internalNodes>
      <leafValues>
        -1.2424940615892410e-01 1.5030695497989655e-01</leafValues></_>
    <_>
      <internalNodes>
        0 -1 144547 -9.2664249241352081e-03</internalNodes>
      <leafValues>
        2.6154389977455139e-01 -6.5653353929519653e-02</leafValues></_>
    <_>
      <internalNodes>
        0 -1 145285 7.8965094871819019e-04</internalNodes>
      <leafValues>
        -1.1609899997711182e-01 1.4706625044345856e-01</leafValues></_>
    <_>
      <internalNodes>
        0 -1 118251 -1.6545382095500827e-04</internalNodes>
      <leafValues>
        -1.8566967546939850e-01 9.0163886547088623e-02</leafValues></_>
    <_>
      <internalNodes>
        0 -1 119389 -2.2989783436059952e-02</internalNodes>
      <leafValues>
        5.8424329757690430e-01 -3.2368514686822891e-02</leafValues></_>
    <_>
      <internalNodes>
        0 -1 71777 6.5045766532421112e-03</internalNodes>
      <leafValues>
        -7.5912818312644958e-02 2.1285754442214966e-01</leafValues></_>
    <_>
      <internalNodes>
        0 -1 60444 -8.1385392695665359e-03</internalNodes>
      <leafValues>
        5.4479318857192993e-01 -3.0552422627806664e-02</leafValues></_>
    <_>
      <internalNodes>
        0 -1 80787 5.7357326149940491e-03</internalNodes>
      <leafValues>
        3.6736302077770233e-02 -5.4493010044097900e-01</leafValues></_>
    <_>
      <internalNodes>
        0 -1 160494 3.7301038391888142e-03</internalNodes>
      <leafValues>
        -7.4986420571804047e-02 2.2897216677665710e-01</leafValues></_>
    <_>
      <internalNodes>
        0 -1 126697 -4.8166816122829914e-04</internalNodes>
      <leafValues>
        -1.8977984786033630e-01 8.9455634355545044e-02</leafValues></_>
    <_>
      <internalNodes>
        0 -1 125469 -2.6422381051816046e-04</internalNodes>
      <leafValues>
        -1.8718180060386658e-01 8.6914852261543274e-02</leafValues></_>
    <_>
      <internalNodes>
        0 -1 159093 3.9877989329397678e-03</internalNodes>
      <leafValues>
        3.2747231423854828e-02 -4.8557090759277344e-01</leafValues></_>
    <_>
      <internalNodes>
        0 -1 154297 8.1917643547058105e-03</internalNodes>
      <leafValues>
        -6.6875897347927094e-02 2.5451990962028503e-01</leafValues></_>
    <_>
      <internalNodes>
        0 -1 156455 -3.3131320960819721e-03</internalNodes>
      <leafValues>
        1.6537219285964966e-01 -1.0392446070909500e-01</leafValues></_>
    <_>
      <internalNodes>
        0 -1 106807 2.0626785699278116e-03</internalNodes>
      <leafValues>
        3.9598681032657623e-02 -4.4805547595024109e-01</leafValues></_>
    <_>
      <internalNodes>
        0 -1 10597 3.3330875448882580e-03</internalNodes>
      <leafValues>
        -6.1874993145465851e-02 2.8350761532783508e-01</leafValues></_>
    <_>
      <internalNodes>
        0 -1 57715 -4.0222395909950137e-04</internalNodes>
      <leafValues>
        -1.6832441091537476e-01 1.1961206048727036e-01</leafValues></_>
    <_>
      <internalNodes>
        0 -1 89742 3.5317805595695972e-03</internalNodes>
      <leafValues>
        -7.2174236178398132e-02 2.4262045323848724e-01</leafValues></_>
    <_>
      <internalNodes>
        0 -1 137391 -2.8428772930055857e-03</internalNodes>
      <leafValues>
        -3.0433350801467896e-01 5.5297080427408218e-02</leafValues></_>
    <_>
      <internalNodes>
        0 -1 162114 -2.0615894347429276e-02</internalNodes>
      <leafValues>
        -4.8952093720436096e-01 3.1063182279467583e-02</leafValues></_>
    <_>
      <internalNodes>
        0 -1 87917 -2.6348049868829548e-04</internalNodes>
      <leafValues>
        -1.8000710010528564e-01 8.8586941361427307e-02</leafValues></_>
    <_>
      <internalNodes>
        0 -1 148332 5.8433474041521549e-03</internalNodes>
      <leafValues>
        3.7190821021795273e-02 -4.1143038868904114e-01</leafValues></_>
    <_>
      <internalNodes>
        0 -1 89289 5.9045059606432915e-03</internalNodes>
      <leafValues>
        -7.2133436799049377e-02 2.1893309056758881e-01</leafValues></_>
    <_>
      <internalNodes>
        0 -1 70280 -4.1029397398233414e-03</internalNodes>
      <leafValues>
        -3.9729151129722595e-01 4.0703780949115753e-02</leafValues></_>
    <_>
      <internalNodes>
        0 -1 16425 -1.2118813395500183e-01</internalNodes>
      <leafValues>
        8.2000577449798584e-01 -2.2424716502428055e-02</leafValues></_>
    <_>
      <internalNodes>
        0 -1 102511 -6.0745671391487122e-02</internalNodes>
      <leafValues>
        7.2583186626434326e-01 -1.5314806252717972e-02</leafValues></_>
    <_>
      <internalNodes>
        0 -1 137803 5.5347746238112450e-03</internalNodes>
      <leafValues>
        3.3274807035923004e-02 -5.3363829851150513e-01</leafValues></_></weakClassifiers></stage10>
</opencv_storage>
