<?xml version="1.0"?>
<opencv_storage>
<stage8>
  <maxWeakCount>9</maxWeakCount>
  <stageThreshold>-1.1638678312301636e+00</stageThreshold>
  <weakClassifiers>
    <_>
      <internalNodes>
        0 -1 12694 -1793384961 -2666029 -587130497 -15917681 -1685496897
        -606367302 -1456868421 -1414788684</internalNodes>
      <leafValues>
        -5.7753360271453857e-01 5.4966884851455688e-01</leafValues></_>
    <_>
      <internalNodes>
        0 -1 15050 892073695 -640171565 302437255 1092601999 -71048514
        -1434351564 1996501935 1498980157</internalNodes>
      <leafValues>
        -5.2095216512680054e-01 4.7938400506973267e-01</leafValues></_>
    <_>
      <internalNodes>
        0 -1 12956 1063992447 -665335 -1064989251 -1030819 -200148535
        -1090337656 -1097206785 799287844</internalNodes>
      <leafValues>
        -5.2283859252929688e-01 4.7602909803390503e-01</leafValues></_>
    <_>
      <internalNodes>
        0 -1 13474 469710847 -422470437 -711972785 172441855 -1827934566
        -366901096 1862496999 88904292</internalNodes>
      <leafValues>
        -6.2139177322387695e-01 3.6573988199234009e-01</leafValues></_>
    <_>
      <internalNodes>
        0 -1 3701 -9437209 -1598030914 -1342243154 -454656271 -671613067
        1742733302 -423628985 -134234121</internalNodes>
      <leafValues>
        -3.7425529956817627e-01 6.3527905941009521e-01</leafValues></_>
    <_>
      <internalNodes>
        0 -1 20696 1342660927 -1594076589 -637533886 -355483565
        -450162843 1634082818 -719717836 1723056117</internalNodes>
      <leafValues>
        -6.3911747932434082e-01 3.7745162844657898e-01</leafValues></_>
    <_>
      <internalNodes>
        0 -1 15672 353189007 -581070599 134325449 -1475522390 -585016581
        1560379394 -1088202207 1788360924</internalNodes>
      <leafValues>
        -5.8659768104553223e-01 4.4391816854476929e-01</leafValues></_>
    <_>
      <internalNodes>
        0 -1 11198 457915837 133894290 -200684065 -1345318583 1937894139
        -266172416 -352134685 194521268</internalNodes>
      <leafValues>
        -6.2635707855224609e-01 4.0043595433235168e-01</leafValues></_>
    <_>
      <internalNodes>
        0 -1 20118 877859381 629379179 1082876951 717742735 -498464683
        147128460 -1043504895 -724178001</internalNodes>
      <leafValues>
        -6.9069403409957886e-01 3.7804299592971802e-01</leafValues></_></weakClassifiers></stage8>
</opencv_storage>
