<?xml version="1.0"?>
<opencv_storage>
<stage1>
  <maxWeakCount>5</maxWeakCount>
  <stageThreshold>-9.8394751548767090e-01</stageThreshold>
  <weakClassifiers>
    <_>
      <internalNodes>
        0 -1 18710 -1614842057 2129641471 -283118609 -135267873
        -134218411 -673272629 -109056204 -67113219</internalNodes>
      <leafValues>
        -7.3244148492813110e-01 6.6778522729873657e-01</leafValues></_>
    <_>
      <internalNodes>
        0 -1 12660 -1610792961 -277007437 -6291465 -4399114 -67277313
        -14292294 -2130608 -1344794892</internalNodes>
      <leafValues>
        -6.4648115634918213e-01 6.6936719417572021e-01</leafValues></_>
    <_>
      <internalNodes>
        0 -1 7785 264187517 -1904247843 1803431839 -1495028293
        2143256575 -276305091 -2376450 1056186352</internalNodes>
      <leafValues>
        -7.7517127990722656e-01 5.2124303579330444e-01</leafValues></_>
    <_>
      <internalNodes>
        0 -1 1126 -1477562385 -285608961 -271991316 -286340846
        2069327871 -140530721 2144296959 -2835930</internalNodes>
      <leafValues>
        -6.7540866136550903e-01 6.2633252143859863e-01</leafValues></_>
    <_>
      <internalNodes>
        0 -1 14315 1067155245 1339909599 -46801138 -18884131 -72369337
        -185026377 -8262844 -184615032</internalNodes>
      <leafValues>
        -7.4907147884368896e-01 5.4914081096649170e-01</leafValues></_></weakClassifiers></stage1>
</opencv_storage>
