<?xml version="1.0"?>
<opencv_storage>
<stage9>
  <maxWeakCount>63</maxWeakCount>
  <stageThreshold>-1.9032983779907227e+00</stageThreshold>
  <weakClassifiers>
    <_>
      <internalNodes>
        0 -1 8486 4.0941536426544189e-02</internalNodes>
      <leafValues>
        -5.4792040586471558e-01 -9.8615430295467377e-02</leafValues></_>
    <_>
      <internalNodes>
        0 -1 117934 -1.4906331198289990e-03</internalNodes>
      <leafValues>
        -4.0990373492240906e-01 9.1744191944599152e-02</leafValues></_>
    <_>
      <internalNodes>
        0 -1 110590 -7.4642273830249906e-05</internalNodes>
      <leafValues>
        -2.5748264789581299e-01 1.3984653353691101e-01</leafValues></_>
    <_>
      <internalNodes>
        0 -1 112309 9.2250797897577286e-03</internalNodes>
      <leafValues>
        -1.6641309857368469e-01 2.1924456954002380e-01</leafValues></_>
    <_>
      <internalNodes>
        0 -1 137314 -3.5493671894073486e-03</internalNodes>
      <leafValues>
        -5.1302009820938110e-01 9.6311360597610474e-02</leafValues></_>
    <_>
      <internalNodes>
        0 -1 21667 -5.4879359900951385e-02</internalNodes>
      <leafValues>
        7.0458960533142090e-01 -5.6866135448217392e-02</leafValues></_>
    <_>
      <internalNodes>
        0 -1 127940 -1.2484351173043251e-03</internalNodes>
      <leafValues>
        -4.0314900875091553e-01 7.7957399189472198e-02</leafValues></_>
    <_>
      <internalNodes>
        0 -1 106677 -1.1880176607519388e-03</internalNodes>
      <leafValues>
        -3.8647872209548950e-01 1.0062938183546066e-01</leafValues></_>
    <_>
      <internalNodes>
        0 -1 120597 -1.7923697829246521e-02</internalNodes>
      <leafValues>
        7.6837885379791260e-01 -4.4882312417030334e-02</leafValues></_>
    <_>
      <internalNodes>
        0 -1 144007 -1.2141077313572168e-03</internalNodes>
      <leafValues>
        -4.1822904348373413e-01 8.8995225727558136e-02</leafValues></_>
    <_>
      <internalNodes>
        0 -1 23294 6.1431843787431717e-03</internalNodes>
      <leafValues>
        -1.7206871509552002e-01 2.0143765211105347e-01</leafValues></_>
    <_>
      <internalNodes>
        0 -1 132541 -4.9122241325676441e-03</internalNodes>
      <leafValues>
        -5.5558693408966064e-01 5.6457530707120895e-02</leafValues></_>
    <_>
      <internalNodes>
        0 -1 142411 -4.3745202128775418e-04</internalNodes>
      <leafValues>
        -2.7444845438003540e-01 1.1984210461378098e-01</leafValues></_>
    <_>
      <internalNodes>
        0 -1 126064 -1.4180100697558373e-04</internalNodes>
      <leafValues>
        -2.9298132658004761e-01 1.2582117319107056e-01</leafValues></_>
    <_>
      <internalNodes>
        0 -1 95684 -6.3669256633147597e-04</internalNodes>
      <leafValues>
        -2.7608454227447510e-01 1.2891519069671631e-01</leafValues></_>
    <_>
      <internalNodes>
        0 -1 101746 9.2190764844417572e-03</internalNodes>
      <leafValues>
        5.3906422108411789e-02 -6.4479941129684448e-01</leafValues></_>
    <_>
      <internalNodes>
        0 -1 131527 -3.8547301664948463e-04</internalNodes>
      <leafValues>
        -2.8114399313926697e-01 1.1716875433921814e-01</leafValues></_>
    <_>
      <internalNodes>
        0 -1 132239 4.1881695389747620e-02</internalNodes>
      <leafValues>
        -1.0851363837718964e-01 3.4594658017158508e-01</leafValues></_>
    <_>
      <internalNodes>
        0 -1 138852 1.2450590729713440e-02</internalNodes>
      <leafValues>
        -7.9088911414146423e-02 3.9682236313819885e-01</leafValues></_>
    <_>
      <internalNodes>
        0 -1 87151 -2.9424100648611784e-04</internalNodes>
      <leafValues>
        -3.4087589383125305e-01 1.0054760426282883e-01</leafValues></_>
    <_>
      <internalNodes>
        0 -1 11874 1.0322820395231247e-02</internalNodes>
      <leafValues>
        5.7990979403257370e-02 -5.3314584493637085e-01</leafValues></_>
    <_>
      <internalNodes>
        0 -1 90715 9.1559365391731262e-03</internalNodes>
      <leafValues>
        -1.2599588930606842e-01 2.7316755056381226e-01</leafValues></_>
    <_>
      <internalNodes>
        0 -1 82494 -2.2321101278066635e-03</internalNodes>
      <leafValues>
        3.7863737344741821e-01 -9.6611157059669495e-02</leafValues></_>
    <_>
      <internalNodes>
        0 -1 68485 7.7795740216970444e-03</internalNodes>
      <leafValues>
        4.9964331090450287e-02 -6.3664877414703369e-01</leafValues></_>
    <_>
      <internalNodes>
        0 -1 137630 -4.6391820069402456e-04</internalNodes>
      <leafValues>
        -2.7439910173416138e-01 1.0593630373477936e-01</leafValues></_>
    <_>
      <internalNodes>
        0 -1 118962 7.2454642504453659e-03</internalNodes>
      <leafValues>
        5.1664438098669052e-02 -5.8832621574401855e-01</leafValues></_>
    <_>
      <internalNodes>
        0 -1 156161 -3.6713383160531521e-03</internalNodes>
      <leafValues>
        2.1634539961814880e-01 -1.4559733867645264e-01</leafValues></_>
    <_>
      <internalNodes>
        0 -1 146780 1.9134052097797394e-02</internalNodes>
      <leafValues>
        -1.0073950886726379e-01 4.0900257229804993e-01</leafValues></_>
    <_>
      <internalNodes>
        0 -1 147049 -4.1667744517326355e-04</internalNodes>
      <leafValues>
        -2.6427087187767029e-01 1.2663358449935913e-01</leafValues></_>
    <_>
      <internalNodes>
        0 -1 161463 4.9159504473209381e-02</internalNodes>
      <leafValues>
        4.5578900724649429e-02 -6.0246521234512329e-01</leafValues></_>
    <_>
      <internalNodes>
        0 -1 157773 -1.1429253220558167e-01</internalNodes>
      <leafValues>
        -7.6401424407958984e-01 3.1176935881376266e-02</leafValues></_>
    <_>
      <internalNodes>
        0 -1 150876 5.2859797142446041e-03</internalNodes>
      <leafValues>
        -9.6005737781524658e-02 3.5795974731445312e-01</leafValues></_>
    <_>
      <internalNodes>
        0 -1 121394 -4.7907959669828415e-03</internalNodes>
      <leafValues>
        -4.7165098786354065e-01 7.1561463177204132e-02</leafValues></_>
    <_>
      <internalNodes>
        0 -1 25826 4.6636075712740421e-03</internalNodes>
      <leafValues>
        4.1333165019750595e-02 -6.2375587224960327e-01</leafValues></_>
    <_>
      <internalNodes>
        0 -1 121398 7.3367152363061905e-03</internalNodes>
      <leafValues>
        4.4565320014953613e-02 -5.9411537647247314e-01</leafValues></_>
    <_>
      <internalNodes>
        0 -1 9485 -1.7891105264425278e-02</internalNodes>
      <leafValues>
        6.5662801265716553e-01 -4.8518937081098557e-02</leafValues></_>
    <_>
      <internalNodes>
        0 -1 38018 6.6008544526994228e-03</internalNodes>
      <leafValues>
        -1.5026357769966125e-01 1.9698975980281830e-01</leafValues></_>
    <_>
      <internalNodes>
        0 -1 70631 7.5322790071368217e-03</internalNodes>
      <leafValues>
        -6.6062971949577332e-02 4.4572764635086060e-01</leafValues></_>
    <_>
      <internalNodes>
        0 -1 133764 -8.5220821201801300e-03</internalNodes>
      <leafValues>
        6.7993408441543579e-01 -4.0496043860912323e-02</leafValues></_>
    <_>
      <internalNodes>
        0 -1 118980 -2.5174277834594250e-04</internalNodes>
      <leafValues>
        -2.7085712552070618e-01 1.2084307521581650e-01</leafValues></_>
    <_>
      <internalNodes>
        0 -1 70795 1.3621889986097813e-02</internalNodes>
      <leafValues>
        3.7212360650300980e-02 -6.9952750205993652e-01</leafValues></_>
    <_>
      <internalNodes>
        0 -1 155035 5.2840281277894974e-03</internalNodes>
      <leafValues>
        4.3484497815370560e-02 -5.4438155889511108e-01</leafValues></_>
    <_>
      <internalNodes>
        0 -1 147271 -1.8235601484775543e-02</internalNodes>
      <leafValues>
        6.7245334386825562e-01 -4.4795397669076920e-02</leafValues></_>
    <_>
      <internalNodes>
        0 -1 80606 -1.6277881804853678e-03</internalNodes>
      <leafValues>
        -3.7359943985939026e-01 8.0248475074768066e-02</leafValues></_>
    <_>
      <internalNodes>
        0 -1 98486 -2.5017531588673592e-03</internalNodes>
      <leafValues>
        2.0616661012172699e-01 -1.3520132005214691e-01</leafValues></_>
    <_>
      <internalNodes>
        0 -1 161015 -1.3646734878420830e-03</internalNodes>
      <leafValues>
        -3.4039112925529480e-01 8.5292197763919830e-02</leafValues></_>
    <_>
      <internalNodes>
        0 -1 80554 1.7285989597439766e-03</internalNodes>
      <leafValues>
        -1.0970547795295715e-01 2.8023558855056763e-01</leafValues></_>
    <_>
      <internalNodes>
        0 -1 37460 -3.1581735238432884e-03</internalNodes>
      <leafValues>
        -4.3597435951232910e-01 6.9740243256092072e-02</leafValues></_>
    <_>
      <internalNodes>
        0 -1 89049 1.7171918880194426e-03</internalNodes>
      <leafValues>
        -1.1198332905769348e-01 2.6357433199882507e-01</leafValues></_>
    <_>
      <internalNodes>
        0 -1 69449 -1.9197800429537892e-03</internalNodes>
      <leafValues>
        -3.4166020154953003e-01 9.9594101309776306e-02</leafValues></_>
    <_>
      <internalNodes>
        0 -1 124787 -1.1216079583391547e-03</internalNodes>
      <leafValues>
        -3.7053096294403076e-01 7.4876077473163605e-02</leafValues></_>
    <_>
      <internalNodes>
        0 -1 67709 1.4235409907996655e-03</internalNodes>
      <leafValues>
        -1.7242464423179626e-01 1.8459655344486237e-01</leafValues></_>
    <_>
      <internalNodes>
        0 -1 144118 -1.2416811659932137e-03</internalNodes>
      <leafValues>
        -2.8507345914840698e-01 1.0151273757219315e-01</leafValues></_>
    <_>
      <internalNodes>
        0 -1 154433 -1.9149761646986008e-02</internalNodes>
      <leafValues>
        7.1672743558883667e-01 -4.3471951037645340e-02</leafValues></_>
    <_>
      <internalNodes>
        0 -1 10637 7.6549961231648922e-03</internalNodes>
      <leafValues>
        -9.0386524796485901e-02 3.0840125679969788e-01</leafValues></_>
    <_>
      <internalNodes>
        0 -1 23259 -2.0921312272548676e-02</internalNodes>
      <leafValues>
        4.6709412336349487e-01 -5.7484656572341919e-02</leafValues></_>
    <_>
      <internalNodes>
        0 -1 140017 -1.7855037003755569e-02</internalNodes>
      <leafValues>
        6.2963020801544189e-01 -4.3779429048299789e-02</leafValues></_>
    <_>
      <internalNodes>
        0 -1 131264 -6.9707370130345225e-05</internalNodes>
      <leafValues>
        -2.0913641154766083e-01 1.5400862693786621e-01</leafValues></_>
    <_>
      <internalNodes>
        0 -1 51286 -1.3102957978844643e-02</internalNodes>
      <leafValues>
        -5.8165401220321655e-01 4.6217180788516998e-02</leafValues></_>
    <_>
      <internalNodes>
        0 -1 126888 4.0741004049777985e-03</internalNodes>
      <leafValues>
        5.9466000646352768e-02 -4.4085350632667542e-01</leafValues></_>
    <_>
      <internalNodes>
        0 -1 127292 3.7460164166986942e-03</internalNodes>
      <leafValues>
        -7.6635584235191345e-02 3.8204115629196167e-01</leafValues></_>
    <_>
      <internalNodes>
        0 -1 117787 -2.5904867798089981e-03</internalNodes>
      <leafValues>
        -3.4857982397079468e-01 8.5391432046890259e-02</leafValues></_>
    <_>
      <internalNodes>
        0 -1 144030 1.2339730747044086e-03</internalNodes>
      <leafValues>
        4.7218862920999527e-02 -5.6471592187881470e-01</leafValues></_></weakClassifiers></stage9>
</opencv_storage>
