<?xml version="1.0"?>
<opencv_storage>
<stage15>
  <maxWeakCount>82</maxWeakCount>
  <stageThreshold>-1.5991562604904175e+00</stageThreshold>
  <weakClassifiers>
    <_>
      <internalNodes>
        0 -1 56359 9.6295833587646484e-02</internalNodes>
      <leafValues>
        -4.1213843226432800e-01 -3.4989502746611834e-03</leafValues></_>
    <_>
      <internalNodes>
        0 -1 131264 -6.4625797676853836e-05</internalNodes>
      <leafValues>
        -2.2682426869869232e-01 1.0476057976484299e-01</leafValues></_>
    <_>
      <internalNodes>
        0 -1 125055 -1.9693814101628959e-04</internalNodes>
      <leafValues>
        -2.4868921935558319e-01 1.1040011048316956e-01</leafValues></_>
    <_>
      <internalNodes>
        0 -1 114510 -3.5851851105690002e-02</internalNodes>
      <leafValues>
        5.0930756330490112e-01 -2.1497596055269241e-02</leafValues></_>
    <_>
      <internalNodes>
        0 -1 94222 -3.1545708770863712e-04</internalNodes>
      <leafValues>
        -2.5436639785766602e-01 1.0013839602470398e-01</leafValues></_>
    <_>
      <internalNodes>
        0 -1 103605 -1.1476182407932356e-04</internalNodes>
      <leafValues>
        -2.1109376847743988e-01 1.0921484231948853e-01</leafValues></_>
    <_>
      <internalNodes>
        0 -1 12227 1.3994604349136353e-02</internalNodes>
      <leafValues>
        3.5182498395442963e-02 -5.8300459384918213e-01</leafValues></_>
    <_>
      <internalNodes>
        0 -1 120592 -5.7436507631791756e-05</internalNodes>
      <leafValues>
        -1.9500887393951416e-01 1.6684235632419586e-01</leafValues></_>
    <_>
      <internalNodes>
        0 -1 118632 -2.1987760555930436e-04</internalNodes>
      <leafValues>
        -2.3735547065734863e-01 8.7676443159580231e-02</leafValues></_>
    <_>
      <internalNodes>
        0 -1 45065 1.4842737000435591e-03</internalNodes>
      <leafValues>
        -1.5899014472961426e-01 1.4770780503749847e-01</leafValues></_>
    <_>
      <internalNodes>
        0 -1 131527 -3.8157452945597470e-04</internalNodes>
      <leafValues>
        -2.3388631641864777e-01 8.9754790067672729e-02</leafValues></_>
    <_>
      <internalNodes>
        0 -1 111024 -2.4031843349803239e-04</internalNodes>
      <leafValues>
        -2.1300205588340759e-01 9.3828715384006500e-02</leafValues></_>
    <_>
      <internalNodes>
        0 -1 136901 6.9189220666885376e-03</internalNodes>
      <leafValues>
        -9.3762412667274475e-02 2.2857990860939026e-01</leafValues></_>
    <_>
      <internalNodes>
        0 -1 158559 1.8980443710461259e-03</internalNodes>
      <leafValues>
        -9.8797164857387543e-02 2.7928915619850159e-01</leafValues></_>
    <_>
      <internalNodes>
        0 -1 102336 2.1855436265468597e-02</internalNodes>
      <leafValues>
        -4.8057056963443756e-02 4.4460922479629517e-01</leafValues></_>
    <_>
      <internalNodes>
        0 -1 108037 -2.7803871780633926e-03</internalNodes>
      <leafValues>
        -3.9235761761665344e-01 5.8768764138221741e-02</leafValues></_>
    <_>
      <internalNodes>
        0 -1 106854 6.6188611090183258e-03</internalNodes>
      <leafValues>
        4.3048545718193054e-02 -5.4109388589859009e-01</leafValues></_>
    <_>
      <internalNodes>
        0 -1 143651 -1.4938622713088989e-02</internalNodes>
      <leafValues>
        5.5256712436676025e-01 -3.9002928882837296e-02</leafValues></_>
    <_>
      <internalNodes>
        0 -1 143529 4.9151838757097721e-03</internalNodes>
      <leafValues>
        -7.5970083475112915e-02 2.7103191614151001e-01</leafValues></_>
    <_>
      <internalNodes>
        0 -1 161511 -8.2604220369830728e-04</internalNodes>
      <leafValues>
        -3.1005418300628662e-01 6.5998092293739319e-02</leafValues></_>
    <_>
      <internalNodes>
        0 -1 77523 -4.5832969248294830e-02</internalNodes>
      <leafValues>
        5.8342373371124268e-01 -3.7062589079141617e-02</leafValues></_>
    <_>
      <internalNodes>
        0 -1 119871 -2.6700033340603113e-03</internalNodes>
      <leafValues>
        -3.2283610105514526e-01 7.3883652687072754e-02</leafValues></_>
    <_>
      <internalNodes>
        0 -1 10551 7.7675874345004559e-03</internalNodes>
      <leafValues>
        5.4973363876342773e-02 -3.9777016639709473e-01</leafValues></_>
    <_>
      <internalNodes>
        0 -1 96555 -6.1179861426353455e-02</internalNodes>
      <leafValues>
        7.9720556735992432e-01 -3.0021084472537041e-02</leafValues></_>
    <_>
      <internalNodes>
        0 -1 121423 -1.0635660961270332e-02</internalNodes>
      <leafValues>
        -6.1204373836517334e-01 3.7410512566566467e-02</leafValues></_>
    <_>
      <internalNodes>
        0 -1 122752 -2.2587142884731293e-03</internalNodes>
      <leafValues>
        2.6764449477195740e-01 -8.2353942096233368e-02</leafValues></_>
    <_>
      <internalNodes>
        0 -1 73759 4.8261219635605812e-03</internalNodes>
      <leafValues>
        -1.2137295305728912e-01 2.0516474545001984e-01</leafValues></_>
    <_>
      <internalNodes>
        0 -1 97896 -8.6585171520709991e-03</internalNodes>
      <leafValues>
        5.8360517024993896e-01 -3.8252644240856171e-02</leafValues></_>
    <_>
      <internalNodes>
        0 -1 213 8.7944254279136658e-02</internalNodes>
      <leafValues>
        3.9051759988069534e-02 -5.8229756355285645e-01</leafValues></_>
    <_>
      <internalNodes>
        0 -1 46210 2.1991333924233913e-03</internalNodes>
      <leafValues>
        5.4415166378021240e-02 -3.5292229056358337e-01</leafValues></_>
    <_>
      <internalNodes>
        0 -1 70761 4.2649800889194012e-03</internalNodes>
      <leafValues>
        -1.4623506367206573e-01 1.3913673162460327e-01</leafValues></_>
    <_>
      <internalNodes>
        0 -1 11557 -5.7388190180063248e-03</internalNodes>
      <leafValues>
        2.5619462132453918e-01 -8.7458603084087372e-02</leafValues></_>
    <_>
      <internalNodes>
        0 -1 22231 7.5300680473446846e-03</internalNodes>
      <leafValues>
        -9.3510664999485016e-02 2.1722479164600372e-01</leafValues></_>
    <_>
      <internalNodes>
        0 -1 60438 -3.7319303373806179e-04</internalNodes>
      <leafValues>
        -2.6480495929718018e-01 7.7894449234008789e-02</leafValues></_>
    <_>
      <internalNodes>
        0 -1 41507 -1.3651743065565825e-03</internalNodes>
      <leafValues>
        2.0638804137706757e-01 -1.0285067558288574e-01</leafValues></_>
    <_>
      <internalNodes>
        0 -1 139263 4.0274113416671753e-03</internalNodes>
      <leafValues>
        5.0112724304199219e-02 -4.1103646159172058e-01</leafValues></_>
    <_>
      <internalNodes>
        0 -1 80848 2.8988062404096127e-03</internalNodes>
      <leafValues>
        -8.8528484106063843e-02 2.2007018327713013e-01</leafValues></_>
    <_>
      <internalNodes>
        0 -1 155038 -7.6720518991351128e-03</internalNodes>
      <leafValues>
        6.5140062570571899e-01 -2.8396451845765114e-02</leafValues></_>
    <_>
      <internalNodes>
        0 -1 143650 -1.5466338023543358e-02</internalNodes>
      <leafValues>
        6.2275540828704834e-01 -2.7837140485644341e-02</leafValues></_>
    <_>
      <internalNodes>
        0 -1 143375 5.8021508157253265e-03</internalNodes>
      <leafValues>
        4.0807805955410004e-02 -5.8025622367858887e-01</leafValues></_>
    <_>
      <internalNodes>
        0 -1 135501 -7.1877022273838520e-03</internalNodes>
      <leafValues>
        4.2829743027687073e-01 -5.0827298313379288e-02</leafValues></_>
    <_>
      <internalNodes>
        0 -1 131835 3.9839716628193855e-03</internalNodes>
      <leafValues>
        5.3273491561412811e-02 -3.8105964660644531e-01</leafValues></_>
    <_>
      <internalNodes>
        0 -1 143064 -1.4180997386574745e-02</internalNodes>
      <leafValues>
        5.6223416328430176e-01 -4.0977824479341507e-02</leafValues></_>
    <_>
      <internalNodes>
        0 -1 81516 -6.2804371118545532e-03</internalNodes>
      <leafValues>
        4.6584630012512207e-01 -3.8819067180156708e-02</leafValues></_>
    <_>
      <internalNodes>
        0 -1 151997 2.6740830391645432e-02</internalNodes>
      <leafValues>
        -1.0889666527509689e-01 1.9359746575355530e-01</leafValues></_>
    <_>
      <internalNodes>
        0 -1 159847 1.1077116429805756e-01</internalNodes>
      <leafValues>
        2.8351400047540665e-02 -7.1478158235549927e-01</leafValues></_>
    <_>
      <internalNodes>
        0 -1 103083 7.6927682384848595e-03</internalNodes>
      <leafValues>
        2.8906051069498062e-02 -5.6599277257919312e-01</leafValues></_>
    <_>
      <internalNodes>
        0 -1 129850 -1.8225575331598520e-03</internalNodes>
      <leafValues>
        4.2164608836174011e-01 -4.7013979405164719e-02</leafValues></_>
    <_>
      <internalNodes>
        0 -1 59228 -9.6710436046123505e-03</internalNodes>
      <leafValues>
        8.0444109439849854e-01 -2.0697670057415962e-02</leafValues></_>
    <_>
      <internalNodes>
        0 -1 79633 -8.8471604976803064e-04</internalNodes>
      <leafValues>
        -2.8845149278640747e-01 7.0774942636489868e-02</leafValues></_>
    <_>
      <internalNodes>
        0 -1 79016 6.1519308947026730e-03</internalNodes>
      <leafValues>
        3.2762411981821060e-02 -5.5800879001617432e-01</leafValues></_>
    <_>
      <internalNodes>
        0 -1 60407 2.7446844615042210e-03</internalNodes>
      <leafValues>
        -7.5300171971321106e-02 2.7166706323623657e-01</leafValues></_>
    <_>
      <internalNodes>
        0 -1 80738 -1.8240050412714481e-03</internalNodes>
      <leafValues>
        1.6453981399536133e-01 -1.1613836884498596e-01</leafValues></_>
    <_>
      <internalNodes>
        0 -1 134689 7.8200213611125946e-03</internalNodes>
      <leafValues>
        4.5202370733022690e-02 -4.1522023081779480e-01</leafValues></_>
    <_>
      <internalNodes>
        0 -1 137098 -1.7289206152781844e-04</internalNodes>
      <leafValues>
        -2.0336133241653442e-01 1.0138973593711853e-01</leafValues></_>
    <_>
      <internalNodes>
        0 -1 121300 -1.4323161449283361e-03</internalNodes>
      <leafValues>
        -3.7648409605026245e-01 4.8981361091136932e-02</leafValues></_>
    <_>
      <internalNodes>
        0 -1 9832 -3.7303534336388111e-03</internalNodes>
      <leafValues>
        -3.6289608478546143e-01 4.5386541634798050e-02</leafValues></_>
    <_>
      <internalNodes>
        0 -1 8856 -1.0242015123367310e-02</internalNodes>
      <leafValues>
        5.8756744861602783e-01 -3.3305045217275620e-02</leafValues></_>
    <_>
      <internalNodes>
        0 -1 132981 -1.7857832834124565e-02</internalNodes>
      <leafValues>
        6.7180800437927246e-01 -2.5010429322719574e-02</leafValues></_>
    <_>
      <internalNodes>
        0 -1 98447 -1.9214100902900100e-03</internalNodes>
      <leafValues>
        1.8559548258781433e-01 -9.6496731042861938e-02</leafValues></_>
    <_>
      <internalNodes>
        0 -1 70724 -1.0574018582701683e-02</internalNodes>
      <leafValues>
        7.8659164905548096e-01 -2.4267373606562614e-02</leafValues></_>
    <_>
      <internalNodes>
        0 -1 42244 1.3509204611182213e-02</internalNodes>
      <leafValues>
        4.2625565081834793e-02 -5.2828603982925415e-01</leafValues></_>
    <_>
      <internalNodes>
        0 -1 128957 6.6452994942665100e-03</internalNodes>
      <leafValues>
        -4.0326908230781555e-02 5.4538714885711670e-01</leafValues></_>
    <_>
      <internalNodes>
        0 -1 70648 2.3458914365619421e-03</internalNodes>
      <leafValues>
        3.8862906396389008e-02 -5.4403370618820190e-01</leafValues></_>
    <_>
      <internalNodes>
        0 -1 153969 -8.4682665765285492e-03</internalNodes>
      <leafValues>
        4.9376204609870911e-01 -4.2378172278404236e-02</leafValues></_>
    <_>
      <internalNodes>
        0 -1 160539 -5.5761181283742189e-04</internalNodes>
      <leafValues>
        -2.9408344626426697e-01 6.8185724318027496e-02</leafValues></_>
    <_>
      <internalNodes>
        0 -1 151906 3.7984387017786503e-03</internalNodes>
      <leafValues>
        4.0457416325807571e-02 -4.4685894250869751e-01</leafValues></_>
    <_>
      <internalNodes>
        0 -1 48892 -5.9123965911567211e-03</internalNodes>
      <leafValues>
        2.7710062265396118e-01 -6.9274723529815674e-02</leafValues></_>
    <_>
      <internalNodes>
        0 -1 147786 -8.4457416087388992e-03</internalNodes>
      <leafValues>
        2.1030355989933014e-01 -8.9460283517837524e-02</leafValues></_>
    <_>
      <internalNodes>
        0 -1 143461 -2.2505838423967361e-03</internalNodes>
      <leafValues>
        -3.4231463074684143e-01 5.9123896062374115e-02</leafValues></_>
    <_>
      <internalNodes>
        0 -1 23754 5.2285678684711456e-03</internalNodes>
      <leafValues>
        2.7332393452525139e-02 -6.2958592176437378e-01</leafValues></_>
    <_>
      <internalNodes>
        0 -1 37199 -1.5784967690706253e-03</internalNodes>
      <leafValues>
        7.0896673202514648e-01 -2.7877900749444962e-02</leafValues></_>
    <_>
      <internalNodes>
        0 -1 85783 -2.1370916510932148e-04</internalNodes>
      <leafValues>
        -1.9721905887126923e-01 1.0092685371637344e-01</leafValues></_>
    <_>
      <internalNodes>
        0 -1 119302 -1.3781122106593102e-04</internalNodes>
      <leafValues>
        -2.3363050818443298e-01 7.8169256448745728e-02</leafValues></_>
    <_>
      <internalNodes>
        0 -1 93123 -1.0114026255905628e-02</internalNodes>
      <leafValues>
        5.7267606258392334e-01 -3.7672691047191620e-02</leafValues></_>
    <_>
      <internalNodes>
        0 -1 129025 3.1053822021931410e-04</internalNodes>
      <leafValues>
        -1.0222577303647995e-01 1.7134021222591400e-01</leafValues></_>
    <_>
      <internalNodes>
        0 -1 101466 1.5286502894014120e-03</internalNodes>
      <leafValues>
        -1.4806096255779266e-01 1.5061104297637939e-01</leafValues></_>
    <_>
      <internalNodes>
        0 -1 144205 -5.7254787534475327e-03</internalNodes>
      <leafValues>
        2.5000238418579102e-01 -7.8997418284416199e-02</leafValues></_>
    <_>
      <internalNodes>
        0 -1 49811 -5.8823917061090469e-02</internalNodes>
      <leafValues>
        -7.9776841402053833e-01 2.7070824056863785e-02</leafValues></_>
    <_>
      <internalNodes>
        0 -1 58162 -1.8938701599836349e-02</internalNodes>
      <leafValues>
        7.4529647827148438e-01 -3.1252052634954453e-02</leafValues></_>
    <_>
      <internalNodes>
        0 -1 78265 -6.1479094438254833e-04</internalNodes>
      <leafValues>
        -2.8017222881317139e-01 7.6319381594657898e-02</leafValues></_>
    <_>
      <internalNodes>
        0 -1 76968 -1.3456362648867071e-04</internalNodes>
      <leafValues>
        -1.9006350636482239e-01 1.1047978699207306e-01</leafValues></_></weakClassifiers></stage15>
</opencv_storage>
