<?xml version="1.0"?>
<opencv_storage>
<stage11>
  <maxWeakCount>7</maxWeakCount>
  <stageThreshold>-1.7532161474227905e+00</stageThreshold>
  <weakClassifiers>
    <_>
      <internalNodes>
        0 -1 14796 1037908863 -3077899 -594472625 -44214019 -1163037697
        -7763752 2056817599 -1096807576</internalNodes>
      <leafValues>
        -6.3661581277847290e-01 3.4052386879920959e-01</leafValues></_>
    <_>
      <internalNodes>
        0 -1 10947 391872509 -672839441 559074731 1872093599 -108414274
        -113704776 1912691095 265584224</internalNodes>
      <leafValues>
        -5.6796699762344360e-01 4.0823304653167725e-01</leafValues></_>
    <_>
      <internalNodes>
        0 -1 1972 1772848430 -327553 -615636514 -273245946 -903815939
        -645295996 -632778963 800788411</internalNodes>
      <leafValues>
        -7.5172203779220581e-01 3.1363227963447571e-01</leafValues></_>
    <_>
      <internalNodes>
        0 -1 12330 1564434427 -81 1039073263 1066265597 1878390525
        -134752321 -8520001 257751020</internalNodes>
      <leafValues>
        -4.3080100417137146e-01 5.5973052978515625e-01</leafValues></_>
    <_>
      <internalNodes>
        0 -1 11516 997275389 -1082146819 1073676287 -513 -536887297 -1
        2147151742 -1107810056</internalNodes>
      <leafValues>
        -4.2888844013214111e-01 6.1132323741912842e-01</leafValues></_>
    <_>
      <internalNodes>
        0 -1 8948 1025089501 -577155041 1493736763 2064748703 -645154489
        -1414952797 -846720134 455121576</internalNodes>
      <leafValues>
        -4.8879608511924744e-01 5.3131765127182007e-01</leafValues></_>
    <_>
      <internalNodes>
        0 -1 14265 996487611 -543194931 -922683951 1591050335
        -1156318469 -792196991 -376860005 790110460</internalNodes>
      <leafValues>
        -6.0733628273010254e-01 4.8621985316276550e-01</leafValues></_></weakClassifiers></stage11>
</opencv_storage>
