<?xml version="1.0"?>
<opencv_storage>
<stage15>
  <maxWeakCount>100</maxWeakCount>
  <stageThreshold>-2.4691514968872070e+00</stageThreshold>
  <weakClassifiers>
    <_>
      <internalNodes>
        0 -1 134071 2.5542851537466049e-02</internalNodes>
      <leafValues>
        -5.1913273334503174e-01 -3.7511747330427170e-02</leafValues></_>
    <_>
      <internalNodes>
        0 -1 97798 2.1103017032146454e-02</internalNodes>
      <leafValues>
        -2.5132834911346436e-01 2.2278296947479248e-01</leafValues></_>
    <_>
      <internalNodes>
        0 -1 53099 2.0814411342144012e-02</internalNodes>
      <leafValues>
        -1.4903122186660767e-01 2.8257861733436584e-01</leafValues></_>
    <_>
      <internalNodes>
        0 -1 119731 -6.1719022691249847e-02</internalNodes>
      <leafValues>
        4.2718482017517090e-01 -7.0217296481132507e-02</leafValues></_>
    <_>
      <internalNodes>
        0 -1 7635 -1.7831481993198395e-02</internalNodes>
      <leafValues>
        1.7000575363636017e-01 -1.8299777805805206e-01</leafValues></_>
    <_>
      <internalNodes>
        0 -1 45039 9.2471800744533539e-03</internalNodes>
      <leafValues>
        -1.3395503163337708e-02 4.5992922782897949e-01</leafValues></_>
    <_>
      <internalNodes>
        0 -1 153792 1.7492738552391529e-03</internalNodes>
      <leafValues>
        1.7312770709395409e-02 -6.7800372838973999e-01</leafValues></_>
    <_>
      <internalNodes>
        0 -1 113775 4.0966253727674484e-03</internalNodes>
      <leafValues>
        3.9756424725055695e-02 -6.3389271497726440e-01</leafValues></_>
    <_>
      <internalNodes>
        0 -1 114444 -3.8858074694871902e-03</internalNodes>
      <leafValues>
        -5.2877748012542725e-01 4.5798711478710175e-02</leafValues></_>
    <_>
      <internalNodes>
        0 -1 50285 -9.4449944794178009e-02</internalNodes>
      <leafValues>
        5.0382417440414429e-01 -7.6541021466255188e-02</leafValues></_>
    <_>
      <internalNodes>
        0 -1 135740 -2.7280546724796295e-02</internalNodes>
      <leafValues>
        1.9470430910587311e-01 -1.3960835337638855e-01</leafValues></_>
    <_>
      <internalNodes>
        0 -1 149818 2.9008798301219940e-03</internalNodes>
      <leafValues>
        7.1943469345569611e-02 -4.5009768009185791e-01</leafValues></_>
    <_>
      <internalNodes>
        0 -1 130678 2.0207006484270096e-02</internalNodes>
      <leafValues>
        -8.8083073496818542e-02 2.6407524943351746e-01</leafValues></_>
    <_>
      <internalNodes>
        0 -1 137480 2.1817903965711594e-02</internalNodes>
      <leafValues>
        -8.1438317894935608e-02 2.9895427823066711e-01</leafValues></_>
    <_>
      <internalNodes>
        0 -1 68471 4.5470807701349258e-02</internalNodes>
      <leafValues>
        -1.0674913972616196e-01 2.2762188315391541e-01</leafValues></_>
    <_>
      <internalNodes>
        0 -1 96269 -1.1884248256683350e-01</internalNodes>
      <leafValues>
        5.0221663713455200e-01 -4.0295921266078949e-02</leafValues></_>
    <_>
      <internalNodes>
        0 -1 62740 -1.8753398954868317e-01</internalNodes>
      <leafValues>
        4.7747588157653809e-01 -4.8121478408575058e-02</leafValues></_>
    <_>
      <internalNodes>
        0 -1 151650 4.6548172831535339e-03</internalNodes>
      <leafValues>
        4.1278373450040817e-02 -5.6219059228897095e-01</leafValues></_>
    <_>
      <internalNodes>
        0 -1 61208 2.9859144240617752e-02</internalNodes>
      <leafValues>
        -7.1621574461460114e-02 3.2964044809341431e-01</leafValues></_>
    <_>
      <internalNodes>
        0 -1 115001 2.5815539993345737e-03</internalNodes>
      <leafValues>
        3.7971541285514832e-02 -5.9183800220489502e-01</leafValues></_>
    <_>
      <internalNodes>
        0 -1 5035 -2.9862103983759880e-03</internalNodes>
      <leafValues>
        -3.6647310853004456e-01 5.3840678185224533e-02</leafValues></_>
    <_>
      <internalNodes>
        0 -1 89258 3.0130743980407715e-03</internalNodes>
      <leafValues>
        3.7153284996747971e-02 -5.4100894927978516e-01</leafValues></_>
    <_>
      <internalNodes>
        0 -1 98090 1.8248487031087279e-03</internalNodes>
      <leafValues>
        2.7015782892704010e-02 -6.5403795242309570e-01</leafValues></_>
    <_>
      <internalNodes>
        0 -1 41882 6.0244374908506870e-03</internalNodes>
      <leafValues>
        2.9878266155719757e-02 -5.8026051521301270e-01</leafValues></_>
    <_>
      <internalNodes>
        0 -1 159764 -3.7145027890801430e-03</internalNodes>
      <leafValues>
        -5.6077343225479126e-01 3.1051868572831154e-02</leafValues></_>
    <_>
      <internalNodes>
        0 -1 5096 1.3658693060278893e-02</internalNodes>
      <leafValues>
        -7.0351280272006989e-02 2.8621011972427368e-01</leafValues></_>
    <_>
      <internalNodes>
        0 -1 10188 -1.5608476474881172e-02</internalNodes>
      <leafValues>
        1.2815569341182709e-01 -1.7001600563526154e-01</leafValues></_>
    <_>
      <internalNodes>
        0 -1 10358 -7.7167199924588203e-03</internalNodes>
      <leafValues>
        -8.9589816331863403e-01 2.3662200197577477e-02</leafValues></_>
    <_>
      <internalNodes>
        0 -1 58902 5.3157592192292213e-03</internalNodes>
      <leafValues>
        3.2926335930824280e-02 -4.9323642253875732e-01</leafValues></_>
    <_>
      <internalNodes>
        0 -1 159864 2.0096846856176853e-03</internalNodes>
      <leafValues>
        2.9047464951872826e-02 -5.8116304874420166e-01</leafValues></_>
    <_>
      <internalNodes>
        0 -1 11064 5.9328749775886536e-03</internalNodes>
      <leafValues>
        2.2841250523924828e-02 -6.8972992897033691e-01</leafValues></_>
    <_>
      <internalNodes>
        0 -1 6007 -8.5428580641746521e-02</internalNodes>
      <leafValues>
        4.4413468241691589e-01 -5.1208712160587311e-02</leafValues></_>
    <_>
      <internalNodes>
        0 -1 39875 -1.1545938439667225e-02</internalNodes>
      <leafValues>
        -6.4362865686416626e-01 3.3601462841033936e-02</leafValues></_>
    <_>
      <internalNodes>
        0 -1 32398 4.9866437911987305e-03</internalNodes>
      <leafValues>
        3.9439864456653595e-02 -4.1788828372955322e-01</leafValues></_>
    <_>
      <internalNodes>
        0 -1 4064 1.3344042003154755e-02</internalNodes>
      <leafValues>
        2.3093430325388908e-02 -7.2732722759246826e-01</leafValues></_>
    <_>
      <internalNodes>
        0 -1 38851 -3.7300586700439453e-02</internalNodes>
      <leafValues>
        5.3848677873611450e-01 -3.8828421384096146e-02</leafValues></_>
    <_>
      <internalNodes>
        0 -1 98721 -1.4517001807689667e-02</internalNodes>
      <leafValues>
        -9.3976312875747681e-01 2.3889912292361259e-02</leafValues></_>
    <_>
      <internalNodes>
        0 -1 100031 -5.8602429926395416e-03</internalNodes>
      <leafValues>
        1.5386950969696045e-01 -1.2231903523206711e-01</leafValues></_>
    <_>
      <internalNodes>
        0 -1 134649 2.8700588736683130e-03</internalNodes>
      <leafValues>
        3.9248555898666382e-02 -4.8778718709945679e-01</leafValues></_>
    <_>
      <internalNodes>
        0 -1 149604 5.5821631103754044e-03</internalNodes>
      <leafValues>
        2.1773219108581543e-02 -6.8176889419555664e-01</leafValues></_>
    <_>
      <internalNodes>
        0 -1 141782 8.2913517951965332e-02</internalNodes>
      <leafValues>
        -5.4314590990543365e-02 3.5379242897033691e-01</leafValues></_>
    <_>
      <internalNodes>
        0 -1 154772 3.4937304444611073e-03</internalNodes>
      <leafValues>
        3.5636067390441895e-02 -6.7499786615371704e-01</leafValues></_>
    <_>
      <internalNodes>
        0 -1 152089 5.2524700760841370e-02</internalNodes>
      <leafValues>
        -6.6269941627979279e-02 3.5107266902923584e-01</leafValues></_>
    <_>
      <internalNodes>
        0 -1 160763 2.0570140331983566e-03</internalNodes>
      <leafValues>
        3.3256154507398605e-02 -5.8790814876556396e-01</leafValues></_>
    <_>
      <internalNodes>
        0 -1 113429 -3.8804553449153900e-02</internalNodes>
      <leafValues>
        4.0432101488113403e-01 -5.0148807466030121e-02</leafValues></_>
    <_>
      <internalNodes>
        0 -1 67146 -1.7745968699455261e-01</internalNodes>
      <leafValues>
        4.0269356966018677e-01 -4.5443262904882431e-02</leafValues></_>
    <_>
      <internalNodes>
        0 -1 47808 -1.1559417471289635e-02</internalNodes>
      <leafValues>
        -5.2721583843231201e-01 3.6179341375827789e-02</leafValues></_>
    <_>
      <internalNodes>
        0 -1 114320 4.0387413464486599e-03</internalNodes>
      <leafValues>
        2.7128402143716812e-02 -6.4317876100540161e-01</leafValues></_>
    <_>
      <internalNodes>
        0 -1 159360 7.9017999814823270e-04</internalNodes>
      <leafValues>
        2.9351295903325081e-02 -5.5115056037902832e-01</leafValues></_>
    <_>
      <internalNodes>
        0 -1 42324 1.6431476688012481e-03</internalNodes>
      <leafValues>
        3.1581573188304901e-02 -5.1019698381423950e-01</leafValues></_>
    <_>
      <internalNodes>
        0 -1 3081 4.5380793511867523e-02</internalNodes>
      <leafValues>
        -4.6104934066534042e-02 4.1136065125465393e-01</leafValues></_>
    <_>
      <internalNodes>
        0 -1 74975 1.4063990674912930e-02</internalNodes>
      <leafValues>
        -8.7291367352008820e-02 1.9985097646713257e-01</leafValues></_>
    <_>
      <internalNodes>
        0 -1 131731 3.3827943261712790e-03</internalNodes>
      <leafValues>
        3.2875750213861465e-02 -5.2128058671951294e-01</leafValues></_>
    <_>
      <internalNodes>
        0 -1 36423 -4.4413814321160316e-03</internalNodes>
      <leafValues>
        -5.2497684955596924e-01 2.8864257037639618e-02</leafValues></_>
    <_>
      <internalNodes>
        0 -1 13366 -4.1068606078624725e-03</internalNodes>
      <leafValues>
        2.4975846707820892e-01 -7.1934998035430908e-02</leafValues></_>
    <_>
      <internalNodes>
        0 -1 11603 2.3480029776692390e-03</internalNodes>
      <leafValues>
        3.9186570793390274e-02 -4.3466871976852417e-01</leafValues></_>
    <_>
      <internalNodes>
        0 -1 22802 -4.8997409641742706e-02</internalNodes>
      <leafValues>
        3.0534985661506653e-01 -5.9433154761791229e-02</leafValues></_>
    <_>
      <internalNodes>
        0 -1 57725 4.8797619529068470e-03</internalNodes>
      <leafValues>
        -8.2411557435989380e-02 2.1740512549877167e-01</leafValues></_>
    <_>
      <internalNodes>
        0 -1 78261 4.5856451615691185e-03</internalNodes>
      <leafValues>
        4.3139349669218063e-02 -4.5768398046493530e-01</leafValues></_>
    <_>
      <internalNodes>
        0 -1 73829 -1.4877163805067539e-02</internalNodes>
      <leafValues>
        -7.6272106170654297e-01 1.8256044015288353e-02</leafValues></_>
    <_>
      <internalNodes>
        0 -1 137501 2.3644703906029463e-03</internalNodes>
      <leafValues>
        3.7772033363580704e-02 -4.0547955036163330e-01</leafValues></_>
    <_>
      <internalNodes>
        0 -1 48955 -3.4987635910511017e-02</internalNodes>
      <leafValues>
        4.7189125418663025e-01 -3.8264483213424683e-02</leafValues></_>
    <_>
      <internalNodes>
        0 -1 151594 5.1840627565979958e-03</internalNodes>
      <leafValues>
        3.0366033315658569e-02 -6.1297625303268433e-01</leafValues></_>
    <_>
      <internalNodes>
        0 -1 146700 -4.3143622577190399e-02</internalNodes>
      <leafValues>
        4.2553701996803284e-01 -4.6509858220815659e-02</leafValues></_>
    <_>
      <internalNodes>
        0 -1 103471 1.2129608541727066e-02</internalNodes>
      <leafValues>
        -1.0091422498226166e-01 2.0097225904464722e-01</leafValues></_>
    <_>
      <internalNodes>
        0 -1 143264 5.1553859375417233e-03</internalNodes>
      <leafValues>
        -1.1400020122528076e-01 1.9112867116928101e-01</leafValues></_>
    <_>
      <internalNodes>
        0 -1 160890 -1.3462963979691267e-03</internalNodes>
      <leafValues>
        -3.9414829015731812e-01 4.8316821455955505e-02</leafValues></_>
    <_>
      <internalNodes>
        0 -1 153445 -2.4125881493091583e-02</internalNodes>
      <leafValues>
        4.4958412647247314e-01 -4.8222299665212631e-02</leafValues></_>
    <_>
      <internalNodes>
        0 -1 142747 3.5105005372315645e-03</internalNodes>
      <leafValues>
        3.5257697105407715e-02 -6.2028467655181885e-01</leafValues></_>
    <_>
      <internalNodes>
        0 -1 96777 8.8526308536529541e-03</internalNodes>
      <leafValues>
        1.6800520941615105e-02 -8.2425808906555176e-01</leafValues></_>
    <_>
      <internalNodes>
        0 -1 71581 4.3824594467878342e-03</internalNodes>
      <leafValues>
        2.3015053942799568e-02 -5.7227987051010132e-01</leafValues></_>
    <_>
      <internalNodes>
        0 -1 66265 -7.7466562390327454e-02</internalNodes>
      <leafValues>
        3.9429610967636108e-01 -4.8184994608163834e-02</leafValues></_>
    <_>
      <internalNodes>
        0 -1 125443 6.6874036565423012e-03</internalNodes>
      <leafValues>
        2.3771692067384720e-02 -8.4662371873855591e-01</leafValues></_>
    <_>
      <internalNodes>
        0 -1 118290 7.3763439431786537e-03</internalNodes>
      <leafValues>
        2.4686448276042938e-02 -5.3243547677993774e-01</leafValues></_>
    <_>
      <internalNodes>
        0 -1 101413 -1.8815878778696060e-02</internalNodes>
      <leafValues>
        2.5355654954910278e-01 -7.1313753724098206e-02</leafValues></_>
    <_>
      <internalNodes>
        0 -1 58625 1.5890413895249367e-02</internalNodes>
      <leafValues>
        -1.0770087689161301e-01 1.7663660645484924e-01</leafValues></_>
    <_>
      <internalNodes>
        0 -1 65435 -9.4388872385025024e-02</internalNodes>
      <leafValues>
        4.5786851644515991e-01 -3.7581257522106171e-02</leafValues></_>
    <_>
      <internalNodes>
        0 -1 117772 6.3350573182106018e-03</internalNodes>
      <leafValues>
        3.0098982155323029e-02 -6.7541593313217163e-01</leafValues></_>
    <_>
      <internalNodes>
        0 -1 25608 4.6631257282570004e-04</internalNodes>
      <leafValues>
        3.7711471319198608e-02 -3.8041415810585022e-01</leafValues></_>
    <_>
      <internalNodes>
        0 -1 34137 -5.2634831517934799e-03</internalNodes>
      <leafValues>
        -5.2805858850479126e-01 2.9697535559535027e-02</leafValues></_>
    <_>
      <internalNodes>
        0 -1 104768 5.2926042117178440e-03</internalNodes>
      <leafValues>
        1.7022751271724701e-02 -7.9151260852813721e-01</leafValues></_>
    <_>
      <internalNodes>
        0 -1 1103 7.2115528583526611e-01</internalNodes>
      <leafValues>
        2.0103832706809044e-02 -6.6697198152542114e-01</leafValues></_>
    <_>
      <internalNodes>
        0 -1 138900 3.0648568645119667e-03</internalNodes>
      <leafValues>
        2.9984882101416588e-02 -4.9255490303039551e-01</leafValues></_>
    <_>
      <internalNodes>
        0 -1 157757 -1.2082008179277182e-03</internalNodes>
      <leafValues>
        -3.0779549479484558e-01 4.8081383109092712e-02</leafValues></_>
    <_>
      <internalNodes>
        0 -1 159770 4.5313327573239803e-03</internalNodes>
      <leafValues>
        -1.0887155681848526e-01 1.6013054549694061e-01</leafValues></_>
    <_>
      <internalNodes>
        0 -1 159833 1.6606332501396537e-03</internalNodes>
      <leafValues>
        3.6584466695785522e-02 -4.6887591481208801e-01</leafValues></_>
    <_>
      <internalNodes>
        0 -1 140850 -1.7096009105443954e-02</internalNodes>
      <leafValues>
        3.2063895463943481e-01 -5.6165531277656555e-02</leafValues></_>
    <_>
      <internalNodes>
        0 -1 131256 1.0204363614320755e-02</internalNodes>
      <leafValues>
        2.5812106207013130e-02 -6.9767582416534424e-01</leafValues></_>
    <_>
      <internalNodes>
        0 -1 141647 -2.4229058995842934e-02</internalNodes>
      <leafValues>
        3.4506040811538696e-01 -5.1968965679407120e-02</leafValues></_>
    <_>
      <internalNodes>
        0 -1 143770 3.2713133841753006e-03</internalNodes>
      <leafValues>
        2.5632584467530251e-02 -6.9367939233779907e-01</leafValues></_>
    <_>
      <internalNodes>
        0 -1 40741 1.6998182982206345e-03</internalNodes>
      <leafValues>
        2.1179530769586563e-02 -6.5278989076614380e-01</leafValues></_>
    <_>
      <internalNodes>
        0 -1 118705 1.0051958262920380e-02</internalNodes>
      <leafValues>
        -7.3636606335639954e-02 2.3173718154430389e-01</leafValues></_>
    <_>
      <internalNodes>
        0 -1 131910 1.4711337164044380e-02</internalNodes>
      <leafValues>
        -8.5111744701862335e-02 2.0668901503086090e-01</leafValues></_>
    <_>
      <internalNodes>
        0 -1 38482 3.7109792232513428e-02</internalNodes>
      <leafValues>
        -7.8846313059329987e-02 2.2773562371730804e-01</leafValues></_>
    <_>
      <internalNodes>
        0 -1 143489 4.5868442393839359e-03</internalNodes>
      <leafValues>
        3.3141683787107468e-02 -5.4098528623580933e-01</leafValues></_>
    <_>
      <internalNodes>
        0 -1 105646 -1.7933556810021400e-03</internalNodes>
      <leafValues>
        2.6801258325576782e-01 -6.3534200191497803e-02</leafValues></_>
    <_>
      <internalNodes>
        0 -1 47960 -8.5772527381777763e-03</internalNodes>
      <leafValues>
        1.4591403305530548e-01 -1.2198598682880402e-01</leafValues></_>
    <_>
      <internalNodes>
        0 -1 48953 -1.1290217749774456e-02</internalNodes>
      <leafValues>
        -6.0133862495422363e-01 2.6617122814059258e-02</leafValues></_>
    <_>
      <internalNodes>
        0 -1 161861 1.7594655510038137e-03</internalNodes>
      <leafValues>
        2.4281114339828491e-02 -5.8680105209350586e-01</leafValues></_>
    <_>
      <internalNodes>
        0 -1 144460 1.5068475157022476e-02</internalNodes>
      <leafValues>
        1.8849886953830719e-02 -7.0957636833190918e-01</leafValues></_></weakClassifiers></stage15>
</opencv_storage>
