<?xml version="1.0"?>
<opencv_storage>
<stage2>
  <maxWeakCount>7</maxWeakCount>
  <stageThreshold>-1.1915835142135620e+00</stageThreshold>
  <weakClassifiers>
    <_>
      <internalNodes>
        0 -1 56739 1.4143939316272736e-01</internalNodes>
      <leafValues>
        -6.5393990278244019e-01 6.5829145908355713e-01</leafValues></_>
    <_>
      <internalNodes>
        0 -1 9096 9.9564589560031891e-02</internalNodes>
      <leafValues>
        -4.5576038956642151e-01 6.6306799650192261e-01</leafValues></_>
    <_>
      <internalNodes>
        0 -1 188761 -8.4257370326668024e-04</internalNodes>
      <leafValues>
        -8.1016951799392700e-01 2.4276201426982880e-01</leafValues></_>
    <_>
      <internalNodes>
        0 -1 181101 -1.8463730812072754e-03</internalNodes>
      <leafValues>
        -7.2766667604446411e-01 2.2435456514358521e-01</leafValues></_>
    <_>
      <internalNodes>
        0 -1 168313 -2.2810869850218296e-03</internalNodes>
      <leafValues>
        -8.3633488416671753e-01 1.5881681442260742e-01</leafValues></_>
    <_>
      <internalNodes>
        0 -1 165081 1.0553868487477303e-03</internalNodes>
      <leafValues>
        2.2156389057636261e-01 -9.0684127807617188e-01</leafValues></_>
    <_>
      <internalNodes>
        0 -1 38499 -9.7362033557146788e-04</internalNodes>
      <leafValues>
        -8.0623465776443481e-01 1.9902455806732178e-01</leafValues></_></weakClassifiers></stage2>
</opencv_storage>
