<?xml version="1.0"?>
<opencv_storage>
<stage7>
  <maxWeakCount>10</maxWeakCount>
  <stageThreshold>-1.2934384346008301e+00</stageThreshold>
  <weakClassifiers>
    <_>
      <internalNodes>
        0 -1 17895 -19423875 -2230369 -942812161 -1359021793 -855777569
        -21797 -352387092 -1166999625</internalNodes>
      <leafValues>
        -6.4853554964065552e-01 2.6140350103378296e-01</leafValues></_>
    <_>
      <internalNodes>
        0 -1 13218 793194303 -1367871105 -539898883 -286075939
        1836672855 -1950631697 -611582735 -117638284</internalNodes>
      <leafValues>
        -6.1096012592315674e-01 3.3460113406181335e-01</leafValues></_>
    <_>
      <internalNodes>
        0 -1 19963 803945439 -1479908457 -104743473 -285935217
        -643148929 -1080444519 -853829163 -857875475</internalNodes>
      <leafValues>
        -5.0479787588119507e-01 4.1427245736122131e-01</leafValues></_>
    <_>
      <internalNodes>
        0 -1 12169 753350439 -1342450793 -444344369 -287387145
        -1076158661 -1383102261 66807665 955520693</internalNodes>
      <leafValues>
        -6.6959911584854126e-01 3.0648931860923767e-01</leafValues></_>
    <_>
      <internalNodes>
        0 -1 19186 -1375786121 802936126 1461266813 -995167834
        1220230003 1875817118 1474031845 1828642244</internalNodes>
      <leafValues>
        -6.3582855463027954e-01 3.4726616740226746e-01</leafValues></_>
    <_>
      <internalNodes>
        0 -1 2540 989809407 1073208671 -1874144865 1945327283 1608739916
        2132754415 -105401737 997671803</internalNodes>
      <leafValues>
        -5.6653606891632080e-01 4.0563344955444336e-01</leafValues></_>
    <_>
      <internalNodes>
        0 -1 19999 797406131 767149023 -1051607057 -1250377 -614205065
        -1464081997 -879912667 -55669811</internalNodes>
      <leafValues>
        -4.8091781139373779e-01 4.8859182000160217e-01</leafValues></_>
    <_>
      <internalNodes>
        0 -1 17638 184236863 -1375733249 -1056874529 -958606945
        2076127093 1386621137 -604117339 1927715572</internalNodes>
      <leafValues>
        -6.4237362146377563e-01 3.9038050174713135e-01</leafValues></_>
    <_>
      <internalNodes>
        0 -1 14511 782178687 -470295641 444814303 -703031817 -258788515
        -56776565 -1719075503 1552158240</internalNodes>
      <leafValues>
        -6.5567511320114136e-01 3.3922296762466431e-01</leafValues></_>
    <_>
      <internalNodes>
        0 -1 3554 -1493222497 -1584459567 -1849464431 -320875874
        730491775 1095436378 -276678811 1288759989</internalNodes>
      <leafValues>
        -6.4380127191543579e-01 3.6811155080795288e-01</leafValues></_></weakClassifiers></stage7>
</opencv_storage>
