<?xml version="1.0"?>
<opencv_storage>
<stage18>
  <maxWeakCount>31</maxWeakCount>
  <stageThreshold>-1.6305946111679077e+00</stageThreshold>
  <weakClassifiers>
    <_>
      <internalNodes>
        0 -1 36273 -1.9418396987020969e-03</internalNodes>
      <leafValues>
        1.4736842364072800e-02 -5.4889178276062012e-01</leafValues></_>
    <_>
      <internalNodes>
        0 -1 359090 2.4091123486869037e-04</internalNodes>
      <leafValues>
        9.2384442687034607e-02 -4.5451003313064575e-01</leafValues></_>
    <_>
      <internalNodes>
        0 -1 235922 4.7276285476982594e-04</internalNodes>
      <leafValues>
        1.1441021412611008e-01 -4.4715505838394165e-01</leafValues></_>
    <_>
      <internalNodes>
        0 -1 22553 1.4865642413496971e-02</internalNodes>
      <leafValues>
        9.9567934870719910e-02 -5.8481752872467041e-01</leafValues></_>
    <_>
      <internalNodes>
        0 -1 21639 -1.3807987794280052e-02</internalNodes>
      <leafValues>
        -8.0771285295486450e-01 1.0399615019559860e-01</leafValues></_>
    <_>
      <internalNodes>
        0 -1 22891 1.5303344465792179e-02</internalNodes>
      <leafValues>
        -2.3672805726528168e-01 2.9115098714828491e-01</leafValues></_>
    <_>
      <internalNodes>
        0 -1 201719 1.5549222007393837e-02</internalNodes>
      <leafValues>
        -1.6443954408168793e-01 3.8563671708106995e-01</leafValues></_>
    <_>
      <internalNodes>
        0 -1 282061 -2.5683565065264702e-02</internalNodes>
      <leafValues>
        6.3395702838897705e-01 -1.0481649637222290e-01</leafValues></_>
    <_>
      <internalNodes>
        0 -1 392918 -5.1257549785077572e-05</internalNodes>
      <leafValues>
        -4.2055153846740723e-01 1.4368666708469391e-01</leafValues></_>
    <_>
      <internalNodes>
        0 -1 392918 4.6771416236879304e-05</internalNodes>
      <leafValues>
        1.8182340264320374e-01 -4.5234915614128113e-01</leafValues></_>
    <_>
      <internalNodes>
        0 -1 98125 1.5827277093194425e-04</internalNodes>
      <leafValues>
        1.2796381115913391e-01 -4.3541097640991211e-01</leafValues></_>
    <_>
      <internalNodes>
        0 -1 201432 -3.8408447057008743e-02</internalNodes>
      <leafValues>
        3.3903217315673828e-01 -1.6672760248184204e-01</leafValues></_>
    <_>
      <internalNodes>
        0 -1 165070 1.0886861011385918e-02</internalNodes>
      <leafValues>
        8.2889266312122345e-02 -8.7630188465118408e-01</leafValues></_>
    <_>
      <internalNodes>
        0 -1 266867 -1.1161372822243720e-04</internalNodes>
      <leafValues>
        -4.3146392703056335e-01 1.0690436512231827e-01</leafValues></_>
    <_>
      <internalNodes>
        0 -1 301954 4.2209904640913010e-03</internalNodes>
      <leafValues>
        7.3590241372585297e-02 -7.1157848834991455e-01</leafValues></_>
    <_>
      <internalNodes>
        0 -1 297956 -1.0550748556852341e-02</internalNodes>
      <leafValues>
        -8.0913037061691284e-01 5.8145493268966675e-02</leafValues></_>
    <_>
      <internalNodes>
        0 -1 60994 -1.6547688841819763e-01</internalNodes>
      <leafValues>
        6.8141901493072510e-01 -9.6472308039665222e-02</leafValues></_>
    <_>
      <internalNodes>
        0 -1 97789 -3.9994109101826325e-05</internalNodes>
      <leafValues>
        -3.2879316806793213e-01 1.7945711314678192e-01</leafValues></_>
    <_>
      <internalNodes>
        0 -1 372491 -3.0933340894989669e-04</internalNodes>
      <leafValues>
        -3.2439309358596802e-01 1.5773665904998779e-01</leafValues></_>
    <_>
      <internalNodes>
        0 -1 125768 1.0072552599012852e-02</internalNodes>
      <leafValues>
        -2.0092462003231049e-01 2.9332551360130310e-01</leafValues></_>
    <_>
      <internalNodes>
        0 -1 349558 -6.8662781268358231e-04</internalNodes>
      <leafValues>
        -3.2903432846069336e-01 1.8531110882759094e-01</leafValues></_>
    <_>
      <internalNodes>
        0 -1 69616 1.7351415590383112e-04</internalNodes>
      <leafValues>
        1.3117456436157227e-01 -3.7213432788848877e-01</leafValues></_>
    <_>
      <internalNodes>
        0 -1 67945 -1.2995619908906519e-04</internalNodes>
      <leafValues>
        -4.7932261228561401e-01 9.5620281994342804e-02</leafValues></_>
    <_>
      <internalNodes>
        0 -1 29933 -8.2557484507560730e-02</internalNodes>
      <leafValues>
        4.0542557835578918e-01 -1.4058512449264526e-01</leafValues></_>
    <_>
      <internalNodes>
        0 -1 235843 1.5288696158677340e-03</internalNodes>
      <leafValues>
        -1.9593815505504608e-01 3.0554512143135071e-01</leafValues></_>
    <_>
      <internalNodes>
        0 -1 269425 7.6973251998424530e-04</internalNodes>
      <leafValues>
        1.2202282249927521e-01 -4.5288404822349548e-01</leafValues></_>
    <_>
      <internalNodes>
        0 -1 331487 1.9958100165240467e-04</internalNodes>
      <leafValues>
        1.0018654167652130e-01 -4.7764420509338379e-01</leafValues></_>
    <_>
      <internalNodes>
        0 -1 339307 -6.9696549326181412e-04</internalNodes>
      <leafValues>
        -3.7106248736381531e-01 1.3532580435276031e-01</leafValues></_>
    <_>
      <internalNodes>
        0 -1 11423 1.1817887425422668e-02</internalNodes>
      <leafValues>
        5.9032876044511795e-02 -8.2416814565658569e-01</leafValues></_>
    <_>
      <internalNodes>
        0 -1 17459 4.7747188806533813e-01</internalNodes>
      <leafValues>
        4.2192839086055756e-02 -8.6185306310653687e-01</leafValues></_>
    <_>
      <internalNodes>
        0 -1 99163 -9.3306265771389008e-02</internalNodes>
      <leafValues>
        -5.4826152324676514e-01 8.2861110568046570e-02</leafValues></_></weakClassifiers></stage18>
</opencv_storage>
