<?xml version="1.0"?>
<opencv_storage>
<stage8>
  <maxWeakCount>18</maxWeakCount>
  <stageThreshold>-1.7870355844497681e+00</stageThreshold>
  <weakClassifiers>
    <_>
      <internalNodes>
        0 -1 13645 5.5506639182567596e-02</internalNodes>
      <leafValues>
        -4.9902725219726562e-01 4.6261683106422424e-01</leafValues></_>
    <_>
      <internalNodes>
        0 -1 3714 -5.3439591079950333e-02</internalNodes>
      <leafValues>
        5.2707189321517944e-01 -2.7511554956436157e-01</leafValues></_>
    <_>
      <internalNodes>
        0 -1 284007 1.0864598676562309e-02</internalNodes>
      <leafValues>
        -2.1701076626777649e-01 5.3831911087036133e-01</leafValues></_>
    <_>
      <internalNodes>
        0 -1 40790 6.2885996885597706e-04</internalNodes>
      <leafValues>
        2.0687015354633331e-01 -6.0705059766769409e-01</leafValues></_>
    <_>
      <internalNodes>
        0 -1 41781 -9.6739036962389946e-05</internalNodes>
      <leafValues>
        -5.5874258279800415e-01 2.5301542878150940e-01</leafValues></_>
    <_>
      <internalNodes>
        0 -1 393788 2.2088843979872763e-04</internalNodes>
      <leafValues>
        1.2899176776409149e-01 -6.1882865428924561e-01</leafValues></_>
    <_>
      <internalNodes>
        0 -1 142798 -1.1378811299800873e-01</internalNodes>
      <leafValues>
        7.5571155548095703e-01 -1.6707248985767365e-01</leafValues></_>
    <_>
      <internalNodes>
        0 -1 162567 6.9990783231332898e-04</internalNodes>
      <leafValues>
        2.1834853291511536e-01 -5.9326219558715820e-01</leafValues></_>
    <_>
      <internalNodes>
        0 -1 49357 -3.4698116360232234e-04</internalNodes>
      <leafValues>
        -6.3886946439743042e-01 1.7648741602897644e-01</leafValues></_>
    <_>
      <internalNodes>
        0 -1 307600 -2.7549051446840167e-04</internalNodes>
      <leafValues>
        -6.0249096155166626e-01 1.6615547239780426e-01</leafValues></_>
    <_>
      <internalNodes>
        0 -1 26101 1.2766697909682989e-04</internalNodes>
      <leafValues>
        1.0911714285612106e-01 -6.8343406915664673e-01</leafValues></_>
    <_>
      <internalNodes>
        0 -1 236982 1.4459607191383839e-03</internalNodes>
      <leafValues>
        1.9801858067512512e-01 -6.0140687227249146e-01</leafValues></_>
    <_>
      <internalNodes>
        0 -1 383058 -3.4330377820879221e-04</internalNodes>
      <leafValues>
        -5.0835746526718140e-01 2.0556233823299408e-01</leafValues></_>
    <_>
      <internalNodes>
        0 -1 377413 -7.4654945638030767e-04</internalNodes>
      <leafValues>
        -5.5749833583831787e-01 1.6851459443569183e-01</leafValues></_>
    <_>
      <internalNodes>
        0 -1 26130 3.2813454163260758e-04</internalNodes>
      <leafValues>
        1.8327446281909943e-01 -5.7142633199691772e-01</leafValues></_>
    <_>
      <internalNodes>
        0 -1 281767 2.7686748653650284e-03</internalNodes>
      <leafValues>
        1.5966229140758514e-01 -6.1111825704574585e-01</leafValues></_>
    <_>
      <internalNodes>
        0 -1 332790 5.9070799034088850e-04</internalNodes>
      <leafValues>
        2.0224787294864655e-01 -5.2151411771774292e-01</leafValues></_>
    <_>
      <internalNodes>
        0 -1 295283 3.3020796254277229e-03</internalNodes>
      <leafValues>
        1.1223517358303070e-01 -8.7852001190185547e-01</leafValues></_></weakClassifiers></stage8>
</opencv_storage>
