<?xml version="1.0"?>
<opencv_storage>
<stage19>
  <maxWeakCount>15</maxWeakCount>
  <stageThreshold>-1.5588557720184326e+00</stageThreshold>
  <weakClassifiers>
    <_>
      <internalNodes>
        0 -1 19971 937923483 -1513373253 1359025432 -817003261 856197747
        -1073483640 1129026022 -639632745</internalNodes>
      <leafValues>
        -5.8968961238861084e-01 1.7266187816858292e-02</leafValues></_>
    <_>
      <internalNodes>
        0 -1 20564 -906921753 -1391132212 302075951 1308938641
        -1426005157 159453826 1522653765 182242372</internalNodes>
      <leafValues>
        -4.2883270978927612e-01 2.3265968263149261e-01</leafValues></_>
    <_>
      <internalNodes>
        0 -1 2808 -770051293 -251625419 303090256 -616230462 1133064651
        -880181197 723133599 209007139</internalNodes>
      <leafValues>
        -3.9722138643264771e-01 2.7624243497848511e-01</leafValues></_>
    <_>
      <internalNodes>
        0 -1 16227 587142949 -624209901 -2097085687 -1302859119
        -2147016683 -1609924597 830591161 -1910329092</internalNodes>
      <leafValues>
        -3.9837598800659180e-01 3.0914339423179626e-01</leafValues></_>
    <_>
      <internalNodes>
        0 -1 19283 -1442254668 -1441193902 356520069 223100969
        -1842831152 -1870528373 -1560200677 151603715</internalNodes>
      <leafValues>
        -4.4628068804740906e-01 2.7353042364120483e-01</leafValues></_>
    <_>
      <internalNodes>
        0 -1 8109 671310587 345079873 8425753 1401749522 -1877827445
        -1836941312 58884837 -120933696</internalNodes>
      <leafValues>
        -3.6799135804176331e-01 3.5177499055862427e-01</leafValues></_>
    <_>
      <internalNodes>
        0 -1 19306 -2146217377 -238325692 -1879048171 951915864
        -1994384875 -1685878133 -1962164073 -20993411</internalNodes>
      <leafValues>
        -3.3989036083221436e-01 3.7348991632461548e-01</leafValues></_>
    <_>
      <internalNodes>
        0 -1 1278 -574468881 1267941841 51405851 1008222573 -2004653720
        -938983414 -2134269580 1012822026</internalNodes>
      <leafValues>
        -4.4456794857978821e-01 3.1681010127067566e-01</leafValues></_>
    <_>
      <internalNodes>
        0 -1 6322 235227439 220156312 -1073741560 1347469339 -125763508
        445120520 -1542792602 2119350868</internalNodes>
      <leafValues>
        -6.3250416517257690e-01 1.8833713233470917e-01</leafValues></_>
    <_>
      <internalNodes>
        0 -1 11727 1933395281 411223897 -1056962930 1468027137
        1662081024 -612335616 286417931 147200009</internalNodes>
      <leafValues>
        -4.5526617765426636e-01 2.9466593265533447e-01</leafValues></_>
    <_>
      <internalNodes>
        0 -1 14545 -555563346 1031078166 -2129296956 -1458073151
        -1560180214 -1988099812 -804945779 273890839</internalNodes>
      <leafValues>
        -4.6879300475120544e-01 2.7366077899932861e-01</leafValues></_>
    <_>
      <internalNodes>
        0 -1 18398 -1278452653 -2083174183 385896451 -934457330
        176365995 -1710751744 185573699 148654272</internalNodes>
      <leafValues>
        -4.5307329297065735e-01 3.0233338475227356e-01</leafValues></_>
    <_>
      <internalNodes>
        0 -1 12720 26302335 546111697 123287 -1944399744 1249905152
        952778888 -939513243 470327424</internalNodes>
      <leafValues>
        -7.1302491426467896e-01 1.8435369431972504e-01</leafValues></_>
    <_>
      <internalNodes>
        0 -1 1360 -761544670 2076267739 1090535744 -716766970 620904608
        856293376 -1342049639 2135622282</internalNodes>
      <leafValues>
        -3.7408417463302612e-01 3.6852255463600159e-01</leafValues></_>
    <_>
      <internalNodes>
        0 -1 16215 554635347 -1845288911 285413703 -770178927
        -1333731328 -2139095032 285450955 -86198119</internalNodes>
      <leafValues>
        -3.7958434224128723e-01 3.8035401701927185e-01</leafValues></_></weakClassifiers></stage19>
</opencv_storage>
