<?xml version="1.0"?>
<opencv_storage>
<stage2>
  <maxWeakCount>16</maxWeakCount>
  <stageThreshold>-2.0595679283142090e+00</stageThreshold>
  <weakClassifiers>
    <_>
      <internalNodes>
        0 -1 353108 1.0431250929832458e-01</internalNodes>
      <leafValues>
        -4.7787201404571533e-01 6.3598757982254028e-01</leafValues></_>
    <_>
      <internalNodes>
        0 -1 394343 -3.9847928564995527e-04</internalNodes>
      <leafValues>
        -7.8929591178894043e-01 1.4735324680805206e-01</leafValues></_>
    <_>
      <internalNodes>
        0 -1 392912 7.9342728713527322e-04</internalNodes>
      <leafValues>
        1.7156545817852020e-01 -8.3220696449279785e-01</leafValues></_>
    <_>
      <internalNodes>
        0 -1 381813 8.7668653577566147e-04</internalNodes>
      <leafValues>
        1.2459086626768112e-01 -8.2510232925415039e-01</leafValues></_>
    <_>
      <internalNodes>
        0 -1 386003 -4.0942616760730743e-04</internalNodes>
      <leafValues>
        -7.8104913234710693e-01 1.7818444967269897e-01</leafValues></_>
    <_>
      <internalNodes>
        0 -1 173265 3.2482910901308060e-03</internalNodes>
      <leafValues>
        1.3855949044227600e-01 -8.0132138729095459e-01</leafValues></_>
    <_>
      <internalNodes>
        0 -1 111164 -1.0352385230362415e-02</internalNodes>
      <leafValues>
        -7.4941051006317139e-01 1.9169920682907104e-01</leafValues></_>
    <_>
      <internalNodes>
        0 -1 247058 -6.6352840512990952e-03</internalNodes>
      <leafValues>
        -7.4460959434509277e-01 1.4569653570652008e-01</leafValues></_>
    <_>
      <internalNodes>
        0 -1 33682 -3.5405983217060566e-03</internalNodes>
      <leafValues>
        -8.0697268247604370e-01 1.4567375183105469e-01</leafValues></_>
    <_>
      <internalNodes>
        0 -1 3544 -2.9176482930779457e-03</internalNodes>
      <leafValues>
        -6.3655269145965576e-01 1.8546868860721588e-01</leafValues></_>
    <_>
      <internalNodes>
        0 -1 390125 4.8388363211415708e-04</internalNodes>
      <leafValues>
        9.1144084930419922e-02 -8.3809942007064819e-01</leafValues></_>
    <_>
      <internalNodes>
        0 -1 386828 -1.6491208225488663e-03</internalNodes>
      <leafValues>
        -7.6761209964752197e-01 1.4783522486686707e-01</leafValues></_>
    <_>
      <internalNodes>
        0 -1 356483 7.6620783656835556e-03</internalNodes>
      <leafValues>
        1.5707547962665558e-01 -8.0785131454467773e-01</leafValues></_>
    <_>
      <internalNodes>
        0 -1 346913 1.1771318502724171e-02</internalNodes>
      <leafValues>
        1.0805384814739227e-01 -8.0814504623413086e-01</leafValues></_>
    <_>
      <internalNodes>
        0 -1 348691 1.0864427313208580e-02</internalNodes>
      <leafValues>
        1.2466495484113693e-01 -8.1528985500335693e-01</leafValues></_>
    <_>
      <internalNodes>
        0 -1 131286 1.3759729918092489e-03</internalNodes>
      <leafValues>
        1.2074007838964462e-01 -8.5549992322921753e-01</leafValues></_></weakClassifiers></stage2>
</opencv_storage>
