<?xml version="1.0"?>
<opencv_storage>
<stage12>
  <maxWeakCount>73</maxWeakCount>
  <stageThreshold>-1.9888122081756592e+00</stageThreshold>
  <weakClassifiers>
    <_>
      <internalNodes>
        0 -1 324716 -9.9942252039909363e-02</internalNodes>
      <leafValues>
        2.9637095332145691e-01 -4.3003097176551819e-01</leafValues></_>
    <_>
      <internalNodes>
        0 -1 340572 8.6334608495235443e-03</internalNodes>
      <leafValues>
        -1.7958174645900726e-01 2.2873061895370483e-01</leafValues></_>
    <_>
      <internalNodes>
        0 -1 328389 2.2137360647320747e-03</internalNodes>
      <leafValues>
        7.4727013707160950e-02 -5.3397440910339355e-01</leafValues></_>
    <_>
      <internalNodes>
        0 -1 278498 -1.7653127433732152e-03</internalNodes>
      <leafValues>
        -3.8251802325248718e-01 1.4440420269966125e-01</leafValues></_>
    <_>
      <internalNodes>
        0 -1 258650 -1.4284357428550720e-01</internalNodes>
      <leafValues>
        5.3464108705520630e-01 -9.8733134567737579e-02</leafValues></_>
    <_>
      <internalNodes>
        0 -1 91625 1.6600467264652252e-02</internalNodes>
      <leafValues>
        -1.2529808282852173e-01 3.3449560403823853e-01</leafValues></_>
    <_>
      <internalNodes>
        0 -1 252161 -3.9256662130355835e-03</internalNodes>
      <leafValues>
        2.9794427752494812e-01 -1.2305063754320145e-01</leafValues></_>
    <_>
      <internalNodes>
        0 -1 359030 -4.8713553696870804e-02</internalNodes>
      <leafValues>
        5.7400834560394287e-01 -7.0451937615871429e-02</leafValues></_>
    <_>
      <internalNodes>
        0 -1 236504 2.0613949745893478e-02</internalNodes>
      <leafValues>
        -1.1687928438186646e-01 3.2763406634330750e-01</leafValues></_>
    <_>
      <internalNodes>
        0 -1 246107 3.6624274216592312e-03</internalNodes>
      <leafValues>
        7.6283432543277740e-02 -5.3213751316070557e-01</leafValues></_>
    <_>
      <internalNodes>
        0 -1 66257 -6.7924731411039829e-03</internalNodes>
      <leafValues>
        2.7675959467887878e-01 -1.3937924802303314e-01</leafValues></_>
    <_>
      <internalNodes>
        0 -1 266869 1.0279797716066241e-03</internalNodes>
      <leafValues>
        6.5398022532463074e-02 -6.3473445177078247e-01</leafValues></_>
    <_>
      <internalNodes>
        0 -1 309694 2.8683687560260296e-03</internalNodes>
      <leafValues>
        5.8909460902214050e-02 -5.2832806110382080e-01</leafValues></_>
    <_>
      <internalNodes>
        0 -1 284472 8.9139752089977264e-03</internalNodes>
      <leafValues>
        -1.8532831966876984e-01 1.7891140282154083e-01</leafValues></_>
    <_>
      <internalNodes>
        0 -1 264838 1.7611300572752953e-02</internalNodes>
      <leafValues>
        -1.2377022206783295e-01 3.1739073991775513e-01</leafValues></_>
    <_>
      <internalNodes>
        0 -1 234807 -2.4605199694633484e-02</internalNodes>
      <leafValues>
        2.9646834731101990e-01 -1.2846586108207703e-01</leafValues></_>
    <_>
      <internalNodes>
        0 -1 275960 -3.2820511842146516e-04</internalNodes>
      <leafValues>
        -7.2967875003814697e-01 3.6494381725788116e-02</leafValues></_>
    <_>
      <internalNodes>
        0 -1 330603 1.3939598575234413e-03</internalNodes>
      <leafValues>
        4.5503035187721252e-02 -6.6595739126205444e-01</leafValues></_>
    <_>
      <internalNodes>
        0 -1 199456 3.0339458025991917e-03</internalNodes>
      <leafValues>
        4.8128005117177963e-02 -5.8180773258209229e-01</leafValues></_>
    <_>
      <internalNodes>
        0 -1 389030 4.8290356062352657e-04</internalNodes>
      <leafValues>
        4.4356249272823334e-02 -5.9850722551345825e-01</leafValues></_>
    <_>
      <internalNodes>
        0 -1 311065 -5.9068202972412109e-04</internalNodes>
      <leafValues>
        -6.4221334457397461e-01 4.3620835989713669e-02</leafValues></_>
    <_>
      <internalNodes>
        0 -1 329837 -3.7663294933736324e-03</internalNodes>
      <leafValues>
        -6.7736607789993286e-01 3.6875180900096893e-02</leafValues></_>
    <_>
      <internalNodes>
        0 -1 319904 8.3676148205995560e-03</internalNodes>
      <leafValues>
        -1.1382526904344559e-01 2.9195395112037659e-01</leafValues></_>
    <_>
      <internalNodes>
        0 -1 74202 5.5089744273573160e-04</internalNodes>
      <leafValues>
        4.5524086803197861e-02 -6.8319875001907349e-01</leafValues></_>
    <_>
      <internalNodes>
        0 -1 47506 1.5073778107762337e-02</internalNodes>
      <leafValues>
        -1.3794210553169250e-01 2.3790083825588226e-01</leafValues></_>
    <_>
      <internalNodes>
        0 -1 115534 9.9923135712742805e-04</internalNodes>
      <leafValues>
        6.1098609119653702e-02 -5.3062397241592407e-01</leafValues></_>
    <_>
      <internalNodes>
        0 -1 21995 -3.4905015490949154e-03</internalNodes>
      <leafValues>
        2.4582535028457642e-01 -1.4285521209239960e-01</leafValues></_>
    <_>
      <internalNodes>
        0 -1 394127 -3.7126749521121383e-04</internalNodes>
      <leafValues>
        -5.2767312526702881e-01 6.2192689627408981e-02</leafValues></_>
    <_>
      <internalNodes>
        0 -1 73157 7.8120076796039939e-04</internalNodes>
      <leafValues>
        5.7703096419572830e-02 -4.9459329247474670e-01</leafValues></_>
    <_>
      <internalNodes>
        0 -1 276539 -7.5938476948067546e-04</internalNodes>
      <leafValues>
        -6.0718566179275513e-01 4.6416606754064560e-02</leafValues></_>
    <_>
      <internalNodes>
        0 -1 323764 3.3145567867904902e-03</internalNodes>
      <leafValues>
        4.5251443982124329e-02 -5.5657982826232910e-01</leafValues></_>
    <_>
      <internalNodes>
        0 -1 242825 -4.3134644627571106e-02</internalNodes>
      <leafValues>
        2.9265880584716797e-01 -1.1910830438137054e-01</leafValues></_>
    <_>
      <internalNodes>
        0 -1 227776 8.8179055601358414e-03</internalNodes>
      <leafValues>
        -1.3566549122333527e-01 2.7878510951995850e-01</leafValues></_>
    <_>
      <internalNodes>
        0 -1 252047 2.6111504063010216e-02</internalNodes>
      <leafValues>
        3.6531519144773483e-02 -7.8744941949844360e-01</leafValues></_>
    <_>
      <internalNodes>
        0 -1 250487 6.9326981902122498e-03</internalNodes>
      <leafValues>
        -1.1602744460105896e-01 2.4835158884525299e-01</leafValues></_>
    <_>
      <internalNodes>
        0 -1 247590 1.0780628770589828e-02</internalNodes>
      <leafValues>
        -1.2710677087306976e-01 2.7140372991561890e-01</leafValues></_>
    <_>
      <internalNodes>
        0 -1 21863 2.0804867148399353e-02</internalNodes>
      <leafValues>
        5.7106137275695801e-02 -5.8253461122512817e-01</leafValues></_>
    <_>
      <internalNodes>
        0 -1 217115 3.4778253175318241e-03</internalNodes>
      <leafValues>
        3.2690834254026413e-02 -7.0695036649703979e-01</leafValues></_>
    <_>
      <internalNodes>
        0 -1 393784 -1.3212187332101166e-04</internalNodes>
      <leafValues>
        -3.8294404745101929e-01 6.7786455154418945e-02</leafValues></_>
    <_>
      <internalNodes>
        0 -1 352617 3.4187979996204376e-02</internalNodes>
      <leafValues>
        -9.0487472712993622e-02 3.2536575198173523e-01</leafValues></_>
    <_>
      <internalNodes>
        0 -1 358723 -1.4700701460242271e-02</internalNodes>
      <leafValues>
        5.3236210346221924e-01 -5.5919341742992401e-02</leafValues></_>
    <_>
      <internalNodes>
        0 -1 214697 -1.3189634680747986e-01</internalNodes>
      <leafValues>
        4.0659794211387634e-01 -7.3774367570877075e-02</leafValues></_>
    <_>
      <internalNodes>
        0 -1 315961 -5.6458055973052979e-02</internalNodes>
      <leafValues>
        4.5957267284393311e-01 -6.8038173019886017e-02</leafValues></_>
    <_>
      <internalNodes>
        0 -1 279016 9.4791461015120149e-04</internalNodes>
      <leafValues>
        5.0616469234228134e-02 -6.5928900241851807e-01</leafValues></_>
    <_>
      <internalNodes>
        0 -1 18921 -8.9625895023345947e-02</internalNodes>
      <leafValues>
        5.4329931735992432e-01 -6.2665224075317383e-02</leafValues></_>
    <_>
      <internalNodes>
        0 -1 303222 1.5709485858678818e-02</internalNodes>
      <leafValues>
        -1.1706063896417618e-01 2.6898929476737976e-01</leafValues></_>
    <_>
      <internalNodes>
        0 -1 356361 4.7869933769106865e-03</internalNodes>
      <leafValues>
        5.4538477212190628e-02 -5.7093465328216553e-01</leafValues></_>
    <_>
      <internalNodes>
        0 -1 306535 -5.2310614846646786e-03</internalNodes>
      <leafValues>
        2.5810322165489197e-01 -1.1498875916004181e-01</leafValues></_>
    <_>
      <internalNodes>
        0 -1 392887 1.3528397539630532e-04</internalNodes>
      <leafValues>
        7.3632307350635529e-02 -4.0746289491653442e-01</leafValues></_>
    <_>
      <internalNodes>
        0 -1 289934 9.8046928178519011e-04</internalNodes>
      <leafValues>
        3.3420480787754059e-02 -7.4924933910369873e-01</leafValues></_>
    <_>
      <internalNodes>
        0 -1 39653 2.0240478217601776e-02</internalNodes>
      <leafValues>
        3.5590529441833496e-02 -6.2202042341232300e-01</leafValues></_>
    <_>
      <internalNodes>
        0 -1 256191 1.2713327072560787e-02</internalNodes>
      <leafValues>
        -1.5745213627815247e-01 2.2746087610721588e-01</leafValues></_>
    <_>
      <internalNodes>
        0 -1 209295 -7.4543915688991547e-03</internalNodes>
      <leafValues>
        2.8513544797897339e-01 -1.1060478538274765e-01</leafValues></_>
    <_>
      <internalNodes>
        0 -1 202101 -4.0083387866616249e-03</internalNodes>
      <leafValues>
        3.0475828051567078e-01 -1.2406859546899796e-01</leafValues></_>
    <_>
      <internalNodes>
        0 -1 394343 -1.3672455679625273e-04</internalNodes>
      <leafValues>
        -2.9461032152175903e-01 1.0116501152515411e-01</leafValues></_>
    <_>
      <internalNodes>
        0 -1 339412 3.6385606974363327e-02</internalNodes>
      <leafValues>
        -7.3998145759105682e-02 4.0507441759109497e-01</leafValues></_>
    <_>
      <internalNodes>
        0 -1 392912 4.5207756920717657e-04</internalNodes>
      <leafValues>
        7.6955683529376984e-02 -3.7976166605949402e-01</leafValues></_>
    <_>
      <internalNodes>
        0 -1 258378 -2.4254452437162399e-03</internalNodes>
      <leafValues>
        -5.6319564580917358e-01 4.5391168445348740e-02</leafValues></_>
    <_>
      <internalNodes>
        0 -1 276788 6.1022746376693249e-03</internalNodes>
      <leafValues>
        -1.5082247555255890e-01 1.8794266879558563e-01</leafValues></_>
    <_>
      <internalNodes>
        0 -1 318368 2.8968602418899536e-03</internalNodes>
      <leafValues>
        6.2726959586143494e-02 -4.5890668034553528e-01</leafValues></_>
    <_>
      <internalNodes>
        0 -1 313591 2.0237020216882229e-03</internalNodes>
      <leafValues>
        4.0164861828088760e-02 -6.2557196617126465e-01</leafValues></_>
    <_>
      <internalNodes>
        0 -1 250094 -8.8970474898815155e-03</internalNodes>
      <leafValues>
        -6.3760852813720703e-01 3.8699552416801453e-02</leafValues></_>
    <_>
      <internalNodes>
        0 -1 116343 2.2024445235729218e-02</internalNodes>
      <leafValues>
        -1.0327593982219696e-01 2.9336842894554138e-01</leafValues></_>
    <_>
      <internalNodes>
        0 -1 138484 -5.7844445109367371e-02</internalNodes>
      <leafValues>
        4.2703458666801453e-01 -7.5749680399894714e-02</leafValues></_>
    <_>
      <internalNodes>
        0 -1 194693 2.1120514720678329e-03</internalNodes>
      <leafValues>
        4.6484448015689850e-02 -6.9654375314712524e-01</leafValues></_>
    <_>
      <internalNodes>
        0 -1 393111 -2.4073715030681342e-04</internalNodes>
      <leafValues>
        -3.6223122477531433e-01 7.1251600980758667e-02</leafValues></_>
    <_>
      <internalNodes>
        0 -1 350476 2.7184311300516129e-02</internalNodes>
      <leafValues>
        -1.1216794699430466e-01 2.5142106413841248e-01</leafValues></_>
    <_>
      <internalNodes>
        0 -1 369461 7.5333407148718834e-03</internalNodes>
      <leafValues>
        -1.4613363146781921e-01 2.4665823578834534e-01</leafValues></_>
    <_>
      <internalNodes>
        0 -1 35252 -1.8267016857862473e-02</internalNodes>
      <leafValues>
        3.0411437153816223e-01 -9.3854717910289764e-02</leafValues></_>
    <_>
      <internalNodes>
        0 -1 204669 -1.4441274106502533e-02</internalNodes>
      <leafValues>
        3.1280902028083801e-01 -9.5625869929790497e-02</leafValues></_>
    <_>
      <internalNodes>
        0 -1 183077 5.3108646534383297e-04</internalNodes>
      <leafValues>
        4.8039138317108154e-02 -6.2892985343933105e-01</leafValues></_>
    <_>
      <internalNodes>
        0 -1 116506 2.9113676864653826e-03</internalNodes>
      <leafValues>
        6.0116466134786606e-02 -4.6329542994499207e-01</leafValues></_>
    <_>
      <internalNodes>
        0 -1 371094 3.3119898289442062e-02</internalNodes>
      <leafValues>
        -5.9812765568494797e-02 4.9123728275299072e-01</leafValues></_></weakClassifiers></stage12>
</opencv_storage>
