<?xml version="1.0"?>
<opencv_storage>
<stage12>
  <maxWeakCount>20</maxWeakCount>
  <stageThreshold>-8.6591929197311401e-01</stageThreshold>
  <weakClassifiers>
    <_>
      <internalNodes>
        0 -1 6508 -352061197 -757362544 1343230461 -547417731 806056639
        -1718943599 520285051 -91743611</internalNodes>
      <leafValues>
        -5.0989472866058350e-01 1.2445414811372757e-01</leafValues></_>
    <_>
      <internalNodes>
        0 -1 8188 1029657343 -1419820902 285331801 2114506975
        -1181015845 -1962178559 436965557 2132457704</internalNodes>
      <leafValues>
        -4.1844904422760010e-01 2.3550125956535339e-01</leafValues></_>
    <_>
      <internalNodes>
        0 -1 9154 1981774715 2035910991 335856031 1380814943 -141865390
        -351174430 -368994218 -99563331</internalNodes>
      <leafValues>
        -3.5481202602386475e-01 3.0216848850250244e-01</leafValues></_>
    <_>
      <internalNodes>
        0 -1 144 1976169136 -1344368364 1444132020 -597698428 1077025655
        -496844741 63918451 1167979473</internalNodes>
      <leafValues>
        -4.8276492953300476e-01 2.1596328914165497e-01</leafValues></_>
    <_>
      <internalNodes>
        0 -1 6753 651638565 -53776028 -1321155697 -1815973489
        -1148699739 2039447587 2034442429 -1518568603</internalNodes>
      <leafValues>
        -4.1183274984359741e-01 2.7617660164833069e-01</leafValues></_>
    <_>
      <internalNodes>
        0 -1 9088 522059771 -1349865320 -784285096 -870918180 461589031
        -1434222462 -1987989328 736077557</internalNodes>
      <leafValues>
        -3.9596855640411377e-01 2.8465226292610168e-01</leafValues></_>
    <_>
      <internalNodes>
        0 -1 7554 24318321 -1715126188 293687647 337104923 -1819744194
        -374734792 -1685478414 2055219281</internalNodes>
      <leafValues>
        -4.0929439663887024e-01 2.6241171360015869e-01</leafValues></_>
    <_>
      <internalNodes>
        0 -1 9816 -82243397 -750280568 -804241151 -492863203 2013823019
        -1971093312 327854713 1579738097</internalNodes>
      <leafValues>
        -3.4394967555999756e-01 3.3568242192268372e-01</leafValues></_>
    <_>
      <internalNodes>
        0 -1 7360 558653239 -1533750348 -879372556 -683056422
        -2137828625 -133521278 831482095 -1529273165</internalNodes>
      <leafValues>
        -4.3038791418075562e-01 2.6977294683456421e-01</leafValues></_>
    <_>
      <internalNodes>
        0 -1 5837 250571562 4596570 1105027546 974713000 1539535764
        1594460161 -788188976 1787230480</internalNodes>
      <leafValues>
        -6.2784367799758911e-01 2.0321924984455109e-01</leafValues></_>
    <_>
      <internalNodes>
        0 -1 9791 697391887 -1554939751 1342263363 -725302783 -267902438
        142606336 1100319572 2119757957</internalNodes>
      <leafValues>
        -5.9178036451339722e-01 1.6570644080638885e-01</leafValues></_>
    <_>
      <internalNodes>
        0 -1 9850 542603079 566481307 268550275 -1575034787 -267681175
        1073750018 319840529 1418523220</internalNodes>
      <leafValues>
        -5.9549528360366821e-01 1.9582635164260864e-01</leafValues></_>
    <_>
      <internalNodes>
        0 -1 1488 -406433813 617945242 -2080108454 2030121238 -351713220
        -935243749 -1396442778 1987100598</internalNodes>
      <leafValues>
        -4.5172515511512756e-01 2.5759035348892212e-01</leafValues></_>
    <_>
      <internalNodes>
        0 -1 3578 604716385 685740379 1426163738 840438234 1644390934
        -380960760 42580726 -166723584</internalNodes>
      <leafValues>
        -5.7723361253738403e-01 1.9766525924205780e-01</leafValues></_>
    <_>
      <internalNodes>
        0 -1 9898 830554571 -1891434488 1124143384 -95473533 -1031626229
        -1744699376 1493828197 2065468241</internalNodes>
      <leafValues>
        -4.4946277141571045e-01 2.6537203788757324e-01</leafValues></_>
    <_>
      <internalNodes>
        0 -1 441 -1695190109 701743315 1073778769 -1072803601
        -2129716709 403702402 -242486459 -630942779</internalNodes>
      <leafValues>
        -4.5840817689895630e-01 2.5196206569671631e-01</leafValues></_>
    <_>
      <internalNodes>
        0 -1 7879 -1501327545 944869459 -801057509 710755743 826472464
        440011016 -1869951824 975182395</internalNodes>
      <leafValues>
        -5.1074296236038208e-01 2.4861043691635132e-01</leafValues></_>
    <_>
      <internalNodes>
        0 -1 210 1898962072 -250533883 -1047690937 -1726234496
        1008288218 1070236811 1778862396 -298679259</internalNodes>
      <leafValues>
        -3.7182492017745972e-01 3.3123725652694702e-01</leafValues></_>
    <_>
      <internalNodes>
        0 -1 747 935939946 260440531 -217984558 -658210111 -1731702709
        7045128 -33109548 1505395134</internalNodes>
      <leafValues>
        -4.7965988516807556e-01 2.6831290125846863e-01</leafValues></_>
    <_>
      <internalNodes>
        0 -1 4647 -2124516838 1675150525 -1660868405 -1168483964
        186757239 1661675643 1368266981 728458001</internalNodes>
      <leafValues>
        -4.5537009835243225e-01 2.7079334855079651e-01</leafValues></_></weakClassifiers></stage12>
</opencv_storage>
