<?xml version="1.0"?>
<opencv_storage>
<stage7>
  <maxWeakCount>17</maxWeakCount>
  <stageThreshold>-1.2111033201217651e+00</stageThreshold>
  <weakClassifiers>
    <_>
      <internalNodes>
        0 -1 9749 -216401925 -472550951 -805178923 -320908003 -225463777
        -359071735 1897516023 -563152417</internalNodes>
      <leafValues>
        -5.8222222328186035e-01 2.0461094379425049e-01</leafValues></_>
    <_>
      <internalNodes>
        0 -1 2254 1981612799 1876759039 -1064215715 -669462017 -87336592
        -222686698 -1131283843 -15532709</internalNodes>
      <leafValues>
        -4.7718733549118042e-01 3.3405765891075134e-01</leafValues></_>
    <_>
      <internalNodes>
        0 -1 1618 -350488617 -171183967 -715143305 -2303500 1804595927
        -3456293 1342144247 -587377195</internalNodes>
      <leafValues>
        -3.8051304221153259e-01 4.0775817632675171e-01</leafValues></_>
    <_>
      <internalNodes>
        0 -1 4594 1032812543 -287338301 268753371 -690097953 848951827
        -2087878518 1267456871 1591272148</internalNodes>
      <leafValues>
        -4.4948631525039673e-01 3.4030231833457947e-01</leafValues></_>
    <_>
      <internalNodes>
        0 -1 9046 731206491 -1361641326 -788410209 -467674858 -354811598
        -2002124799 319456113 675082452</internalNodes>
      <leafValues>
        -6.4753395318984985e-01 2.6784610748291016e-01</leafValues></_>
    <_>
      <internalNodes>
        0 -1 7864 -1685113893 -522288821 268558431 -792252325 -108338661
        -351633398 -356922381 408737937</internalNodes>
      <leafValues>
        -4.7551766037940979e-01 3.3709299564361572e-01</leafValues></_>
    <_>
      <internalNodes>
        0 -1 9798 -1344710725 722833553 -805269091 1897476601
        -1153041857 -134119278 -134028432 2138354640</internalNodes>
      <leafValues>
        -4.9583533406257629e-01 3.2807016372680664e-01</leafValues></_>
    <_>
      <internalNodes>
        0 -1 4720 693317787 -1965080382 268556509 -799091681 -1203654529
        -997326838 -619742361 1525199348</internalNodes>
      <leafValues>
        -5.9819167852401733e-01 2.9734835028648376e-01</leafValues></_>
    <_>
      <internalNodes>
        0 -1 1443 446318111 849289699 -871236808 421138713 1849362237
        -556767007 -846513157 979441483</internalNodes>
      <leafValues>
        -5.8944833278656006e-01 2.7345702052116394e-01</leafValues></_>
    <_>
      <internalNodes>
        0 -1 9961 315058071 541577562 1392625359 -1033994161 -1573932948
        -935329742 -788278319 1549591508</internalNodes>
      <leafValues>
        -5.3132605552673340e-01 3.3976927399635315e-01</leafValues></_>
    <_>
      <internalNodes>
        0 -1 5132 773335509 -184663849 -400894717 1742274813 856062030
        -741740518 -1322386857 -1119978892</internalNodes>
      <leafValues>
        -5.7109397649765015e-01 2.9896858334541321e-01</leafValues></_>
    <_>
      <internalNodes>
        0 -1 7352 1071329759 -1563979636 -1861742371 -627687397
        -385736613 -91750400 957018612 -1621577052</internalNodes>
      <leafValues>
        -5.0764697790145874e-01 3.3988216519355774e-01</leafValues></_>
    <_>
      <internalNodes>
        0 -1 9274 1060764443 261329870 1090606481 -896937585 2066315967
        -1424776831 2072613237 1841019053</internalNodes>
      <leafValues>
        -4.9631670117378235e-01 3.2910427451133728e-01</leafValues></_>
    <_>
      <internalNodes>
        0 -1 3121 -1363214405 -303104016 -1052693 -16842761 783761375
        -268435465 2146958835 -595757579</internalNodes>
      <leafValues>
        -3.9513403177261353e-01 4.2367091774940491e-01</leafValues></_>
    <_>
      <internalNodes>
        0 -1 6745 -1956968877 -824114029 269009049 -2006994221
        -1282772429 -402585590 -645223897 1535692953</internalNodes>
      <leafValues>
        -5.2747380733489990e-01 3.2896548509597778e-01</leafValues></_>
    <_>
      <internalNodes>
        0 -1 9064 990868477 -1899610087 285233351 1682423883 -1205198302
        -1970601854 185230183 423385308</internalNodes>
      <leafValues>
        -5.2696031332015991e-01 3.3402451872825623e-01</leafValues></_>
    <_>
      <internalNodes>
        0 -1 9230 -1681442049 -1009151780 1073861103 1276579935
        -523653116 -1442250752 -486360333 -23139400</internalNodes>
      <leafValues>
        -4.4387018680572510e-01 4.0279471874237061e-01</leafValues></_></weakClassifiers></stage7>
</opencv_storage>
