<?xml version="1.0"?>
<opencv_storage>
<stage4>
  <maxWeakCount>6</maxWeakCount>
  <stageThreshold>-1.5275092124938965e+00</stageThreshold>
  <weakClassifiers>
    <_>
      <internalNodes>
        0 -1 41847 771698559 -786437 -136331361 -69234337 -805573633
        -69228033 -285250821 -1074254083</internalNodes>
      <leafValues>
        -7.1171170473098755e-01 4.8281016945838928e-01</leafValues></_>
    <_>
      <internalNodes>
        0 -1 39392 1040007167 534461179 -1723799713 -25260034
        -1074663425 -36650002 -1179648011 -1363918876</internalNodes>
      <leafValues>
        -5.9932965040206909e-01 5.8738613128662109e-01</leafValues></_>
    <_>
      <internalNodes>
        0 -1 49024 232716287 -325100291 -550448130 -537855011 2098984917
        -919045 -102913283 1064832164</internalNodes>
      <leafValues>
        -6.8156969547271729e-01 5.5536621809005737e-01</leafValues></_>
    <_>
      <internalNodes>
        0 -1 48644 1035942911 828236507 1528676639 500011163 -1356612609
        1250656395 1877473843 1542247388</internalNodes>
      <leafValues>
        -6.3612270355224609e-01 5.4856270551681519e-01</leafValues></_>
    <_>
      <internalNodes>
        0 -1 46298 255082101 454714195 1337247093 -3151 -1074790569
        -140740025 -123141175 2147269532</internalNodes>
      <leafValues>
        -6.4561539888381958e-01 5.8257555961608887e-01</leafValues></_>
    <_>
      <internalNodes>
        0 -1 37325 679290813 836758495 -1185267783 -1361158147
        -474001473 -1087902981 -285507841 -1091813628</internalNodes>
      <leafValues>
        -6.3809955120086670e-01 5.5231803655624390e-01</leafValues></_></weakClassifiers></stage4>
</opencv_storage>
