<?xml version="1.0"?>
<opencv_storage>
<stage16>
  <maxWeakCount>100</maxWeakCount>
  <stageThreshold>-2.3405592441558838e+00</stageThreshold>
  <weakClassifiers>
    <_>
      <internalNodes>
        0 -1 134071 2.5542275980114937e-02</internalNodes>
      <leafValues>
        -5.1467877626419067e-01 -5.1372747868299484e-02</leafValues></_>
    <_>
      <internalNodes>
        0 -1 89524 2.5219747330993414e-03</internalNodes>
      <leafValues>
        -2.1311524510383606e-01 2.5957980751991272e-01</leafValues></_>
    <_>
      <internalNodes>
        0 -1 19737 -7.1536637842655182e-03</internalNodes>
      <leafValues>
        2.2356842458248138e-01 -1.8194371461868286e-01</leafValues></_>
    <_>
      <internalNodes>
        0 -1 125909 2.0331211388111115e-02</internalNodes>
      <leafValues>
        -1.2705454230308533e-01 2.5378596782684326e-01</leafValues></_>
    <_>
      <internalNodes>
        0 -1 77721 -1.0150929540395737e-01</internalNodes>
      <leafValues>
        5.1362538337707520e-01 -4.9745000898838043e-02</leafValues></_>
    <_>
      <internalNodes>
        0 -1 72191 -9.3241259455680847e-02</internalNodes>
      <leafValues>
        4.7772350907325745e-01 -4.4974390417337418e-02</leafValues></_>
    <_>
      <internalNodes>
        0 -1 38793 8.5158988833427429e-02</internalNodes>
      <leafValues>
        -6.0952536761760712e-02 4.1690883040428162e-01</leafValues></_>
    <_>
      <internalNodes>
        0 -1 162174 5.4436328355222940e-04</internalNodes>
      <leafValues>
        5.4010715335607529e-02 -4.2633524537086487e-01</leafValues></_>
    <_>
      <internalNodes>
        0 -1 157566 -4.4987714500166476e-04</internalNodes>
      <leafValues>
        -3.8416656851768494e-01 6.6476002335548401e-02</leafValues></_>
    <_>
      <internalNodes>
        0 -1 162174 -5.2666862029582262e-04</internalNodes>
      <leafValues>
        -3.8888320326805115e-01 5.7201698422431946e-02</leafValues></_>
    <_>
      <internalNodes>
        0 -1 19570 6.5272743813693523e-04</internalNodes>
      <leafValues>
        5.1815737038850784e-02 -4.9716556072235107e-01</leafValues></_>
    <_>
      <internalNodes>
        0 -1 144139 1.1021129786968231e-02</internalNodes>
      <leafValues>
        -1.0136362165212631e-01 2.0994789898395538e-01</leafValues></_>
    <_>
      <internalNodes>
        0 -1 48971 -2.9712267220020294e-02</internalNodes>
      <leafValues>
        2.8936502337455750e-01 -7.4731811881065369e-02</leafValues></_>
    <_>
      <internalNodes>
        0 -1 97590 -8.9391931891441345e-02</internalNodes>
      <leafValues>
        5.5075490474700928e-01 -3.8517013192176819e-02</leafValues></_>
    <_>
      <internalNodes>
        0 -1 120148 -4.5211352407932281e-03</internalNodes>
      <leafValues>
        -5.7652509212493896e-01 3.5430211573839188e-02</leafValues></_>
    <_>
      <internalNodes>
        0 -1 25257 -1.0571902617812157e-02</internalNodes>
      <leafValues>
        -5.7387673854827881e-01 3.4494489431381226e-02</leafValues></_>
    <_>
      <internalNodes>
        0 -1 134235 3.4056794829666615e-03</internalNodes>
      <leafValues>
        3.2402034848928452e-02 -4.9505099654197693e-01</leafValues></_>
    <_>
      <internalNodes>
        0 -1 128549 4.9120876938104630e-03</internalNodes>
      <leafValues>
        3.0102862045168877e-02 -6.2079644203186035e-01</leafValues></_>
    <_>
      <internalNodes>
        0 -1 25688 -4.1149919852614403e-03</internalNodes>
      <leafValues>
        -4.8410278558731079e-01 3.4404557198286057e-02</leafValues></_>
    <_>
      <internalNodes>
        0 -1 34275 7.8192055225372314e-03</internalNodes>
      <leafValues>
        2.0443644374608994e-02 -6.4809632301330566e-01</leafValues></_>
    <_>
      <internalNodes>
        0 -1 79276 -4.0508538484573364e-02</internalNodes>
      <leafValues>
        3.8810890913009644e-01 -5.2848514169454575e-02</leafValues></_>
    <_>
      <internalNodes>
        0 -1 46533 7.1710916236042976e-03</internalNodes>
      <leafValues>
        4.7990825027227402e-02 -4.8153278231620789e-01</leafValues></_>
    <_>
      <internalNodes>
        0 -1 108663 -2.6276201009750366e-02</internalNodes>
      <leafValues>
        4.5663067698478699e-01 -5.7270888239145279e-02</leafValues></_>
    <_>
      <internalNodes>
        0 -1 93359 2.1768426522612572e-03</internalNodes>
      <leafValues>
        -5.9651214629411697e-02 3.3540529012680054e-01</leafValues></_>
    <_>
      <internalNodes>
        0 -1 54828 -1.1177361756563187e-01</internalNodes>
      <leafValues>
        5.6346213817596436e-01 -3.3812213689088821e-02</leafValues></_>
    <_>
      <internalNodes>
        0 -1 104944 6.0602445155382156e-03</internalNodes>
      <leafValues>
        2.4752782657742500e-02 -8.5538113117218018e-01</leafValues></_>
    <_>
      <internalNodes>
        0 -1 70229 -2.7759496122598648e-02</internalNodes>
      <leafValues>
        4.5576694607734680e-01 -4.6157144010066986e-02</leafValues></_>
    <_>
      <internalNodes>
        0 -1 27 2.8733417857438326e-03</internalNodes>
      <leafValues>
        4.0934935212135315e-02 -4.7979241609573364e-01</leafValues></_>
    <_>
      <internalNodes>
        0 -1 151594 5.1841028034687042e-03</internalNodes>
      <leafValues>
        2.2502129897475243e-02 -6.8361067771911621e-01</leafValues></_>
    <_>
      <internalNodes>
        0 -1 135977 8.2954376935958862e-02</internalNodes>
      <leafValues>
        -5.4514035582542419e-02 3.5189163684844971e-01</leafValues></_>
    <_>
      <internalNodes>
        0 -1 136310 -9.2737816274166107e-02</internalNodes>
      <leafValues>
        4.5990622043609619e-01 -4.5527033507823944e-02</leafValues></_>
    <_>
      <internalNodes>
        0 -1 104199 5.0945649854838848e-04</internalNodes>
      <leafValues>
        -1.1581316590309143e-01 1.5415245294570923e-01</leafValues></_>
    <_>
      <internalNodes>
        0 -1 86257 1.0807372629642487e-02</internalNodes>
      <leafValues>
        2.6968777179718018e-02 -7.4514102935791016e-01</leafValues></_>
    <_>
      <internalNodes>
        0 -1 157322 2.3079856764525175e-03</internalNodes>
      <leafValues>
        2.8382737189531326e-02 -5.2083617448806763e-01</leafValues></_>
    <_>
      <internalNodes>
        0 -1 46392 2.2955663502216339e-02</internalNodes>
      <leafValues>
        -1.3837464153766632e-01 1.2186371535062790e-01</leafValues></_>
    <_>
      <internalNodes>
        0 -1 10330 -6.8463301286101341e-03</internalNodes>
      <leafValues>
        -8.1807941198348999e-01 2.3637834936380386e-02</leafValues></_>
    <_>
      <internalNodes>
        0 -1 52715 1.0984477587044239e-02</internalNodes>
      <leafValues>
        2.1358314901590347e-02 -6.4805018901824951e-01</leafValues></_>
    <_>
      <internalNodes>
        0 -1 116977 -3.5281870514154434e-03</internalNodes>
      <leafValues>
        1.8793052434921265e-01 -9.8366513848304749e-02</leafValues></_>
    <_>
      <internalNodes>
        0 -1 140075 2.2418601438403130e-03</internalNodes>
      <leafValues>
        2.6698347181081772e-02 -6.0007435083389282e-01</leafValues></_>
    <_>
      <internalNodes>
        0 -1 160372 2.2181218955665827e-03</internalNodes>
      <leafValues>
        1.7358403652906418e-02 -8.0285036563873291e-01</leafValues></_>
    <_>
      <internalNodes>
        0 -1 113096 -4.5207799412310123e-03</internalNodes>
      <leafValues>
        -5.4483634233474731e-01 2.6416767388582230e-02</leafValues></_>
    <_>
      <internalNodes>
        0 -1 55610 4.9069449305534363e-03</internalNodes>
      <leafValues>
        -8.4771648049354553e-02 2.0243906974792480e-01</leafValues></_>
    <_>
      <internalNodes>
        0 -1 46 -2.4565826170146465e-03</internalNodes>
      <leafValues>
        -3.2817679643630981e-01 5.5777549743652344e-02</leafValues></_>
    <_>
      <internalNodes>
        0 -1 138 2.3688042536377907e-02</internalNodes>
      <leafValues>
        -4.6740960329771042e-02 4.4087687134742737e-01</leafValues></_>
    <_>
      <internalNodes>
        0 -1 21073 -5.1004849374294281e-02</internalNodes>
      <leafValues>
        2.9448348283767700e-01 -6.0774534940719604e-02</leafValues></_>
    <_>
      <internalNodes>
        0 -1 11056 5.1030935719609261e-03</internalNodes>
      <leafValues>
        2.3072849959135056e-02 -7.7038061618804932e-01</leafValues></_>
    <_>
      <internalNodes>
        0 -1 133138 -3.8795094005763531e-03</internalNodes>
      <leafValues>
        -4.1856446862220764e-01 3.5352736711502075e-02</leafValues></_>
    <_>
      <internalNodes>
        0 -1 146486 4.2288254946470261e-02</internalNodes>
      <leafValues>
        -4.0118731558322906e-02 4.7413691878318787e-01</leafValues></_>
    <_>
      <internalNodes>
        0 -1 153597 1.0033038444817066e-02</internalNodes>
      <leafValues>
        3.1286228448152542e-02 -6.4353752136230469e-01</leafValues></_>
    <_>
      <internalNodes>
        0 -1 65645 -4.4846139848232269e-02</internalNodes>
      <leafValues>
        4.3392562866210938e-01 -4.6011429280042648e-02</leafValues></_>
    <_>
      <internalNodes>
        0 -1 71618 -1.2182090431451797e-02</internalNodes>
      <leafValues>
        -5.8135694265365601e-01 3.5336781293153763e-02</leafValues></_>
    <_>
      <internalNodes>
        0 -1 83580 -1.4559343457221985e-02</internalNodes>
      <leafValues>
        -6.6568219661712646e-01 2.1932758390903473e-02</leafValues></_>
    <_>
      <internalNodes>
        0 -1 48460 -3.1012743711471558e-02</internalNodes>
      <leafValues>
        3.4242469072341919e-01 -5.5635266005992889e-02</leafValues></_>
    <_>
      <internalNodes>
        0 -1 13285 9.0119894593954086e-03</internalNodes>
      <leafValues>
        3.4363768994808197e-02 -5.7552415132522583e-01</leafValues></_>
    <_>
      <internalNodes>
        0 -1 114439 3.6526063922792673e-03</internalNodes>
      <leafValues>
        2.6480084285140038e-02 -5.5537527799606323e-01</leafValues></_>
    <_>
      <internalNodes>
        0 -1 115025 -6.1984765343368053e-03</internalNodes>
      <leafValues>
        -5.8826315402984619e-01 2.6247158646583557e-02</leafValues></_>
    <_>
      <internalNodes>
        0 -1 11053 -2.2851685062050819e-03</internalNodes>
      <leafValues>
        -4.5436197519302368e-01 3.6362957209348679e-02</leafValues></_>
    <_>
      <internalNodes>
        0 -1 79101 -3.4270025789737701e-02</internalNodes>
      <leafValues>
        2.6231187582015991e-01 -6.6389277577400208e-02</leafValues></_>
    <_>
      <internalNodes>
        0 -1 61147 -3.3112917095422745e-02</internalNodes>
      <leafValues>
        5.2015841007232666e-01 -3.0180087313055992e-02</leafValues></_>
    <_>
      <internalNodes>
        0 -1 51117 -1.5697741508483887e-01</internalNodes>
      <leafValues>
        3.5465830564498901e-01 -4.5687466859817505e-02</leafValues></_>
    <_>
      <internalNodes>
        0 -1 21011 7.3736272752285004e-03</internalNodes>
      <leafValues>
        -9.4319842755794525e-02 1.7604224383831024e-01</leafValues></_>
    <_>
      <internalNodes>
        0 -1 5093 -4.1661098599433899e-02</internalNodes>
      <leafValues>
        6.7643833160400391e-01 -2.8127552941441536e-02</leafValues></_>
    <_>
      <internalNodes>
        0 -1 105514 -7.6814621686935425e-02</internalNodes>
      <leafValues>
        3.4774187207221985e-01 -4.6406242996454239e-02</leafValues></_>
    <_>
      <internalNodes>
        0 -1 138637 -5.2757216617465019e-03</internalNodes>
      <leafValues>
        -7.1315455436706543e-01 2.6179432868957520e-02</leafValues></_>
    <_>
      <internalNodes>
        0 -1 159769 -1.6210635658353567e-03</internalNodes>
      <leafValues>
        -2.7757087349891663e-01 5.5084187537431717e-02</leafValues></_>
    <_>
      <internalNodes>
        0 -1 125166 1.0294344276189804e-02</internalNodes>
      <leafValues>
        -8.0616682767868042e-02 2.2199720144271851e-01</leafValues></_>
    <_>
      <internalNodes>
        0 -1 126892 -7.7349366620182991e-03</internalNodes>
      <leafValues>
        -8.1775933504104614e-01 2.4478074163198471e-02</leafValues></_>
    <_>
      <internalNodes>
        0 -1 17508 5.2611082792282104e-03</internalNodes>
      <leafValues>
        1.8921315670013428e-02 -6.3671958446502686e-01</leafValues></_>
    <_>
      <internalNodes>
        0 -1 161106 3.0509023927152157e-03</internalNodes>
      <leafValues>
        2.2066414356231689e-02 -6.4510655403137207e-01</leafValues></_>
    <_>
      <internalNodes>
        0 -1 81246 -4.0730333328247070e-01</internalNodes>
      <leafValues>
        -6.0058367252349854e-01 2.2201245650649071e-02</leafValues></_>
    <_>
      <internalNodes>
        0 -1 65110 -1.3335041701793671e-02</internalNodes>
      <leafValues>
        1.6407015919685364e-01 -1.0605618357658386e-01</leafValues></_>
    <_>
      <internalNodes>
        0 -1 55096 2.9603943694382906e-03</internalNodes>
      <leafValues>
        3.9737522602081299e-02 -5.2853345870971680e-01</leafValues></_>
    <_>
      <internalNodes>
        0 -1 142073 -3.6498881876468658e-02</internalNodes>
      <leafValues>
        2.2374089062213898e-01 -7.4904188513755798e-02</leafValues></_>
    <_>
      <internalNodes>
        0 -1 155369 1.5978252049535513e-03</internalNodes>
      <leafValues>
        3.8775123655796051e-02 -4.3596550822257996e-01</leafValues></_>
    <_>
      <internalNodes>
        0 -1 155409 -1.3113445602357388e-03</internalNodes>
      <leafValues>
        -2.9455393552780151e-01 5.3550008684396744e-02</leafValues></_>
    <_>
      <internalNodes>
        0 -1 150941 -3.5307237412780523e-03</internalNodes>
      <leafValues>
        -6.2885087728500366e-01 2.4754578247666359e-02</leafValues></_>
    <_>
      <internalNodes>
        0 -1 90434 1.7791777849197388e-02</internalNodes>
      <leafValues>
        -4.8049375414848328e-02 3.7095683813095093e-01</leafValues></_>
    <_>
      <internalNodes>
        0 -1 161008 -1.1852142633870244e-03</internalNodes>
      <leafValues>
        -4.7124192118644714e-01 3.5953011363744736e-02</leafValues></_>
    <_>
      <internalNodes>
        0 -1 121386 -7.0216283202171326e-03</internalNodes>
      <leafValues>
        -8.1580358743667603e-01 1.5839565545320511e-02</leafValues></_>
    <_>
      <internalNodes>
        0 -1 105080 1.4813367743045092e-03</internalNodes>
      <leafValues>
        1.1330593377351761e-02 -9.0172958374023438e-01</leafValues></_>
    <_>
      <internalNodes>
        0 -1 103630 6.8590766750276089e-04</internalNodes>
      <leafValues>
        -1.0522345453500748e-01 1.6512149572372437e-01</leafValues></_>
    <_>
      <internalNodes>
        0 -1 89056 3.6030260380357504e-03</internalNodes>
      <leafValues>
        2.4147784337401390e-02 -6.1132198572158813e-01</leafValues></_>
    <_>
      <internalNodes>
        0 -1 120509 2.6331214234232903e-02</internalNodes>
      <leafValues>
        -1.1134912073612213e-01 1.3926602900028229e-01</leafValues></_>
    <_>
      <internalNodes>
        0 -1 153451 -3.3190850168466568e-02</internalNodes>
      <leafValues>
        4.5484232902526855e-01 -3.7514790892601013e-02</leafValues></_>
    <_>
      <internalNodes>
        0 -1 112817 5.2250511944293976e-03</internalNodes>
      <leafValues>
        -6.2622718513011932e-02 2.4610024690628052e-01</leafValues></_>
    <_>
      <internalNodes>
        0 -1 103892 1.9788745790719986e-02</internalNodes>
      <leafValues>
        -7.8776098787784576e-02 2.1391929686069489e-01</leafValues></_>
    <_>
      <internalNodes>
        0 -1 85057 1.6228882595896721e-03</internalNodes>
      <leafValues>
        -1.1298229545354843e-01 1.5554587543010712e-01</leafValues></_>
    <_>
      <internalNodes>
        0 -1 81754 -1.2806184589862823e-02</internalNodes>
      <leafValues>
        1.2039386481046677e-01 -1.4668595790863037e-01</leafValues></_>
    <_>
      <internalNodes>
        0 -1 46336 -4.6063167974352837e-03</internalNodes>
      <leafValues>
        -5.2257341146469116e-01 3.2572243362665176e-02</leafValues></_>
    <_>
      <internalNodes>
        0 -1 55476 -1.4467466622591019e-02</internalNodes>
      <leafValues>
        -7.1458309888839722e-01 1.9280342385172844e-02</leafValues></_>
    <_>
      <internalNodes>
        0 -1 61437 2.7590026147663593e-03</internalNodes>
      <leafValues>
        2.7206359431147575e-02 -5.2003848552703857e-01</leafValues></_>
    <_>
      <internalNodes>
        0 -1 85166 -1.2250407598912716e-02</internalNodes>
      <leafValues>
        -6.6575157642364502e-01 2.1669344976544380e-02</leafValues></_>
    <_>
      <internalNodes>
        0 -1 74988 -5.2831374108791351e-02</internalNodes>
      <leafValues>
        6.0901528596878052e-01 -3.3680506050586700e-02</leafValues></_>
    <_>
      <internalNodes>
        0 -1 116106 1.5476276166737080e-03</internalNodes>
      <leafValues>
        4.1788954287767410e-02 -3.9847436547279358e-01</leafValues></_>
    <_>
      <internalNodes>
        0 -1 127935 3.6412646295502782e-05</internalNodes>
      <leafValues>
        -1.2777964770793915e-01 1.1940470337867737e-01</leafValues></_>
    <_>
      <internalNodes>
        0 -1 159598 7.8748748637735844e-04</internalNodes>
      <leafValues>
        2.7218511328101158e-02 -5.4104530811309814e-01</leafValues></_>
    <_>
      <internalNodes>
        0 -1 161239 -4.8653790727257729e-03</internalNodes>
      <leafValues>
        2.2572885453701019e-01 -6.7274153232574463e-02</leafValues></_>
    <_>
      <internalNodes>
        0 -1 159749 2.3151487112045288e-03</internalNodes>
      <leafValues>
        3.1818412244319916e-02 -4.9309283494949341e-01</leafValues></_>
    <_>
      <internalNodes>
        0 -1 49297 1.4901512768119574e-03</internalNodes>
      <leafValues>
        2.3625394329428673e-02 -5.7313656806945801e-01</leafValues></_>
    <_>
      <internalNodes>
        0 -1 72349 4.1333250701427460e-03</internalNodes>
      <leafValues>
        2.8308734297752380e-02 -4.9679037928581238e-01</leafValues></_></weakClassifiers></stage16>
</opencv_storage>
