<?xml version="1.0"?>
<opencv_storage>
<stage3>
  <maxWeakCount>5</maxWeakCount>
  <stageThreshold>-8.2853323221206665e-01</stageThreshold>
  <weakClassifiers>
    <_>
      <internalNodes>
        0 -1 992820 2.1004611253738403e-01</internalNodes>
      <leafValues>
        -6.0000002384185791e-01 8.6440676450729370e-01</leafValues></_>
    <_>
      <internalNodes>
        0 -1 41802 1.2324994802474976e-01</internalNodes>
      <leafValues>
        -4.1012376546859741e-01 7.3987007141113281e-01</leafValues></_>
    <_>
      <internalNodes>
        0 -1 1567359 -3.8602382410317659e-03</internalNodes>
      <leafValues>
        -9.3178850412368774e-01 2.7510699629783630e-01</leafValues></_>
    <_>
      <internalNodes>
        0 -1 1077338 -5.8938816189765930e-02</internalNodes>
      <leafValues>
        7.0799797773361206e-01 -3.7161922454833984e-01</leafValues></_>
    <_>
      <internalNodes>
        0 -1 1767940 -1.0826671496033669e-03</internalNodes>
      <leafValues>
        -8.0151444673538208e-01 3.5588109493255615e-01</leafValues></_></weakClassifiers></stage3>
</opencv_storage>
