<?xml version="1.0"?>
<opencv_storage>
<stage0>
  <maxWeakCount>10</maxWeakCount>
  <stageThreshold>-1.8700903654098511e+00</stageThreshold>
  <weakClassifiers>
    <_>
      <internalNodes>
        0 -1 4599 -2.6487684249877930e-01</internalNodes>
      <leafValues>
        6.3859695196151733e-01 -6.4283543825149536e-01</leafValues></_>
    <_>
      <internalNodes>
        0 -1 38863 -2.6067447662353516e-01</internalNodes>
      <leafValues>
        5.7785785198211670e-01 -3.4394547343254089e-01</leafValues></_>
    <_>
      <internalNodes>
        0 -1 156676 7.7844981569796801e-04</internalNodes>
      <leafValues>
        1.8977750837802887e-01 -9.0355068445205688e-01</leafValues></_>
    <_>
      <internalNodes>
        0 -1 156676 -7.5250770896673203e-04</internalNodes>
      <leafValues>
        -8.3088499307632446e-01 2.5378489494323730e-01</leafValues></_>
    <_>
      <internalNodes>
        0 -1 57671 7.8047928400337696e-04</internalNodes>
      <leafValues>
        1.0625667870044708e-02 -9.2847621440887451e-01</leafValues></_>
    <_>
      <internalNodes>
        0 -1 57671 -9.2264107661321759e-04</internalNodes>
      <leafValues>
        -8.9805251359939575e-01 2.2914583981037140e-01</leafValues></_>
    <_>
      <internalNodes>
        0 -1 143489 4.7381352633237839e-03</internalNodes>
      <leafValues>
        1.3857695460319519e-01 -8.7062597274780273e-01</leafValues></_>
    <_>
      <internalNodes>
        0 -1 154848 -2.4738581851124763e-03</internalNodes>
      <leafValues>
        -7.8949671983718872e-01 2.0028240978717804e-01</leafValues></_>
    <_>
      <internalNodes>
        0 -1 155235 6.9088494637981057e-04</internalNodes>
      <leafValues>
        1.0115445405244827e-01 -8.4679108858108521e-01</leafValues></_>
    <_>
      <internalNodes>
        0 -1 155235 -5.5659323697909713e-04</internalNodes>
      <leafValues>
        -7.6763695478439331e-01 2.0521107316017151e-01</leafValues></_></weakClassifiers></stage0>
</opencv_storage>
