<?xml version="1.0"?>
<opencv_storage>
<stage10>
  <maxWeakCount>8</maxWeakCount>
  <stageThreshold>-1.1251957416534424e+00</stageThreshold>
  <weakClassifiers>
    <_>
      <internalNodes>
        0 -1 145950 2.9226166009902954e-01</internalNodes>
      <leafValues>
        -5.4298645257949829e-01 5.5769228935241699e-01</leafValues></_>
    <_>
      <internalNodes>
        0 -1 657319 -8.7954034097492695e-04</internalNodes>
      <leafValues>
        -7.2431409358978271e-01 2.0521065592765808e-01</leafValues></_>
    <_>
      <internalNodes>
        0 -1 388463 8.2079495768994093e-04</internalNodes>
      <leafValues>
        1.9249609112739563e-01 -7.9608148336410522e-01</leafValues></_>
    <_>
      <internalNodes>
        0 -1 418513 5.6629790924489498e-04</internalNodes>
      <leafValues>
        1.8368534743785858e-01 -8.8265430927276611e-01</leafValues></_>
    <_>
      <internalNodes>
        0 -1 371525 -2.5350856594741344e-03</internalNodes>
      <leafValues>
        -7.0215779542922974e-01 2.9256147146224976e-01</leafValues></_>
    <_>
      <internalNodes>
        0 -1 705767 -3.2027438282966614e-04</internalNodes>
      <leafValues>
        -8.2674962282180786e-01 1.8546909093856812e-01</leafValues></_>
    <_>
      <internalNodes>
        0 -1 353595 -7.3017203249037266e-04</internalNodes>
      <leafValues>
        -8.5473895072937012e-01 1.6642020642757416e-01</leafValues></_>
    <_>
      <internalNodes>
        0 -1 699098 -1.9191245082765818e-03</internalNodes>
      <leafValues>
        -8.6132848262786865e-01 1.9888576865196228e-01</leafValues></_></weakClassifiers></stage10>
</opencv_storage>
