<?xml version="1.0"?>
<opencv_storage>
<stage13>
  <maxWeakCount>7</maxWeakCount>
  <stageThreshold>-9.6324276924133301e-01</stageThreshold>
  <weakClassifiers>
    <_>
      <internalNodes>
        0 -1 56007 -8.1865787506103516e-02</internalNodes>
      <leafValues>
        4.8888888955116272e-01 -5.5963301658630371e-01</leafValues></_>
    <_>
      <internalNodes>
        0 -1 72253 -7.3722936213016510e-03</internalNodes>
      <leafValues>
        4.2890009284019470e-01 -4.9400261044502258e-01</leafValues></_>
    <_>
      <internalNodes>
        0 -1 48218 3.2098531723022461e-02</internalNodes>
      <leafValues>
        -3.1493183970451355e-01 5.8041298389434814e-01</leafValues></_>
    <_>
      <internalNodes>
        0 -1 5847 2.5568539276719093e-03</internalNodes>
      <leafValues>
        1.9364631175994873e-01 -7.8728055953979492e-01</leafValues></_>
    <_>
      <internalNodes>
        0 -1 39538 2.9401626437902451e-02</internalNodes>
      <leafValues>
        -2.4053707718849182e-01 6.0097867250442505e-01</leafValues></_>
    <_>
      <internalNodes>
        0 -1 19531 -1.1930743930861354e-03</internalNodes>
      <leafValues>
        -5.5376142263412476e-01 3.0159345269203186e-01</leafValues></_>
    <_>
      <internalNodes>
        0 -1 68314 3.7082913331687450e-04</internalNodes>
      <leafValues>
        2.3620399832725525e-01 -5.5063885450363159e-01</leafValues></_></weakClassifiers></stage13>
</opencv_storage>
