<?xml version="1.0"?>
<opencv_storage>
<stage14>
  <maxWeakCount>22</maxWeakCount>
  <stageThreshold>-9.6286547183990479e-01</stageThreshold>
  <weakClassifiers>
    <_>
      <internalNodes>
        0 -1 100 -774012709 -241598304 286359552 1560740873 -1591697238
        150995136 -2122204949 991662271</internalNodes>
      <leafValues>
        -4.9483716487884521e-01 1.9275550544261932e-01</leafValues></_>
    <_>
      <internalNodes>
        0 -1 19336 1590822008 328454253 356816914 42846726 2097196
        -712832885 -1676803550 2053163959</internalNodes>
      <leafValues>
        -5.4326969385147095e-01 1.7463520169258118e-01</leafValues></_>
    <_>
      <internalNodes>
        0 -1 19239 -1248402670 -1492499544 1497743681 -1047293861
        864563797 109346840 146461378 1118466185</internalNodes>
      <leafValues>
        -4.6914079785346985e-01 2.2139595448970795e-01</leafValues></_>
    <_>
      <internalNodes>
        0 -1 19114 -1526656685 -2008579968 1107362259 -497692277
        -805102749 -1845362685 -1039424992 -185943358</internalNodes>
      <leafValues>
        -3.8306885957717896e-01 3.0991333723068237e-01</leafValues></_>
    <_>
      <internalNodes>
        0 -1 2063 2142237498 -134217906 2071984102 1994911742 -302025766
        301531093 2071977732 -573361017</internalNodes>
      <leafValues>
        -3.0351904034614563e-01 4.1669613122940063e-01</leafValues></_>
    <_>
      <internalNodes>
        0 -1 18848 -528165415 -1904213924 16810077 722223116 286865
        -1912434559 276980253 1267272258</internalNodes>
      <leafValues>
        -4.4119453430175781e-01 2.8505140542984009e-01</leafValues></_>
    <_>
      <internalNodes>
        0 -1 1450 1880215690 1469579410 17076228 428687552 578998408
        285212816 -108876806 256104579</internalNodes>
      <leafValues>
        -3.4983694553375244e-01 3.6732798814773560e-01</leafValues></_>
    <_>
      <internalNodes>
        0 -1 15908 923556671 -1467956856 -1879015397 -971976227
        -2096551375 -1023377280 184770947 -1937634911</internalNodes>
      <leafValues>
        -4.8274374008178711e-01 2.7705729007720947e-01</leafValues></_>
    <_>
      <internalNodes>
        0 -1 20578 -1856152532 -1390632488 1073759315 -867954433
        -1828028032 -90505088 135926353 589930842</internalNodes>
      <leafValues>
        -4.9208348989486694e-01 2.4245242774486542e-01</leafValues></_>
    <_>
      <internalNodes>
        0 -1 15080 -2006634171 -1345302063 -1862172599 1343531461
        1023541315 -217538422 -1559502592 -1914013280</internalNodes>
      <leafValues>
        -4.6812435984611511e-01 2.8744354844093323e-01</leafValues></_>
    <_>
      <internalNodes>
        0 -1 15235 303042674 1962414160 362053727 -855375547 -1022715870
        -1685454718 285423625 214750722</internalNodes>
      <leafValues>
        -4.5551556348800659e-01 2.7864357829093933e-01</leafValues></_>
    <_>
      <internalNodes>
        0 -1 11080 331871 -1911422911 336593053 -2062941813 -268402283
        -796753792 302558129 -1397112816</internalNodes>
      <leafValues>
        -4.6027728915214539e-01 3.0968269705772400e-01</leafValues></_>
    <_>
      <internalNodes>
        0 -1 10829 131881983 617382027 16830788 -939442167 -1702019008
        -670826366 -1844923495 801767542</internalNodes>
      <leafValues>
        -5.4008936882019043e-01 2.2755610942840576e-01</leafValues></_>
    <_>
      <internalNodes>
        0 -1 19306 881920409 -1241428973 -1811939282 268785024
        -805222128 -1147043198 -2105441246 2124325293</internalNodes>
      <leafValues>
        -4.3648234009742737e-01 3.1713178753852844e-01</leafValues></_>
    <_>
      <internalNodes>
        0 -1 1381 1078960670 -649879412 1073844233 1931247810 1615016090
        -1879048064 -787101543 1087228047</internalNodes>
      <leafValues>
        -3.7718662619590759e-01 3.6781308054924011e-01</leafValues></_>
    <_>
      <internalNodes>
        0 -1 17075 -2105077645 -2134310783 117969 -992460695 -503160302
        -964165632 578848947 -1196637472</internalNodes>
      <leafValues>
        -4.9345609545707703e-01 3.0157572031021118e-01</leafValues></_>
    <_>
      <internalNodes>
        0 -1 17135 -1647750308 -1991000064 1518387218 1084051841
        -1341410814 -2139029495 -1459379920 -372725632</internalNodes>
      <leafValues>
        -4.4907191395759583e-01 2.9473605751991272e-01</leafValues></_>
    <_>
      <internalNodes>
        0 -1 7648 668168188 408781002 65861 -268414837 -494909320
        -670498166 -1828656336 2055385743</internalNodes>
      <leafValues>
        -4.7570213675498962e-01 3.0642074346542358e-01</leafValues></_>
    <_>
      <internalNodes>
        0 -1 9629 2026664965 889212931 -988790518 293822467 1351287688
        -1048575346 2013524269 -76344215</internalNodes>
      <leafValues>
        -4.4905146956443787e-01 3.3968880772590637e-01</leafValues></_>
    <_>
      <internalNodes>
        0 -1 6518 -114365355 -823198091 -269586753 2108649215
        -1115740972 -1224900619 1832857437 746175805</internalNodes>
      <leafValues>
        -3.5811898112297058e-01 4.2335239052772522e-01</leafValues></_>
    <_>
      <internalNodes>
        0 -1 20891 230760727 -603766133 -1073643520 1405145234 333001259
        -771751798 645957656 1548053122</internalNodes>
      <leafValues>
        -5.1316070556640625e-01 2.8698152303695679e-01</leafValues></_>
    <_>
      <internalNodes>
        0 -1 15385 1388396815 -1856638391 1359036800 54542361 101279883
        -800948221 268470938 974945623</internalNodes>
      <leafValues>
        -4.5312687754631042e-01 3.2456651329994202e-01</leafValues></_></weakClassifiers></stage14>
</opencv_storage>
