<?xml version="1.0"?>
<opencv_storage>
<stage6>
  <maxWeakCount>14</maxWeakCount>
  <stageThreshold>-7.7301001548767090e-01</stageThreshold>
  <weakClassifiers>
    <_>
      <internalNodes>
        0 -1 1284 2079969263 2008406495 -396125858 -212623521 -641119187
        2100124523 -76480801 -8921485</internalNodes>
      <leafValues>
        -6.1448049545288086e-01 1.8041236698627472e-01</leafValues></_>
    <_>
      <internalNodes>
        0 -1 19803 -538968737 -738216641 -1235362417 710908127
        -231517907 -3425797 -222508330 -87622145</internalNodes>
      <leafValues>
        -4.1785815358161926e-01 4.3728193640708923e-01</leafValues></_>
    <_>
      <internalNodes>
        0 -1 404 2078275491 -39206525 -677775516 -3307015 1191279599
        1274792493 1940616567 1423439863</internalNodes>
      <leafValues>
        -4.6045657992362976e-01 3.5217812657356262e-01</leafValues></_>
    <_>
      <internalNodes>
        0 -1 14289 1865413306 162191026 -251469714 1729483231 1535847391
        25809114 1518973119 146271231</internalNodes>
      <leafValues>
        -5.7360959053039551e-01 2.9992562532424927e-01</leafValues></_>
    <_>
      <internalNodes>
        0 -1 18559 -1952772233 726214481 -439821921 1247468511
        -1165804753 -98881365 -602883385 -84493963</internalNodes>
      <leafValues>
        -4.4668152928352356e-01 4.1411319375038147e-01</leafValues></_>
    <_>
      <internalNodes>
        0 -1 7632 266292031 589263359 1430590463 -1372917350 -360027556
        -68542363 -368574603 2028621586</internalNodes>
      <leafValues>
        -5.9586346149444580e-01 2.7214640378952026e-01</leafValues></_>
    <_>
      <internalNodes>
        0 -1 7775 764919239 -1785859949 -645834241 -427107472 1908629806
        -5077873 427959927 -907230751</internalNodes>
      <leafValues>
        -4.9700427055358887e-01 3.5714247822761536e-01</leafValues></_>
    <_>
      <internalNodes>
        0 -1 17812 507117371 -1419317245 1368707892 -354762450 965302975
        -1467246424 134852976 82376149</internalNodes>
      <leafValues>
        -5.9384983777999878e-01 3.0069428682327271e-01</leafValues></_>
    <_>
      <internalNodes>
        0 -1 8293 668405623 -1912090401 -800505359 -1226925222 445584479
        714786985 1240167237 1962344100</internalNodes>
      <leafValues>
        -7.0876824855804443e-01 2.1675363183021545e-01</leafValues></_>
    <_>
      <internalNodes>
        0 -1 2070 1134000991 -1433988040 -1861369581 -1025848940
        2056206963 547062060 -1719054299 1490345969</internalNodes>
      <leafValues>
        -6.1698055267333984e-01 2.7411195635795593e-01</leafValues></_>
    <_>
      <internalNodes>
        0 -1 7449 -304913825 1717420255 16904663 -329494077 -75482497
        -176062240 -1685950699 2050410640</internalNodes>
      <leafValues>
        -6.5275675058364868e-01 2.4513171613216400e-01</leafValues></_>
    <_>
      <internalNodes>
        0 -1 17779 764968895 -2050178746 -805055149 1741084121 28002907
        -377401213 -1011938827 -1363404303</internalNodes>
      <leafValues>
        -4.9214288592338562e-01 3.6625596880912781e-01</leafValues></_>
    <_>
      <internalNodes>
        0 -1 5323 -589529093 -1360035857 -33620033 -94339083 -553755267
        -41975937 -33751683 -16842755</internalNodes>
      <leafValues>
        -3.9587196707725525e-01 4.6448042988777161e-01</leafValues></_>
    <_>
      <internalNodes>
        0 -1 14543 -191706937 314916959 1342178266 274137373 -23880552
        -146423727 -197131602 538209053</internalNodes>
      <leafValues>
        -5.9059542417526245e-01 3.3050394058227539e-01</leafValues></_></weakClassifiers></stage6>
</opencv_storage>
