<?xml version="1.0"?>
<opencv_storage>
<stage7>
  <maxWeakCount>8</maxWeakCount>
  <stageThreshold>-1.5086688995361328e+00</stageThreshold>
  <weakClassifiers>
    <_>
      <internalNodes>
        0 -1 16420 1035940831 -11565869 957880703 2136843677 -45892869
        -1431809910 1810086907 1566360539</internalNodes>
      <leafValues>
        -6.6738045215606689e-01 3.4492754936218262e-01</leafValues></_>
    <_>
      <internalNodes>
        0 -1 15000 871317247 1607274719 805392845 1595920587 -1853293873
        -1133999966 17004859 425507785</internalNodes>
      <leafValues>
        -5.7747918367385864e-01 4.2964753508567810e-01</leafValues></_>
    <_>
      <internalNodes>
        0 -1 12014 433864695 -144723505 -15362569 -1712623407 1922268123
        -68431637 -351945765 -1933820128</internalNodes>
      <leafValues>
        -5.3668510913848877e-01 4.6742966771125793e-01</leafValues></_>
    <_>
      <internalNodes>
        0 -1 15917 30873567 1039930015 -1723786243 -850561089 2014557183
        -1688285063 -609636388 -1125373944</internalNodes>
      <leafValues>
        -5.0915086269378662e-01 5.4374229907989502e-01</leafValues></_>
    <_>
      <internalNodes>
        0 -1 15800 1490235871 1507842505 461460287 1179607385 1946719679
        -425195469 185329935 1093445776</internalNodes>
      <leafValues>
        -5.3924250602722168e-01 5.2353525161743164e-01</leafValues></_>
    <_>
      <internalNodes>
        0 -1 5051 2145386415 1190526973 -6146 -1494433801 -1224867969
        1071022079 -419564683 -135290890</internalNodes>
      <leafValues>
        -4.9912440776824951e-01 6.4884281158447266e-01</leafValues></_>
    <_>
      <internalNodes>
        0 -1 16863 51125567 -2114613127 -931114585 -49217027 512248507
        -1171679102 -1987560833 765995532</internalNodes>
      <leafValues>
        -5.7497054338455200e-01 5.0283467769622803e-01</leafValues></_>
    <_>
      <internalNodes>
        0 -1 20194 -1331698253 -287629997 -1761361530 1624218443
        2039158626 1421953453 -336977824 1743774502</internalNodes>
      <leafValues>
        -6.2818533182144165e-01 4.4874483346939087e-01</leafValues></_></weakClassifiers></stage7>
</opencv_storage>
