<?xml version="1.0"?>
<opencv_storage>
<stage16>
  <maxWeakCount>8</maxWeakCount>
  <stageThreshold>-1.2267286777496338e+00</stageThreshold>
  <weakClassifiers>
    <_>
      <internalNodes>
        0 -1 13606 939464703 -1080229709 -1090519297 -655425 -33554497
        -100663299 -26401 -67354644</internalNodes>
      <leafValues>
        -5.0400918722152710e-01 5.3043478727340698e-01</leafValues></_>
    <_>
      <internalNodes>
        0 -1 18211 1055858687 2073440475 8466897 1372520543 -377308433
        613023872 856902203 1192825484</internalNodes>
      <leafValues>
        -5.2845185995101929e-01 3.8479426503181458e-01</leafValues></_>
    <_>
      <internalNodes>
        0 -1 10183 872366043 2013233147 -1090519209 -1069313 -16393
        -1073741825 -1 -1174523956</internalNodes>
      <leafValues>
        -3.2066106796264648e-01 6.0370278358459473e-01</leafValues></_>
    <_>
      <internalNodes>
        0 -1 20478 -8388769 1622663165 -17826011 -1459765257 1610593623
        -134774923 -8329 1861613047</internalNodes>
      <leafValues>
        -3.7635472416877747e-01 5.3647845983505249e-01</leafValues></_>
    <_>
      <internalNodes>
        0 -1 15725 290395035 -515899384 289427667 87511193 1896591907
        1353220242 2042882175 1582103705</internalNodes>
      <leafValues>
        -5.3628295660018921e-01 3.7339210510253906e-01</leafValues></_>
    <_>
      <internalNodes>
        0 -1 3862 327891851 -2105310703 1386844486 -928377960 1372276771
        537526280 823066625 -135135056</internalNodes>
      <leafValues>
        -6.7316997051239014e-01 3.2909256219863892e-01</leafValues></_>
    <_>
      <internalNodes>
        0 -1 20975 1934345003 -1992306579 -2097135604 1280049156
        -502616047 1250427270 -2104907694 -426333522</internalNodes>
      <leafValues>
        -4.1413438320159912e-01 4.9118885397911072e-01</leafValues></_>
    <_>
      <internalNodes>
        0 -1 18482 827138357 -1122471787 1413546125 1170571470
        -662686117 1216520584 294359362 775953324</internalNodes>
      <leafValues>
        -6.9884818792343140e-01 2.9045605659484863e-01</leafValues></_></weakClassifiers></stage16>
</opencv_storage>
