<?xml version="1.0"?>
<opencv_storage>
<stage18>
  <maxWeakCount>10</maxWeakCount>
  <stageThreshold>-1.3378721475601196e+00</stageThreshold>
  <weakClassifiers>
    <_>
      <internalNodes>
        0 -1 20706 -607783937 -1056980983 -1056894944 -1068904309
        -401896894 1125351432 -460999836 -259266069</internalNodes>
      <leafValues>
        -5.7725751399993896e-01 2.7852350473403931e-01</leafValues></_>
    <_>
      <internalNodes>
        0 -1 17607 1037009351 -715177853 1895825665 -1189904181
        -888481574 -1065353208 1361617483 1494068218</internalNodes>
      <leafValues>
        -4.4735664129257202e-01 4.1869267821311951e-01</leafValues></_>
    <_>
      <internalNodes>
        0 -1 11302 828977367 -447442540 -804681593 1886361274
        -1853119991 -1979547640 462091903 1770490546</internalNodes>
      <leafValues>
        -4.7514158487319946e-01 3.8227343559265137e-01</leafValues></_>
    <_>
      <internalNodes>
        0 -1 16584 -1122186765 357355601 956319197 -1689955968
        1395753455 -1291616118 -1994695320 1025735523</internalNodes>
      <leafValues>
        -4.5285615324974060e-01 3.9818391203880310e-01</leafValues></_>
    <_>
      <internalNodes>
        0 -1 2040 264388668 -514010810 1694580766 -924957778 -930381761
        -1014923253 -819871092 864357712</internalNodes>
      <leafValues>
        -7.5465911626815796e-01 2.6729121804237366e-01</leafValues></_>
    <_>
      <internalNodes>
        0 -1 21007 1136904555 -998010496 65602 -1605550000 -1163153357
        -1568489470 583657986 -158604901</internalNodes>
      <leafValues>
        -4.5781674981117249e-01 4.2595461010932922e-01</leafValues></_>
    <_>
      <internalNodes>
        0 -1 15256 -907078251 -268992513 2113834943 -9507013 -1786773572
        -570621953 -1230962 -339984488</internalNodes>
      <leafValues>
        -3.2494384050369263e-01 6.1545908451080322e-01</leafValues></_>
    <_>
      <internalNodes>
        0 -1 1150 -1819557474 -897384440 -1073676278 -824862720
        1747593222 2055766145 -938821568 -131358584</internalNodes>
      <leafValues>
        -4.6662473678588867e-01 4.3116033077239990e-01</leafValues></_>
    <_>
      <internalNodes>
        0 -1 7658 483604278 1073151741 -1342177425 -1140985874
        2097037302 -176689153 -2131 737949644</internalNodes>
      <leafValues>
        -4.1580748558044434e-01 4.7598561644554138e-01</leafValues></_>
    <_>
      <internalNodes>
        0 -1 14295 557914361 1762197593 34603330 151622029 805343387
        -108855125 -2146924529 353374944</internalNodes>
      <leafValues>
        -5.6186306476593018e-01 3.5618636012077332e-01</leafValues></_></weakClassifiers></stage18>
</opencv_storage>
