<?xml version="1.0"?>
<opencv_storage>
<stage14>
  <maxWeakCount>10</maxWeakCount>
  <stageThreshold>-9.8843377828598022e-01</stageThreshold>
  <weakClassifiers>
    <_>
      <internalNodes>
        0 -1 3791 -6293525 -956444259 1342706275 -497065781 -803499466
        1116340231 -1039144303 -2884897</internalNodes>
      <leafValues>
        -5.3188931941986084e-01 4.3589743971824646e-01</leafValues></_>
    <_>
      <internalNodes>
        0 -1 17695 867899903 -742190885 1497450943 -896040637 1636298939
        1678803592 1132546911 90733544</internalNodes>
      <leafValues>
        -5.6687092781066895e-01 3.3777427673339844e-01</leafValues></_>
    <_>
      <internalNodes>
        0 -1 15695 958086079 2072084957 -1827549027 466946263 1913387723
        -376766463 728987251 1130195866</internalNodes>
      <leafValues>
        -5.1153093576431274e-01 3.5743263363838196e-01</leafValues></_>
    <_>
      <internalNodes>
        0 -1 5966 1137700863 -899038253 1628410178 1658638510 1661694551
        36356106 -1291077305 -614990953</internalNodes>
      <leafValues>
        -4.0965482592582703e-01 4.7205504775047302e-01</leafValues></_>
    <_>
      <internalNodes>
        0 -1 20678 -912669745 181354835 289526032 1623448284 -268298237
        1920991368 -1423669161 1917839847</internalNodes>
      <leafValues>
        -5.9515285491943359e-01 3.6831143498420715e-01</leafValues></_>
    <_>
      <internalNodes>
        0 -1 13525 16858775 1524564435 1497944141 1200983263 -100482424
        -645890038 318941463 419990240</internalNodes>
      <leafValues>
        -5.2613002061843872e-01 3.9408668875694275e-01</leafValues></_>
    <_>
      <internalNodes>
        0 -1 15374 324876285 1775599703 1393879095 -1916206638 -74700116
        -1174404981 -628232139 998252804</internalNodes>
      <leafValues>
        -5.3038805723190308e-01 4.1723144054412842e-01</leafValues></_>
    <_>
      <internalNodes>
        0 -1 2576 1893207966 -205110859 -1251592789 716310330 269642683
        865011867 -2105456386 1018233635</internalNodes>
      <leafValues>
        -6.8475049734115601e-01 2.8739207983016968e-01</leafValues></_>
    <_>
      <internalNodes>
        0 -1 10630 324474819 1733854272 1342706946 -970522597 570618163
        -971833181 554803971 1366556928</internalNodes>
      <leafValues>
        -6.7353987693786621e-01 2.9831704497337341e-01</leafValues></_>
    <_>
      <internalNodes>
        0 -1 18379 1061761279 -351171967 155226255 -674672481 1261265083
        -1555996666 -341120590 -1701273256</internalNodes>
      <leafValues>
        -5.1091390848159790e-01 4.3853533267974854e-01</leafValues></_></weakClassifiers></stage14>
</opencv_storage>
