<?xml version="1.0"?>
<opencv_storage>
<stage10>
  <maxWeakCount>13</maxWeakCount>
  <stageThreshold>-1.5183647871017456e+00</stageThreshold>
  <weakClassifiers>
    <_>
      <internalNodes>
        0 -1 20523 2.0963685587048531e-02</internalNodes>
      <leafValues>
        -5.4370367527008057e-01 3.7313431501388550e-01</leafValues></_>
    <_>
      <internalNodes>
        0 -1 261922 -3.2418237533420324e-03</internalNodes>
      <leafValues>
        -7.0092678070068359e-01 1.5024423599243164e-01</leafValues></_>
    <_>
      <internalNodes>
        0 -1 291478 6.8243261193856597e-04</internalNodes>
      <leafValues>
        1.5565451979637146e-01 -6.8190592527389526e-01</leafValues></_>
    <_>
      <internalNodes>
        0 -1 389281 -4.9433689564466476e-03</internalNodes>
      <leafValues>
        3.0510947108268738e-01 -3.5725313425064087e-01</leafValues></_>
    <_>
      <internalNodes>
        0 -1 280373 1.0712426155805588e-03</internalNodes>
      <leafValues>
        1.7463578283786774e-01 -8.5335564613342285e-01</leafValues></_>
    <_>
      <internalNodes>
        0 -1 315721 -5.5535300634801388e-04</internalNodes>
      <leafValues>
        -5.4417878389358521e-01 1.8931661546230316e-01</leafValues></_>
    <_>
      <internalNodes>
        0 -1 190932 -1.2209056876599789e-03</internalNodes>
      <leafValues>
        -6.4863115549087524e-01 1.5848299860954285e-01</leafValues></_>
    <_>
      <internalNodes>
        0 -1 130966 2.6401879731565714e-03</internalNodes>
      <leafValues>
        1.6099660098552704e-01 -6.3033902645111084e-01</leafValues></_>
    <_>
      <internalNodes>
        0 -1 232635 -7.3973584221675992e-04</internalNodes>
      <leafValues>
        -5.4944264888763428e-01 1.9035138189792633e-01</leafValues></_>
    <_>
      <internalNodes>
        0 -1 22503 -6.0779177583754063e-03</internalNodes>
      <leafValues>
        -5.4939359426498413e-01 2.0354998111724854e-01</leafValues></_>
    <_>
      <internalNodes>
        0 -1 218404 -7.1537739131599665e-04</internalNodes>
      <leafValues>
        -6.6178494691848755e-01 1.3963702321052551e-01</leafValues></_>
    <_>
      <internalNodes>
        0 -1 349157 4.7851214185357094e-04</internalNodes>
      <leafValues>
        1.5024368464946747e-01 -6.6601413488388062e-01</leafValues></_>
    <_>
      <internalNodes>
        0 -1 214689 2.4989917874336243e-03</internalNodes>
      <leafValues>
        1.1091009527444839e-01 -8.2120442390441895e-01</leafValues></_></weakClassifiers></stage10>
</opencv_storage>
