<?xml version="1.0"?>
<opencv_storage>
<stage3>
  <maxWeakCount>6</maxWeakCount>
  <stageThreshold>-1.1186071634292603e+00</stageThreshold>
  <weakClassifiers>
    <_>
      <internalNodes>
        0 -1 56821 2.4035708606243134e-01</internalNodes>
      <leafValues>
        -5.9842520952224731e-01 6.2857145071029663e-01</leafValues></_>
    <_>
      <internalNodes>
        0 -1 6633 1.1189509928226471e-01</internalNodes>
      <leafValues>
        -3.9029631018638611e-01 7.2072017192840576e-01</leafValues></_>
    <_>
      <internalNodes>
        0 -1 120900 -2.6883643586188555e-03</internalNodes>
      <leafValues>
        -8.3808588981628418e-01 2.6969969272613525e-01</leafValues></_>
    <_>
      <internalNodes>
        0 -1 159228 3.6568450741469860e-03</internalNodes>
      <leafValues>
        2.5271165370941162e-01 -9.2576211690902710e-01</leafValues></_>
    <_>
      <internalNodes>
        0 -1 143938 -7.3465227615088224e-04</internalNodes>
      <leafValues>
        -8.2724070549011230e-01 1.8818199634552002e-01</leafValues></_>
    <_>
      <internalNodes>
        0 -1 151268 -2.9540780815295875e-04</internalNodes>
      <leafValues>
        -7.7302175760269165e-01 3.5254821181297302e-01</leafValues></_></weakClassifiers></stage3>
</opencv_storage>
