<?xml version="1.0"?>
<opencv_storage>
<stage1>
  <maxWeakCount>5</maxWeakCount>
  <stageThreshold>-9.7967821359634399e-01</stageThreshold>
  <weakClassifiers>
    <_>
      <internalNodes>
        0 -1 8251 8.4579609334468842e-02</internalNodes>
      <leafValues>
        -7.1673822402954102e-01 6.4835166931152344e-01</leafValues></_>
    <_>
      <internalNodes>
        0 -1 153888 4.3756328523159027e-02</internalNodes>
      <leafValues>
        -5.4547530412673950e-01 7.0416378974914551e-01</leafValues></_>
    <_>
      <internalNodes>
        0 -1 802 1.0040274262428284e-01</internalNodes>
      <leafValues>
        -3.7062290310859680e-01 7.8984791040420532e-01</leafValues></_>
    <_>
      <internalNodes>
        0 -1 138459 9.3262793961912394e-04</internalNodes>
      <leafValues>
        3.3399206399917603e-01 -9.5128941535949707e-01</leafValues></_>
    <_>
      <internalNodes>
        0 -1 143966 -2.6664640754461288e-03</internalNodes>
      <leafValues>
        -9.0724021196365356e-01 3.1916609406471252e-01</leafValues></_></weakClassifiers></stage1>
</opencv_storage>
