<?xml version="1.0"?>
<opencv_storage>
<stage19>
  <maxWeakCount>14</maxWeakCount>
  <stageThreshold>-1.4856398105621338e+00</stageThreshold>
  <weakClassifiers>
    <_>
      <internalNodes>
        0 -1 11524 5.7074576616287231e-02</internalNodes>
      <leafValues>
        -5.7466065883636475e-01 1.8446601927280426e-01</leafValues></_>
    <_>
      <internalNodes>
        0 -1 69281 -4.6743154525756836e-03</internalNodes>
      <leafValues>
        4.7964778542518616e-01 -2.4033460021018982e-01</leafValues></_>
    <_>
      <internalNodes>
        0 -1 92588 1.6921325586736202e-03</internalNodes>
      <leafValues>
        -2.3645794391632080e-01 5.2146714925765991e-01</leafValues></_>
    <_>
      <internalNodes>
        0 -1 112940 -1.9521820358932018e-03</internalNodes>
      <leafValues>
        -5.5162900686264038e-01 1.7871980369091034e-01</leafValues></_>
    <_>
      <internalNodes>
        0 -1 23379 8.1311343237757683e-03</internalNodes>
      <leafValues>
        -1.4996603131294250e-01 6.3590306043624878e-01</leafValues></_>
    <_>
      <internalNodes>
        0 -1 143590 -2.7864018920809031e-04</internalNodes>
      <leafValues>
        -5.8610939979553223e-01 1.5005341172218323e-01</leafValues></_>
    <_>
      <internalNodes>
        0 -1 24047 -2.6412792503833771e-03</internalNodes>
      <leafValues>
        7.7198743820190430e-01 -1.1102008074522018e-01</leafValues></_>
    <_>
      <internalNodes>
        0 -1 127955 1.6403533518314362e-02</internalNodes>
      <leafValues>
        -2.6723995804786682e-01 3.5807058215141296e-01</leafValues></_>
    <_>
      <internalNodes>
        0 -1 69722 -3.3229845575988293e-03</internalNodes>
      <leafValues>
        6.5884536504745483e-01 -1.6661722958087921e-01</leafValues></_>
    <_>
      <internalNodes>
        0 -1 182902 -1.8382272683084011e-03</internalNodes>
      <leafValues>
        -7.0203727483749390e-01 1.5538421273231506e-01</leafValues></_>
    <_>
      <internalNodes>
        0 -1 80376 7.2471471503376961e-03</internalNodes>
      <leafValues>
        -2.2149674594402313e-01 5.3406381607055664e-01</leafValues></_>
    <_>
      <internalNodes>
        0 -1 123113 -2.7004629373550415e-03</internalNodes>
      <leafValues>
        -6.9277191162109375e-01 1.7219804227352142e-01</leafValues></_>
    <_>
      <internalNodes>
        0 -1 155836 -1.9755715038627386e-03</internalNodes>
      <leafValues>
        -5.8766430616378784e-01 1.3579440116882324e-01</leafValues></_>
    <_>
      <internalNodes>
        0 -1 173056 -2.1084681793581694e-04</internalNodes>
      <leafValues>
        -4.2721989750862122e-01 2.2741805016994476e-01</leafValues></_></weakClassifiers></stage19>
</opencv_storage>
