<?xml version="1.0"?>
<opencv_storage>
<stage18>
  <maxWeakCount>11</maxWeakCount>
  <stageThreshold>1.6738619804382324e+00</stageThreshold>
  <weakClassifiers>
    <_>
      <internalNodes>
        0 -1 922 5.8466386795043945e-01</internalNodes>
      <leafValues>
        9.9644619226455688e-01 -1.</leafValues></_>
    <_>
      <internalNodes>
        0 -1 1103 7.4003517627716064e-01</internalNodes>
      <leafValues>
        9.8263674974441528e-01 1.4540484547615051e-01</leafValues></_>
    <_>
      <internalNodes>
        0 -1 25458 2.3144558072090149e-03</internalNodes>
      <leafValues>
        8.9873969554901123e-01 -4.2351156473159790e-01</leafValues></_>
    <_>
      <internalNodes>
        0 -1 27593 -3.4041869640350342e-01</internalNodes>
      <leafValues>
        -4.4406947493553162e-01 7.1007162332534790e-01</leafValues></_>
    <_>
      <internalNodes>
        0 -1 20317 1.3295409735292196e-04</internalNodes>
      <leafValues>
        7.5738126039505005e-01 -3.8930335640907288e-01</leafValues></_>
    <_>
      <internalNodes>
        0 -1 131875 4.1709700599312782e-03</internalNodes>
      <leafValues>
        -3.1523919105529785e-01 9.3431830406188965e-01</leafValues></_>
    <_>
      <internalNodes>
        0 -1 52081 3.3178876037709415e-04</internalNodes>
      <leafValues>
        -3.0628514289855957e-01 9.7971910238265991e-01</leafValues></_>
    <_>
      <internalNodes>
        0 -1 153997 1.3160945381969213e-03</internalNodes>
      <leafValues>
        1. -2.0991940796375275e-01</leafValues></_>
    <_>
      <internalNodes>
        0 -1 22163 -2.4910672800615430e-04</internalNodes>
      <leafValues>
        -3.5246539115905762e-01 7.5045728683471680e-01</leafValues></_>
    <_>
      <internalNodes>
        0 -1 89572 -1.0734557872638106e-03</internalNodes>
      <leafValues>
        -6.6069716215133667e-01 5.5465984344482422e-01</leafValues></_>
    <_>
      <internalNodes>
        0 -1 1003 5.0651967525482178e-01</internalNodes>
      <leafValues>
        3.8536620140075684e-01 -8.2278591394424438e-01</leafValues></_></weakClassifiers></stage18>
</opencv_storage>
