<?xml version="1.0"?>
<opencv_storage>
<stage7>
  <maxWeakCount>8</maxWeakCount>
  <stageThreshold>-1.4148483276367188e+00</stageThreshold>
  <weakClassifiers>
    <_>
      <internalNodes>
        0 -1 38071 835727869 -103214893 1297207773 -2667247 -377439489
        -41746015 -1432965441 -1076090436</internalNodes>
      <leafValues>
        -5.8282947540283203e-01 5.6768560409545898e-01</leafValues></_>
    <_>
      <internalNodes>
        0 -1 27262 387067196 -36843065 1486082255 -44170924 -821496851
        -7567199 -1446339842 1071122488</internalNodes>
      <leafValues>
        -5.9346735477447510e-01 4.7809493541717529e-01</leafValues></_>
    <_>
      <internalNodes>
        0 -1 46700 933198843 -539667113 -670113331 1606797407 2013458458
        -1920991084 2055252863 467424224</internalNodes>
      <leafValues>
        -6.3346236944198608e-01 4.4032469391822815e-01</leafValues></_>
    <_>
      <internalNodes>
        0 -1 47303 434060253 -3075751 1966627677 1573855643 2023258799
        -1263989752 2072529023 780939704</internalNodes>
      <leafValues>
        -5.4982608556747437e-01 4.8404237627983093e-01</leafValues></_>
    <_>
      <internalNodes>
        0 -1 8102 -286331145 1828257534 -111762 -285415484 2147475319
        2080341999 -561197 -222824449</internalNodes>
      <leafValues>
        -4.9276116490364075e-01 5.8481907844543457e-01</leafValues></_>
    <_>
      <internalNodes>
        0 -1 46578 956642303 970314251 -117416499 1797234716 -1568639009
        -1180139382 1837370239 1548230105</internalNodes>
      <leafValues>
        -5.4567509889602661e-01 5.2523446083068848e-01</leafValues></_>
    <_>
      <internalNodes>
        0 -1 26815 321925533 -1185611445 1090885083 -2062139106
        587432637 -106266472 -2096624868 1006109604</internalNodes>
      <leafValues>
        -6.2314820289611816e-01 4.9546569585800171e-01</leafValues></_>
    <_>
      <internalNodes>
        0 -1 40586 487595421 2094387635 -661400679 -862625327
        -1660734569 -1282498167 2051534897 523023800</internalNodes>
      <leafValues>
        -6.5295761823654175e-01 4.6162477135658264e-01</leafValues></_></weakClassifiers></stage7>
</opencv_storage>
