<?xml version="1.0"?>
<opencv_storage>
<stage12>
  <maxWeakCount>7</maxWeakCount>
  <stageThreshold>-1.3272526264190674e+00</stageThreshold>
  <weakClassifiers>
    <_>
      <internalNodes>
        0 -1 49964 399457247 -8309901 -1684694545 -543172275 -133305093
        -18152513 -1349928003 801389120</internalNodes>
      <leafValues>
        -6.9765561819076538e-01 1.8171428143978119e-01</leafValues></_>
    <_>
      <internalNodes>
        0 -1 40377 1071199743 -2630438 1501728793 1509517373 2073689019
        -1022392407 2064545883 2105338095</internalNodes>
      <leafValues>
        -5.4808098077774048e-01 4.1411250829696655e-01</leafValues></_>
    <_>
      <internalNodes>
        0 -1 18071 691941183 -1413500899 -179244549 -318959269 427847935
        -307523351 2072538327 1032599712</internalNodes>
      <leafValues>
        -6.3929533958435059e-01 3.5530823469161987e-01</leafValues></_>
    <_>
      <internalNodes>
        0 -1 51257 -1132986624 883803870 -649936387 2068533415
        -1567888591 831267338 -2103367676 346815467</internalNodes>
      <leafValues>
        -6.9399243593215942e-01 3.6772179603576660e-01</leafValues></_>
    <_>
      <internalNodes>
        0 -1 45500 494081527 1406242969 620877499 930992227 356352511
        2074804385 2014546907 474864008</internalNodes>
      <leafValues>
        -6.1122977733612061e-01 3.8482922315597534e-01</leafValues></_>
    <_>
      <internalNodes>
        0 -1 49535 836713471 2075285446 1493276893 1561713375 -139402293
        -427188224 696499027 526180316</internalNodes>
      <leafValues>
        -5.5320233106613159e-01 4.4435885548591614e-01</leafValues></_>
    <_>
      <internalNodes>
        0 -1 32024 1040007071 -286262290 2147364855 -335859971 -8560929
        -537001985 -34750593 -2084940</internalNodes>
      <leafValues>
        -4.7729271650314331e-01 5.7464045286178589e-01</leafValues></_></weakClassifiers></stage12>
</opencv_storage>
