<?xml version="1.0"?>
<opencv_storage>
<stage19>
  <maxWeakCount>15</maxWeakCount>
  <stageThreshold>-1.1567966938018799e+00</stageThreshold>
  <weakClassifiers>
    <_>
      <internalNodes>
        0 -1 80924 1.1016093194484711e-02</internalNodes>
      <leafValues>
        -4.8013246059417725e-01 2.7397260069847107e-01</leafValues></_>
    <_>
      <internalNodes>
        0 -1 53831 9.6073141321539879e-04</internalNodes>
      <leafValues>
        2.5369772315025330e-01 -3.6534908413887024e-01</leafValues></_>
    <_>
      <internalNodes>
        0 -1 84944 -4.3679098598659039e-04</internalNodes>
      <leafValues>
        -4.0053656697273254e-01 2.3095418512821198e-01</leafValues></_>
    <_>
      <internalNodes>
        0 -1 48923 -2.6968431193381548e-03</internalNodes>
      <leafValues>
        -4.9757906794548035e-01 1.5340210497379303e-01</leafValues></_>
    <_>
      <internalNodes>
        0 -1 55123 7.0444429293274879e-03</internalNodes>
      <leafValues>
        1.9927711784839630e-01 -4.9303951859474182e-01</leafValues></_>
    <_>
      <internalNodes>
        0 -1 86056 2.7648653835058212e-02</internalNodes>
      <leafValues>
        -1.4783504605293274e-01 5.9439849853515625e-01</leafValues></_>
    <_>
      <internalNodes>
        0 -1 88392 2.4040187709033489e-03</internalNodes>
      <leafValues>
        1.3398380577564240e-01 -6.8319863080978394e-01</leafValues></_>
    <_>
      <internalNodes>
        0 -1 77224 -2.3456239141523838e-03</internalNodes>
      <leafValues>
        -5.0142574310302734e-01 1.3643340766429901e-01</leafValues></_>
    <_>
      <internalNodes>
        0 -1 49549 -4.3234185432083905e-04</internalNodes>
      <leafValues>
        -4.0993314981460571e-01 1.7098630964756012e-01</leafValues></_>
    <_>
      <internalNodes>
        0 -1 86022 -3.1025046482682228e-02</internalNodes>
      <leafValues>
        7.8099608421325684e-01 -1.2067188322544098e-01</leafValues></_>
    <_>
      <internalNodes>
        0 -1 40975 1.4804951846599579e-02</internalNodes>
      <leafValues>
        1.5189746022224426e-01 -5.7578539848327637e-01</leafValues></_>
    <_>
      <internalNodes>
        0 -1 2342 2.7007381431758404e-03</internalNodes>
      <leafValues>
        -1.1733303219079971e-01 7.0203554630279541e-01</leafValues></_>
    <_>
      <internalNodes>
        0 -1 46387 -3.4313383512198925e-03</internalNodes>
      <leafValues>
        -7.0837146043777466e-01 1.2390258163213730e-01</leafValues></_>
    <_>
      <internalNodes>
        0 -1 58406 2.2500069462694228e-04</internalNodes>
      <leafValues>
        2.0320181548595428e-01 -3.7776184082031250e-01</leafValues></_>
    <_>
      <internalNodes>
        0 -1 70356 -6.7422986030578613e-03</internalNodes>
      <leafValues>
        8.3647704124450684e-01 -1.0700047016143799e-01</leafValues></_></weakClassifiers></stage19>
</opencv_storage>
