<?xml version="1.0"?>
<opencv_storage>
<cascade>
  <stageType>BOOST</stageType>
  <featureType>HAAR</featureType>
  <height>15</height>
  <width>30</width>
  <stageParams>
    <boostType>GAB</boostType>
    <minHitRate>9.9998998641967773e-01</minHitRate>
    <maxFalseAlarm>5.0000000000000000e-01</maxFalseAlarm>
    <weightTrimRate>9.4999999999999996e-01</weightTrimRate>
    <maxDepth>1</maxDepth>
    <maxWeakCount>100</maxWeakCount></stageParams>
  <featureParams>
    <maxCatCount>0</maxCatCount>
    <featSize>1</featSize>
    <mode>BASIC</mode></featureParams>
  <stageNum>20</stageNum>
  <stages>
    <!-- stage 0 -->
    <_>
      <maxWeakCount>3</maxWeakCount>
      <stageThreshold>-8.3104324340820312e-01</stageThreshold>
      <weakClassifiers>
        <_>
          <internalNodes>
            0 -1 9 9.6615061163902283e-02</internalNodes>
          <leafValues>
            -8.5858583450317383e-01 1.</leafValues></_>
        <_>
          <internalNodes>
            0 -1 41 5.2404999732971191e-02</internalNodes>
          <leafValues>
            -7.5821977853775024e-01 9.6738666296005249e-01</leafValues></_>
        <_>
          <internalNodes>
            0 -1 17 7.8621871769428253e-02</internalNodes>
          <leafValues>
            -8.6909383535385132e-01 7.8576242923736572e-01</leafValues></_></weakClassifiers></_>
    <!-- stage 1 -->
    <_>
      <maxWeakCount>3</maxWeakCount>
      <stageThreshold>-5.3126233816146851e-01</stageThreshold>
      <weakClassifiers>
        <_>
          <internalNodes>
            0 -1 28 1.6479182243347168e-01</internalNodes>
          <leafValues>
            -8.5567009449005127e-01 9.0243899822235107e-01</leafValues></_>
        <_>
          <internalNodes>
            0 -1 7 5.5708367377519608e-02</internalNodes>
          <leafValues>
            -6.7559224367141724e-01 8.6901557445526123e-01</leafValues></_>
        <_>
          <internalNodes>
            0 -1 44 9.7420185804367065e-02</internalNodes>
          <leafValues>
            -5.3939229249954224e-01 1.</leafValues></_></weakClassifiers></_>
    <!-- stage 2 -->
    <_>
      <maxWeakCount>3</maxWeakCount>
      <stageThreshold>-9.4662886857986450e-01</stageThreshold>
      <weakClassifiers>
        <_>
          <internalNodes>
            0 -1 27 2.2491136193275452e-01</internalNodes>
          <leafValues>
            -7.6470589637756348e-01 8.8888889551162720e-01</leafValues></_>
        <_>
          <internalNodes>
            0 -1 12 2.6165312528610229e-01</internalNodes>
          <leafValues>
            -7.0880907773971558e-01 7.5000470876693726e-01</leafValues></_>
        <_>
          <internalNodes>
            0 -1 39 -1.0652781929820776e-03</internalNodes>
          <leafValues>
            -1. 5.2688610553741455e-01</leafValues></_></weakClassifiers></_>
    <!-- stage 3 -->
    <_>
      <maxWeakCount>2</maxWeakCount>
      <stageThreshold>-3.6891913414001465e-01</stageThreshold>
      <weakClassifiers>
        <_>
          <internalNodes>
            0 -1 13 2.9675844311714172e-01</internalNodes>
          <leafValues>
            -8.0851066112518311e-01 6.8181818723678589e-01</leafValues></_>
        <_>
          <internalNodes>
            0 -1 39 1.9063916988670826e-03</internalNodes>
          <leafValues>
            4.3959149718284607e-01 -1.</leafValues></_></weakClassifiers></_>
    <!-- stage 4 -->
    <_>
      <maxWeakCount>2</maxWeakCount>
      <stageThreshold>-8.7200783193111420e-02</stageThreshold>
      <weakClassifiers>
        <_>
          <internalNodes>
            0 -1 33 1.4159739017486572e-01</internalNodes>
          <leafValues>
            -6.6972476243972778e-01 9.3103450536727905e-01</leafValues></_>
        <_>
          <internalNodes>
            0 -1 14 1.0978950560092926e-01</internalNodes>
          <leafValues>
            -9.1898232698440552e-01 5.8252400159835815e-01</leafValues></_></weakClassifiers></_>
    <!-- stage 5 -->
    <_>
      <maxWeakCount>2</maxWeakCount>
      <stageThreshold>-2.6948717236518860e-01</stageThreshold>
      <weakClassifiers>
        <_>
          <internalNodes>
            0 -1 55 4.9013990908861160e-02</internalNodes>
          <leafValues>
            -6.6666668653488159e-01 8.6666667461395264e-01</leafValues></_>
        <_>
          <internalNodes>
            0 -1 29 -2.4040462449193001e-03</internalNodes>
          <leafValues>
            -9.7319412231445312e-01 3.9717951416969299e-01</leafValues></_></weakClassifiers></_>
    <!-- stage 6 -->
    <_>
      <maxWeakCount>2</maxWeakCount>
      <stageThreshold>-1.8511278927326202e-01</stageThreshold>
      <weakClassifiers>
        <_>
          <internalNodes>
            0 -1 52 1.0370245575904846e-01</internalNodes>
          <leafValues>
            -6.1403506994247437e-01 1.</leafValues></_>
        <_>
          <internalNodes>
            0 -1 22 3.2424521632492542e-03</internalNodes>
          <leafValues>
            4.2892229557037354e-01 -9.5259422063827515e-01</leafValues></_></weakClassifiers></_>
    <!-- stage 7 -->
    <_>
      <maxWeakCount>4</maxWeakCount>
      <stageThreshold>-6.3939392566680908e-01</stageThreshold>
      <weakClassifiers>
        <_>
          <internalNodes>
            0 -1 48 1.4162167906761169e-01</internalNodes>
          <leafValues>
            -6.0000002384185791e-01 1.</leafValues></_>
        <_>
          <internalNodes>
            0 -1 15 5.9750616550445557e-02</internalNodes>
          <leafValues>
            -8.5052579641342163e-01 5.3756803274154663e-01</leafValues></_>
        <_>
          <internalNodes>
            0 -1 40 -1.9587302813306451e-04</internalNodes>
          <leafValues>
            -9.6572357416152954e-01 3.8237124681472778e-01</leafValues></_>
        <_>
          <internalNodes>
            0 -1 34 -2.0887674763798714e-03</internalNodes>
          <leafValues>
            -1. 4.2876064777374268e-01</leafValues></_></weakClassifiers></_>
    <!-- stage 8 -->
    <_>
      <maxWeakCount>4</maxWeakCount>
      <stageThreshold>-5.2714359760284424e-01</stageThreshold>
      <weakClassifiers>
        <_>
          <internalNodes>
            0 -1 32 1.0847111791372299e-01</internalNodes>
          <leafValues>
            -6.5048545598983765e-01 6.0000002384185791e-01</leafValues></_>
        <_>
          <internalNodes>
            0 -1 45 1.0151076316833496e-01</internalNodes>
          <leafValues>
            -6.0899949073791504e-01 6.3131964206695557e-01</leafValues></_>
        <_>
          <internalNodes>
            0 -1 8 8.3154719322919846e-04</internalNodes>
          <leafValues>
            4.2051166296005249e-01 -9.2491507530212402e-01</leafValues></_>
        <_>
          <internalNodes>
            0 -1 31 -6.1776925576850772e-05</internalNodes>
          <leafValues>
            -8.2065308094024658e-01 4.0677097439765930e-01</leafValues></_></weakClassifiers></_>
    <!-- stage 9 -->
    <_>
      <maxWeakCount>2</maxWeakCount>
      <stageThreshold>-2.2136186063289642e-01</stageThreshold>
      <weakClassifiers>
        <_>
          <internalNodes>
            0 -1 51 9.0338654816150665e-02</internalNodes>
          <leafValues>
            -5.6896549463272095e-01 9.0909093618392944e-01</leafValues></_>
        <_>
          <internalNodes>
            0 -1 57 1.9013974815607071e-03</internalNodes>
          <leafValues>
            3.4760364890098572e-01 -1.</leafValues></_></weakClassifiers></_>
    <!-- stage 10 -->
    <_>
      <maxWeakCount>4</maxWeakCount>
      <stageThreshold>-9.3121004104614258e-01</stageThreshold>
      <weakClassifiers>
        <_>
          <internalNodes>
            0 -1 10 9.0526983141899109e-02</internalNodes>
          <leafValues>
            -7.0526313781738281e-01 4.8837208747863770e-01</leafValues></_>
        <_>
          <internalNodes>
            0 -1 4 -2.3414702154695988e-03</internalNodes>
          <leafValues>
            3.9403358101844788e-01 -8.7090188264846802e-01</leafValues></_>
        <_>
          <internalNodes>
            0 -1 36 -8.4653793601319194e-04</internalNodes>
          <leafValues>
            -9.4048029184341431e-01 3.2784226536750793e-01</leafValues></_>
        <_>
          <internalNodes>
            0 -1 46 -6.0144544113427401e-04</internalNodes>
          <leafValues>
            -9.6846657991409302e-01 3.1711274385452271e-01</leafValues></_></weakClassifiers></_>
    <!-- stage 11 -->
    <_>
      <maxWeakCount>2</maxWeakCount>
      <stageThreshold>-4.9850970506668091e-01</stageThreshold>
      <weakClassifiers>
        <_>
          <internalNodes>
            0 -1 6 -1.0345019400119781e-02</internalNodes>
          <leafValues>
            3.3333334326744080e-01 -8.0246913433074951e-01</leafValues></_>
        <_>
          <internalNodes>
            0 -1 53 1.4828226994723082e-03</internalNodes>
          <leafValues>
            3.0395942926406860e-01 -1.</leafValues></_></weakClassifiers></_>
    <!-- stage 12 -->
    <_>
      <maxWeakCount>4</maxWeakCount>
      <stageThreshold>-5.2069997787475586e-01</stageThreshold>
      <weakClassifiers>
        <_>
          <internalNodes>
            0 -1 0 -1.5178463421761990e-02</internalNodes>
          <leafValues>
            7.2222220897674561e-01 -7.0588237047195435e-01</leafValues></_>
        <_>
          <internalNodes>
            0 -1 47 -1.8692542798817158e-03</internalNodes>
          <leafValues>
            -9.7011458873748779e-01 3.5850402712821960e-01</leafValues></_>
        <_>
          <internalNodes>
            0 -1 30 1.8317341804504395e-01</internalNodes>
          <leafValues>
            -5.7173943519592285e-01 7.0219713449478149e-01</leafValues></_>
        <_>
          <internalNodes>
            0 -1 21 4.2411550879478455e-02</internalNodes>
          <leafValues>
            -9.1449135541915894e-01 3.9841774106025696e-01</leafValues></_></weakClassifiers></_>
    <!-- stage 13 -->
    <_>
      <maxWeakCount>2</maxWeakCount>
      <stageThreshold>-3.4250018000602722e-01</stageThreshold>
      <weakClassifiers>
        <_>
          <internalNodes>
            0 -1 5 4.5461151748895645e-02</internalNodes>
          <leafValues>
            -7.1717172861099243e-01 6.4102566242218018e-01</leafValues></_>
        <_>
          <internalNodes>
            0 -1 35 1.9277029205113649e-03</internalNodes>
          <leafValues>
            3.7467151880264282e-01 -8.1297296285629272e-01</leafValues></_></weakClassifiers></_>
    <!-- stage 14 -->
    <_>
      <maxWeakCount>3</maxWeakCount>
      <stageThreshold>-3.9228036999702454e-01</stageThreshold>
      <weakClassifiers>
        <_>
          <internalNodes>
            0 -1 2 -5.6549593806266785e-02</internalNodes>
          <leafValues>
            2.8813558816909790e-01 -7.9746836423873901e-01</leafValues></_>
        <_>
          <internalNodes>
            0 -1 37 -8.5478536784648895e-03</internalNodes>
          <leafValues>
            -9.5445752143859863e-01 2.4102947115898132e-01</leafValues></_>
        <_>
          <internalNodes>
            0 -1 54 1.1766555253416300e-03</internalNodes>
          <leafValues>
            3.1614121794700623e-01 -9.2144542932510376e-01</leafValues></_></weakClassifiers></_>
    <!-- stage 15 -->
    <_>
      <maxWeakCount>4</maxWeakCount>
      <stageThreshold>-8.7374436855316162e-01</stageThreshold>
      <weakClassifiers>
        <_>
          <internalNodes>
            0 -1 1 -4.1009448468685150e-02</internalNodes>
          <leafValues>
            6.6666668653488159e-01 -6.1111110448837280e-01</leafValues></_>
        <_>
          <internalNodes>
            0 -1 50 2.0298934541642666e-03</internalNodes>
          <leafValues>
            3.0845057964324951e-01 -9.3437433242797852e-01</leafValues></_>
        <_>
          <internalNodes>
            0 -1 16 3.3978524152189493e-04</internalNodes>
          <leafValues>
            3.1097975373268127e-01 -9.0798491239547729e-01</leafValues></_>
        <_>
          <internalNodes>
            0 -1 56 4.4384101784089580e-05</internalNodes>
          <leafValues>
            3.3690106868743896e-01 -9.2711222171783447e-01</leafValues></_></weakClassifiers></_>
    <!-- stage 16 -->
    <_>
      <maxWeakCount>3</maxWeakCount>
      <stageThreshold>-4.0815412998199463e-01</stageThreshold>
      <weakClassifiers>
        <_>
          <internalNodes>
            0 -1 23 1.0351821035146713e-01</internalNodes>
          <leafValues>
            -7.2413790225982666e-01 3.3333334326744080e-01</leafValues></_>
        <_>
          <internalNodes>
            0 -1 25 4.5787557610310614e-04</internalNodes>
          <leafValues>
            2.5498685240745544e-01 -9.5530724525451660e-01</leafValues></_>
        <_>
          <internalNodes>
            0 -1 24 3.5051337908953428e-04</internalNodes>
          <leafValues>
            2.1381977200508118e-01 -1.</leafValues></_></weakClassifiers></_>
    <!-- stage 17 -->
    <_>
      <maxWeakCount>3</maxWeakCount>
      <stageThreshold>-4.1109690070152283e-01</stageThreshold>
      <weakClassifiers>
        <_>
          <internalNodes>
            0 -1 11 -7.2771129198372364e-03</internalNodes>
          <leafValues>
            2.9411765933036804e-01 -7.0114940404891968e-01</leafValues></_>
        <_>
          <internalNodes>
            0 -1 18 2.8953780201845802e-05</internalNodes>
          <leafValues>
            -9.5559978485107422e-01 2.8192678093910217e-01</leafValues></_>
        <_>
          <internalNodes>
            0 -1 19 2.9015901964157820e-04</internalNodes>
          <leafValues>
            2.5038522481918335e-01 -1.</leafValues></_></weakClassifiers></_>
    <!-- stage 18 -->
    <_>
      <maxWeakCount>5</maxWeakCount>
      <stageThreshold>-1.1693811416625977e+00</stageThreshold>
      <weakClassifiers>
        <_>
          <internalNodes>
            0 -1 3 -4.5671980828046799e-02</internalNodes>
          <leafValues>
            8.2608693838119507e-01 -5.6521737575531006e-01</leafValues></_>
        <_>
          <internalNodes>
            0 -1 38 -1.6634643077850342e-02</internalNodes>
          <leafValues>
            5.9627294540405273e-01 -5.6215429306030273e-01</leafValues></_>
        <_>
          <internalNodes>
            0 -1 58 3.2777810702100396e-04</internalNodes>
          <leafValues>
            3.4786802530288696e-01 -1.</leafValues></_>
        <_>
          <internalNodes>
            0 -1 20 4.2598519939929247e-04</internalNodes>
          <leafValues>
            5.0164622068405151e-01 -6.6213357448577881e-01</leafValues></_>
        <_>
          <internalNodes>
            0 -1 42 1.4669196680188179e-03</internalNodes>
          <leafValues>
            2.7225607633590698e-01 -9.4802588224411011e-01</leafValues></_></weakClassifiers></_>
    <!-- stage 19 -->
    <_>
      <maxWeakCount>3</maxWeakCount>
      <stageThreshold>-6.4182287454605103e-01</stageThreshold>
      <weakClassifiers>
        <_>
          <internalNodes>
            0 -1 49 3.2691241358406842e-04</internalNodes>
          <leafValues>
            9.5890410244464874e-02 -8.1538462638854980e-01</leafValues></_>
        <_>
          <internalNodes>
            0 -1 43 1.3619099743664265e-02</internalNodes>
          <leafValues>
            2.0346987247467041e-01 -9.4120836257934570e-01</leafValues></_>
        <_>
          <internalNodes>
            0 -1 26 -1.9515636377036572e-03</internalNodes>
          <leafValues>
            -9.4118320941925049e-01 3.0468329787254333e-01</leafValues></_></weakClassifiers></_></stages>
  <features>
    <_>
      <rects>
        <_>
          0 0 4 6 -1.</_>
        <_>
          2 0 2 6 2.</_></rects>
      <tilted>0</tilted></_>
    <_>
      <rects>
        <_>
          0 0 12 2 -1.</_>
        <_>
          6 0 6 2 2.</_></rects>
      <tilted>0</tilted></_>
    <_>
      <rects>
        <_>
          0 0 27 3 -1.</_>
        <_>
          9 0 9 3 3.</_></rects>
      <tilted>0</tilted></_>
    <_>
      <rects>
        <_>
          0 1 3 12 -1.</_>
        <_>
          0 7 3 6 2.</_></rects>
      <tilted>0</tilted></_>
    <_>
      <rects>
        <_>
          0 1 9 8 -1.</_>
        <_>
          3 1 3 8 3.</_></rects>
      <tilted>0</tilted></_>
    <_>
      <rects>
        <_>
          0 1 16 6 -1.</_>
        <_>
          0 1 8 3 2.</_>
        <_>
          8 4 8 3 2.</_></rects>
      <tilted>0</tilted></_>
    <_>
      <rects>
        <_>
          0 3 6 8 -1.</_>
        <_>
          2 3 2 8 3.</_></rects>
      <tilted>0</tilted></_>
    <_>
      <rects>
        <_>
          0 7 12 4 -1.</_>
        <_>
          6 7 6 4 2.</_></rects>
      <tilted>0</tilted></_>
    <_>
      <rects>
        <_>
          0 9 1 3 -1.</_>
        <_>
          0 10 1 1 3.</_></rects>
      <tilted>0</tilted></_>
    <_>
      <rects>
        <_>
          0 9 18 5 -1.</_>
        <_>
          9 9 9 5 2.</_></rects>
      <tilted>0</tilted></_>
    <_>
      <rects>
        <_>
          0 10 14 5 -1.</_>
        <_>
          7 10 7 5 2.</_></rects>
      <tilted>0</tilted></_>
    <_>
      <rects>
        <_>
          1 0 2 11 -1.</_>
        <_>
          2 0 1 11 2.</_></rects>
      <tilted>0</tilted></_>
    <_>
      <rects>
        <_>
          1 0 24 15 -1.</_>
        <_>
          13 0 12 15 2.</_></rects>
      <tilted>0</tilted></_>
    <_>
      <rects>
        <_>
          1 0 28 15 -1.</_>
        <_>
          15 0 14 15 2.</_></rects>
      <tilted>0</tilted></_>
    <_>
      <rects>
        <_>
          1 4 24 8 -1.</_>
        <_>
          13 4 12 8 2.</_></rects>
      <tilted>0</tilted></_>
    <_>
      <rects>
        <_>
          1 10 18 4 -1.</_>
        <_>
          10 10 9 4 2.</_></rects>
      <tilted>0</tilted></_>
    <_>
      <rects>
        <_>
          2 1 3 13 -1.</_>
        <_>
          3 1 1 13 3.</_></rects>
      <tilted>0</tilted></_>
    <_>
      <rects>
        <_>
          2 3 16 9 -1.</_>
        <_>
          10 3 8 9 2.</_></rects>
      <tilted>0</tilted></_>
    <_>
      <rects>
        <_>
          2 5 23 2 -1.</_>
        <_>
          2 6 23 1 2.</_></rects>
      <tilted>0</tilted></_>
    <_>
      <rects>
        <_>
          2 6 2 3 -1.</_>
        <_>
          2 7 2 1 3.</_></rects>
      <tilted>0</tilted></_>
    <_>
      <rects>
        <_>
          2 7 2 6 -1.</_>
        <_>
          2 9 2 2 3.</_></rects>
      <tilted>0</tilted></_>
    <_>
      <rects>
        <_>
          2 8 14 5 -1.</_>
        <_>
          9 8 7 5 2.</_></rects>
      <tilted>0</tilted></_>
    <_>
      <rects>
        <_>
          3 0 5 6 -1.</_>
        <_>
          3 2 5 2 3.</_></rects>
      <tilted>0</tilted></_>
    <_>
      <rects>
        <_>
          3 4 22 8 -1.</_>
        <_>
          3 8 22 4 2.</_></rects>
      <tilted>0</tilted></_>
    <_>
      <rects>
        <_>
          3 5 1 3 -1.</_>
        <_>
          3 6 1 1 3.</_></rects>
      <tilted>0</tilted></_>
    <_>
      <rects>
        <_>
          3 12 3 1 -1.</_>
        <_>
          4 12 1 1 3.</_></rects>
      <tilted>0</tilted></_>
    <_>
      <rects>
        <_>
          4 3 3 3 -1.</_>
        <_>
          5 3 1 3 3.</_></rects>
      <tilted>0</tilted></_>
    <_>
      <rects>
        <_>
          5 1 18 12 -1.</_>
        <_>
          5 7 18 6 2.</_></rects>
      <tilted>0</tilted></_>
    <_>
      <rects>
        <_>
          5 1 22 14 -1.</_>
        <_>
          5 8 22 7 2.</_></rects>
      <tilted>0</tilted></_>
    <_>
      <rects>
        <_>
          6 12 24 3 -1.</_>
        <_>
          6 13 24 1 3.</_></rects>
      <tilted>0</tilted></_>
    <_>
      <rects>
        <_>
          7 0 13 12 -1.</_>
        <_>
          7 6 13 6 2.</_></rects>
      <tilted>0</tilted></_>
    <_>
      <rects>
        <_>
          8 0 1 8 -1.</_>
        <_>
          8 4 1 4 2.</_></rects>
      <tilted>0</tilted></_>
    <_>
      <rects>
        <_>
          8 0 22 2 -1.</_>
        <_>
          19 0 11 2 2.</_></rects>
      <tilted>0</tilted></_>
    <_>
      <rects>
        <_>
          8 0 22 3 -1.</_>
        <_>
          19 0 11 3 2.</_></rects>
      <tilted>0</tilted></_>
    <_>
      <rects>
        <_>
          9 0 3 5 -1.</_>
        <_>
          10 0 1 5 3.</_></rects>
      <tilted>0</tilted></_>
    <_>
      <rects>
        <_>
          10 0 3 13 -1.</_>
        <_>
          11 0 1 13 3.</_></rects>
      <tilted>0</tilted></_>
    <_>
      <rects>
        <_>
          10 2 3 3 -1.</_>
        <_>
          11 2 1 3 3.</_></rects>
      <tilted>0</tilted></_>
    <_>
      <rects>
        <_>
          10 3 9 3 -1.</_>
        <_>
          13 3 3 3 3.</_></rects>
      <tilted>0</tilted></_>
    <_>
      <rects>
        <_>
          11 1 16 4 -1.</_>
        <_>
          11 1 8 2 2.</_>
        <_>
          19 3 8 2 2.</_></rects>
      <tilted>0</tilted></_>
    <_>
      <rects>
        <_>
          12 0 4 2 -1.</_>
        <_>
          12 0 2 1 2.</_>
        <_>
          14 1 2 1 2.</_></rects>
      <tilted>0</tilted></_>
    <_>
      <rects>
        <_>
          12 6 5 2 -1.</_>
        <_>
          12 7 5 1 2.</_></rects>
      <tilted>0</tilted></_>
    <_>
      <rects>
        <_>
          13 0 16 3 -1.</_>
        <_>
          21 0 8 3 2.</_></rects>
      <tilted>0</tilted></_>
    <_>
      <rects>
        <_>
          13 5 3 5 -1.</_>
        <_>
          14 5 1 5 3.</_></rects>
      <tilted>0</tilted></_>
    <_>
      <rects>
        <_>
          14 0 4 10 -1.</_>
        <_>
          16 0 2 10 2.</_></rects>
      <tilted>0</tilted></_>
    <_>
      <rects>
        <_>
          14 0 16 4 -1.</_>
        <_>
          22 0 8 4 2.</_></rects>
      <tilted>0</tilted></_>
    <_>
      <rects>
        <_>
          15 2 9 12 -1.</_>
        <_>
          15 8 9 6 2.</_></rects>
      <tilted>0</tilted></_>
    <_>
      <rects>
        <_>
          15 7 3 2 -1.</_>
        <_>
          16 7 1 2 3.</_></rects>
      <tilted>0</tilted></_>
    <_>
      <rects>
        <_>
          15 11 8 3 -1.</_>
        <_>
          15 12 8 1 3.</_></rects>
      <tilted>0</tilted></_>
    <_>
      <rects>
        <_>
          18 1 12 12 -1.</_>
        <_>
          24 1 6 12 2.</_></rects>
      <tilted>0</tilted></_>
    <_>
      <rects>
        <_>
          18 11 2 3 -1.</_>
        <_>
          18 12 2 1 3.</_></rects>
      <tilted>0</tilted></_>
    <_>
      <rects>
        <_>
          19 1 3 13 -1.</_>
        <_>
          20 1 1 13 3.</_></rects>
      <tilted>0</tilted></_>
    <_>
      <rects>
        <_>
          20 0 10 5 -1.</_>
        <_>
          25 0 5 5 2.</_></rects>
      <tilted>0</tilted></_>
    <_>
      <rects>
        <_>
          20 0 10 8 -1.</_>
        <_>
          25 0 5 8 2.</_></rects>
      <tilted>0</tilted></_>
    <_>
      <rects>
        <_>
          20 7 3 4 -1.</_>
        <_>
          21 7 1 4 3.</_></rects>
      <tilted>0</tilted></_>
    <_>
      <rects>
        <_>
          21 6 3 4 -1.</_>
        <_>
          22 6 1 4 3.</_></rects>
      <tilted>0</tilted></_>
    <_>
      <rects>
        <_>
          22 0 8 8 -1.</_>
        <_>
          26 0 4 8 2.</_></rects>
      <tilted>0</tilted></_>
    <_>
      <rects>
        <_>
          22 4 2 8 -1.</_>
        <_>
          22 4 1 4 2.</_>
        <_>
          23 8 1 4 2.</_></rects>
      <tilted>0</tilted></_>
    <_>
      <rects>
        <_>
          24 7 5 3 -1.</_>
        <_>
          24 8 5 1 3.</_></rects>
      <tilted>0</tilted></_>
    <_>
      <rects>
        <_>
          28 11 2 3 -1.</_>
        <_>
          28 12 2 1 3.</_></rects>
      <tilted>0</tilted></_></features></cascade>
</opencv_storage>
