<?xml version="1.0"?>
<opencv_storage>
<stage18>
  <maxWeakCount>5</maxWeakCount>
  <stageThreshold>-1.1693811416625977e+00</stageThreshold>
  <weakClassifiers>
    <_>
      <internalNodes>
        0 -1 957 -4.5671980828046799e-02</internalNodes>
      <leafValues>
        8.2608693838119507e-01 -5.6521737575531006e-01</leafValues></_>
    <_>
      <internalNodes>
        0 -1 60176 -1.6634643077850342e-02</internalNodes>
      <leafValues>
        5.9627294540405273e-01 -5.6215429306030273e-01</leafValues></_>
    <_>
      <internalNodes>
        0 -1 99208 3.2777810702100396e-04</internalNodes>
      <leafValues>
        3.4786802530288696e-01 -1.</leafValues></_>
    <_>
      <internalNodes>
        0 -1 17127 4.2598519939929247e-04</internalNodes>
      <leafValues>
        5.0164622068405151e-01 -6.6213357448577881e-01</leafValues></_>
    <_>
      <internalNodes>
        0 -1 69301 1.4669196680188179e-03</internalNodes>
      <leafValues>
        2.7225607633590698e-01 -9.4802588224411011e-01</leafValues></_></weakClassifiers></stage18>
</opencv_storage>
