<?xml version="1.0"?>
<opencv_storage>
<stage6>
  <maxWeakCount>9</maxWeakCount>
  <stageThreshold>-9.2430460453033447e-01</stageThreshold>
  <weakClassifiers>
    <_>
      <internalNodes>
        0 -1 10916 324219903 -145126951 1427181855 -537587365
        -1492913217 -1702297350 -1995777061 1561883480</internalNodes>
      <leafValues>
        -6.7816090583801270e-01 3.3333334326744080e-01</leafValues></_>
    <_>
      <internalNodes>
        0 -1 12392 862729725 -4882451 -1082179651 1870528511 -570427649
        -49153 2130458623 -1141096804</internalNodes>
      <leafValues>
        -4.5176574587821960e-01 6.1530387401580811e-01</leafValues></_>
    <_>
      <internalNodes>
        0 -1 8609 1047598557 424722577 1359056349 2132627829 -98961221
        -20807640 2068957855 1004281880</internalNodes>
      <leafValues>
        -5.4097783565521240e-01 5.4004180431365967e-01</leafValues></_>
    <_>
      <internalNodes>
        0 -1 11871 336743901 -179210800 -721337729 2131591323 -393627397
        -71662871 1395166013 1509988612</internalNodes>
      <leafValues>
        -5.0252032279968262e-01 5.2986866235733032e-01</leafValues></_>
    <_>
      <internalNodes>
        0 -1 11323 559366015 -2902825 1077959551 -1916157571 -133068097
        -1476001791 -1104446594 791688536</internalNodes>
      <leafValues>
        -5.6173223257064819e-01 4.7693520784378052e-01</leafValues></_>
    <_>
      <internalNodes>
        0 -1 11142 452989717 -79212269 355571191 528157001 -1602068295
        -1683373414 427964955 682107032</internalNodes>
      <leafValues>
        -5.2033096551895142e-01 5.4691195487976074e-01</leafValues></_>
    <_>
      <internalNodes>
        0 -1 12166 51606487 435673537 269521307 1330483227 2024815577
        -133595006 58860063 1069392799</internalNodes>
      <leafValues>
        -6.5620750188827515e-01 4.5427414774894714e-01</leafValues></_>
    <_>
      <internalNodes>
        0 -1 14994 434649433 -1210523257 25235589 -1659821619
        -1173151591 -1467285334 -368521031 -1173859640</internalNodes>
      <leafValues>
        -5.6554794311523438e-01 5.0073719024658203e-01</leafValues></_>
    <_>
      <internalNodes>
        0 -1 13141 424751185 -1123352551 -1827580579 2102460573
        -1300159831 -1416060750 453020413 1008732944</internalNodes>
      <leafValues>
        -6.4777725934982300e-01 4.4198602437973022e-01</leafValues></_></weakClassifiers></stage6>
</opencv_storage>
