<?xml version="1.0"?>
<opencv_storage>
<stage4>
  <maxWeakCount>28</maxWeakCount>
  <stageThreshold>-2.0517330169677734e+00</stageThreshold>
  <weakClassifiers>
    <_>
      <internalNodes>
        0 -1 90366 1.3831219077110291e-01</internalNodes>
      <leafValues>
        -6.4246082305908203e-01 5.9111792594194412e-02</leafValues></_>
    <_>
      <internalNodes>
        0 -1 1697 4.4077879190444946e-01</internalNodes>
      <leafValues>
        -2.2844688594341278e-01 5.8853703737258911e-01</leafValues></_>
    <_>
      <internalNodes>
        0 -1 90626 -9.5358081161975861e-03</internalNodes>
      <leafValues>
        -7.0093619823455811e-01 1.1240872740745544e-01</leafValues></_>
    <_>
      <internalNodes>
        0 -1 98702 -5.0643496215343475e-03</internalNodes>
      <leafValues>
        -6.3588994741439819e-01 1.4752236008644104e-01</leafValues></_>
    <_>
      <internalNodes>
        0 -1 139315 1.3638248667120934e-02</internalNodes>
      <leafValues>
        5.3620118647813797e-02 -8.1835740804672241e-01</leafValues></_>
    <_>
      <internalNodes>
        0 -1 142201 -5.8911917731165886e-03</internalNodes>
      <leafValues>
        -5.9147906303405762e-01 1.3501031696796417e-01</leafValues></_>
    <_>
      <internalNodes>
        0 -1 161135 -3.3053369261324406e-03</internalNodes>
      <leafValues>
        -6.4369821548461914e-01 8.2770250737667084e-02</leafValues></_>
    <_>
      <internalNodes>
        0 -1 161135 3.1241273973137140e-03</internalNodes>
      <leafValues>
        1.0635679215192795e-01 -6.2673330307006836e-01</leafValues></_>
    <_>
      <internalNodes>
        0 -1 1116 -1.7954562790691853e-03</internalNodes>
      <leafValues>
        -5.8314305543899536e-01 9.3989506363868713e-02</leafValues></_>
    <_>
      <internalNodes>
        0 -1 17 2.7442842256277800e-03</internalNodes>
      <leafValues>
        1.1542330682277679e-01 -6.4005726575851440e-01</leafValues></_>
    <_>
      <internalNodes>
        0 -1 6646 1.3151261955499649e-02</internalNodes>
      <leafValues>
        6.8927817046642303e-02 -7.3002886772155762e-01</leafValues></_>
    <_>
      <internalNodes>
        0 -1 6056 4.5305494219064713e-02</internalNodes>
      <leafValues>
        -1.9973812997341156e-01 3.3406654000282288e-01</leafValues></_>
    <_>
      <internalNodes>
        0 -1 95536 5.8179330080747604e-03</internalNodes>
      <leafValues>
        9.1120965778827667e-02 -6.9996786117553711e-01</leafValues></_>
    <_>
      <internalNodes>
        0 -1 103850 -1.7520381370559335e-03</internalNodes>
      <leafValues>
        -4.9150699377059937e-01 1.3777317106723785e-01</leafValues></_>
    <_>
      <internalNodes>
        0 -1 106802 -6.9761968916282058e-04</internalNodes>
      <leafValues>
        -5.3492605686187744e-01 1.0915244370698929e-01</leafValues></_>
    <_>
      <internalNodes>
        0 -1 11883 -7.2693120455369353e-04</internalNodes>
      <leafValues>
        -5.4180192947387695e-01 1.0645894706249237e-01</leafValues></_>
    <_>
      <internalNodes>
        0 -1 126391 -9.1718428302556276e-04</internalNodes>
      <leafValues>
        -5.1359635591506958e-01 1.0942985117435455e-01</leafValues></_>
    <_>
      <internalNodes>
        0 -1 119784 2.1954257972538471e-03</internalNodes>
      <leafValues>
        1.2322659045457840e-01 -4.7578158974647522e-01</leafValues></_>
    <_>
      <internalNodes>
        0 -1 162307 -2.2501987405121326e-03</internalNodes>
      <leafValues>
        -5.2499526739120483e-01 1.0491293668746948e-01</leafValues></_>
    <_>
      <internalNodes>
        0 -1 54738 -4.9333618953824043e-03</internalNodes>
      <leafValues>
        -5.6784135103225708e-01 9.9750638008117676e-02</leafValues></_>
    <_>
      <internalNodes>
        0 -1 96820 7.1294903755187988e-03</internalNodes>
      <leafValues>
        5.9431705623865128e-02 -7.4794465303421021e-01</leafValues></_>
    <_>
      <internalNodes>
        0 -1 86488 3.5342775285243988e-02</internalNodes>
      <leafValues>
        -1.7799468338489532e-01 3.3505234122276306e-01</leafValues></_>
    <_>
      <internalNodes>
        0 -1 128077 6.2532844021916389e-03</internalNodes>
      <leafValues>
        8.5943184792995453e-02 -7.7110582590103149e-01</leafValues></_>
    <_>
      <internalNodes>
        0 -1 87151 -2.1256336185615510e-04</internalNodes>
      <leafValues>
        -3.7283775210380554e-01 1.3290068507194519e-01</leafValues></_>
    <_>
      <internalNodes>
        0 -1 137022 4.5374212786555290e-03</internalNodes>
      <leafValues>
        7.7359788119792938e-02 -6.5764421224594116e-01</leafValues></_>
    <_>
      <internalNodes>
        0 -1 58332 6.0716019943356514e-03</internalNodes>
      <leafValues>
        6.1333250254392624e-02 -7.6096737384796143e-01</leafValues></_>
    <_>
      <internalNodes>
        0 -1 145821 -4.4728409498929977e-02</internalNodes>
      <leafValues>
        3.6296769976615906e-01 -1.6090205311775208e-01</leafValues></_>
    <_>
      <internalNodes>
        0 -1 104438 -1.5207846881821752e-03</internalNodes>
      <leafValues>
        -4.8539805412292480e-01 1.1704636365175247e-01</leafValues></_></weakClassifiers></stage4>
</opencv_storage>
