<?xml version="1.0"?>
<opencv_storage>
<stage1>
  <maxWeakCount>14</maxWeakCount>
  <stageThreshold>-2.3088214397430420e+00</stageThreshold>
  <weakClassifiers>
    <_>
      <internalNodes>
        0 -1 6299 2.3869927227497101e-01</internalNodes>
      <leafValues>
        -6.4978754520416260e-01 6.8104428052902222e-01</leafValues></_>
    <_>
      <internalNodes>
        0 -1 90366 1.4741718769073486e-01</internalNodes>
      <leafValues>
        -3.8158169388771057e-01 5.2731007337570190e-01</leafValues></_>
    <_>
      <internalNodes>
        0 -1 10551 -1.1118838563561440e-02</internalNodes>
      <leafValues>
        -8.6108165979385376e-01 1.4170429110527039e-01</leafValues></_>
    <_>
      <internalNodes>
        0 -1 67671 -7.3325880803167820e-03</internalNodes>
      <leafValues>
        -8.3277493715286255e-01 1.5795694291591644e-01</leafValues></_>
    <_>
      <internalNodes>
        0 -1 68091 -6.9398856721818447e-03</internalNodes>
      <leafValues>
        -8.5477387905120850e-01 1.3158978521823883e-01</leafValues></_>
    <_>
      <internalNodes>
        0 -1 8797 -9.4345435500144958e-03</internalNodes>
      <leafValues>
        -8.1860727071762085e-01 8.1798300147056580e-02</leafValues></_>
    <_>
      <internalNodes>
        0 -1 8665 6.7662796936929226e-03</internalNodes>
      <leafValues>
        1.2555235624313354e-01 -7.2918963432312012e-01</leafValues></_>
    <_>
      <internalNodes>
        0 -1 21537 4.3113335967063904e-02</internalNodes>
      <leafValues>
        1.3084092736244202e-01 -7.7468031644821167e-01</leafValues></_>
    <_>
      <internalNodes>
        0 -1 123891 8.4304250776767731e-03</internalNodes>
      <leafValues>
        1.0333093255758286e-01 -8.3385521173477173e-01</leafValues></_>
    <_>
      <internalNodes>
        0 -1 121423 -9.5842219889163971e-03</internalNodes>
      <leafValues>
        -8.5360401868820190e-01 1.0153867304325104e-01</leafValues></_>
    <_>
      <internalNodes>
        0 -1 108649 -9.8719857633113861e-03</internalNodes>
      <leafValues>
        -8.5421347618103027e-01 7.6690480113029480e-02</leafValues></_>
    <_>
      <internalNodes>
        0 -1 98731 -9.4567425549030304e-03</internalNodes>
      <leafValues>
        -7.9066830873489380e-01 1.1609957367181778e-01</leafValues></_>
    <_>
      <internalNodes>
        0 -1 116100 -7.6808207668364048e-03</internalNodes>
      <leafValues>
        -7.3016697168350220e-01 1.2956878542900085e-01</leafValues></_>
    <_>
      <internalNodes>
        0 -1 13197 2.9829246923327446e-03</internalNodes>
      <leafValues>
        9.9552907049655914e-02 -8.0379801988601685e-01</leafValues></_></weakClassifiers></stage1>
</opencv_storage>
