<?xml version="1.0"?>
<opencv_storage>
<stage4>
  <maxWeakCount>11</maxWeakCount>
  <stageThreshold>-1.6088571548461914e+00</stageThreshold>
  <weakClassifiers>
    <_>
      <internalNodes>
        0 -1 856936 1.4035316416993737e-04</internalNodes>
      <leafValues>
        6.2015503644943237e-03 -8.8014984130859375e-01</leafValues></_>
    <_>
      <internalNodes>
        0 -1 855224 -5.0780683523043990e-05</internalNodes>
      <leafValues>
        -8.3896946907043457e-01 1.9855470955371857e-01</leafValues></_>
    <_>
      <internalNodes>
        0 -1 889015 6.7415676312521100e-05</internalNodes>
      <leafValues>
        3.0873358249664307e-01 -7.4251532554626465e-01</leafValues></_>
    <_>
      <internalNodes>
        0 -1 819146 -4.3887784704566002e-04</internalNodes>
      <leafValues>
        -7.9243707656860352e-01 1.7046301066875458e-01</leafValues></_>
    <_>
      <internalNodes>
        0 -1 890758 -7.5758638558909297e-05</internalNodes>
      <leafValues>
        -7.4504208564758301e-01 3.6336064338684082e-01</leafValues></_>
    <_>
      <internalNodes>
        0 -1 774196 -1.2930481170769781e-04</internalNodes>
      <leafValues>
        -7.7846384048461914e-01 1.8604199588298798e-01</leafValues></_>
    <_>
      <internalNodes>
        0 -1 774101 2.2270930639933795e-04</internalNodes>
      <leafValues>
        3.7585687637329102e-01 -5.6914359331130981e-01</leafValues></_>
    <_>
      <internalNodes>
        0 -1 704704 -2.7398770907893777e-04</internalNodes>
      <leafValues>
        -7.0057302713394165e-01 2.4336512386798859e-01</leafValues></_>
    <_>
      <internalNodes>
        0 -1 985908 8.7077212810982019e-05</internalNodes>
      <leafValues>
        2.1080867946147919e-01 -7.8510242700576782e-01</leafValues></_>
    <_>
      <internalNodes>
        0 -1 1013297 3.7244064151309431e-04</internalNodes>
      <leafValues>
        2.1793569624423981e-01 -7.2536724805831909e-01</leafValues></_>
    <_>
      <internalNodes>
        0 -1 432366 -6.0656915593426675e-05</internalNodes>
      <leafValues>
        -7.5968533754348755e-01 2.0868659019470215e-01</leafValues></_></weakClassifiers></stage4>
</opencv_storage>
