<?xml version="1.0"?>
<opencv_storage>
<stage9>
  <maxWeakCount>30</maxWeakCount>
  <stageThreshold>-1.6723647117614746e+00</stageThreshold>
  <weakClassifiers>
    <_>
      <internalNodes>
        0 -1 247371 -1.1586049804463983e-03</internalNodes>
      <leafValues>
        -7.7611941099166870e-01 -1.3879781961441040e-01</leafValues></_>
    <_>
      <internalNodes>
        0 -1 263075 2.7887095347978175e-04</internalNodes>
      <leafValues>
        1.6315744817256927e-01 -6.1000359058380127e-01</leafValues></_>
    <_>
      <internalNodes>
        0 -1 263128 -3.4677932853810489e-04</internalNodes>
      <leafValues>
        -4.9396494030952454e-01 2.4415172636508942e-01</leafValues></_>
    <_>
      <internalNodes>
        0 -1 195368 -8.1685633631423116e-05</internalNodes>
      <leafValues>
        -4.4303837418556213e-01 2.0277889072895050e-01</leafValues></_>
    <_>
      <internalNodes>
        0 -1 277650 1.6076023166533560e-04</internalNodes>
      <leafValues>
        2.3350574076175690e-01 -4.1607493162155151e-01</leafValues></_>
    <_>
      <internalNodes>
        0 -1 195368 9.1696361778303981e-05</internalNodes>
      <leafValues>
        2.2009149193763733e-01 -4.1387575864791870e-01</leafValues></_>
    <_>
      <internalNodes>
        0 -1 277146 -1.2709711154457182e-04</internalNodes>
      <leafValues>
        -3.4148058295249939e-01 2.1017023921012878e-01</leafValues></_>
    <_>
      <internalNodes>
        0 -1 13652 2.7989920228719711e-02</internalNodes>
      <leafValues>
        -2.0298874378204346e-01 3.0836871266365051e-01</leafValues></_>
    <_>
      <internalNodes>
        0 -1 327379 -1.3272517826408148e-03</internalNodes>
      <leafValues>
        -4.1775411367416382e-01 1.3531270623207092e-01</leafValues></_>
    <_>
      <internalNodes>
        0 -1 292395 2.9608170734718442e-04</internalNodes>
      <leafValues>
        1.0816148668527603e-01 -4.1496616601943970e-01</leafValues></_>
    <_>
      <internalNodes>
        0 -1 266237 -3.4122318029403687e-02</internalNodes>
      <leafValues>
        6.2983953952789307e-01 -8.0420970916748047e-02</leafValues></_>
    <_>
      <internalNodes>
        0 -1 371276 -1.2899203225970268e-02</internalNodes>
      <leafValues>
        3.8123539090156555e-01 -1.3377878069877625e-01</leafValues></_>
    <_>
      <internalNodes>
        0 -1 359749 1.8001985154114664e-04</internalNodes>
      <leafValues>
        1.8566730618476868e-01 -2.7781003713607788e-01</leafValues></_>
    <_>
      <internalNodes>
        0 -1 294654 2.7634275611490011e-03</internalNodes>
      <leafValues>
        -8.8023059070110321e-02 5.6379598379135132e-01</leafValues></_>
    <_>
      <internalNodes>
        0 -1 243212 -2.5352829834446311e-04</internalNodes>
      <leafValues>
        -3.4393998980522156e-01 1.4956347644329071e-01</leafValues></_>
    <_>
      <internalNodes>
        0 -1 306074 -4.8431431059725583e-04</internalNodes>
      <leafValues>
        -3.5721114277839661e-01 1.5043789148330688e-01</leafValues></_>
    <_>
      <internalNodes>
        0 -1 341119 3.0038461554795504e-03</internalNodes>
      <leafValues>
        6.1569731682538986e-02 -6.1826086044311523e-01</leafValues></_>
    <_>
      <internalNodes>
        0 -1 113879 3.3812457695603371e-03</internalNodes>
      <leafValues>
        8.3743125200271606e-02 -5.1549392938613892e-01</leafValues></_>
    <_>
      <internalNodes>
        0 -1 214232 -5.7675864081829786e-04</internalNodes>
      <leafValues>
        -3.1876927614212036e-01 1.3561879098415375e-01</leafValues></_>
    <_>
      <internalNodes>
        0 -1 286619 1.5602828934788704e-03</internalNodes>
      <leafValues>
        1.0292103141546249e-01 -4.1976135969161987e-01</leafValues></_>
    <_>
      <internalNodes>
        0 -1 235907 2.9858192428946495e-03</internalNodes>
      <leafValues>
        1.0023728758096695e-01 -4.5909973978996277e-01</leafValues></_>
    <_>
      <internalNodes>
        0 -1 318992 -2.9018428176641464e-04</internalNodes>
      <leafValues>
        -3.0714523792266846e-01 1.4970993995666504e-01</leafValues></_>
    <_>
      <internalNodes>
        0 -1 248437 -1.5530304983258247e-02</internalNodes>
      <leafValues>
        7.1454817056655884e-01 -6.9861501455307007e-02</leafValues></_>
    <_>
      <internalNodes>
        0 -1 251949 7.3193307034671307e-03</internalNodes>
      <leafValues>
        9.1978132724761963e-02 -6.1129987239837646e-01</leafValues></_>
    <_>
      <internalNodes>
        0 -1 388891 3.9097499102354050e-03</internalNodes>
      <leafValues>
        -9.8881982266902924e-02 5.8212149143218994e-01</leafValues></_>
    <_>
      <internalNodes>
        0 -1 116113 2.5411904789507389e-04</internalNodes>
      <leafValues>
        1.3521507382392883e-01 -3.9654523134231567e-01</leafValues></_>
    <_>
      <internalNodes>
        0 -1 305962 -4.8340369015932083e-02</internalNodes>
      <leafValues>
        6.1676621437072754e-01 -8.9274585247039795e-02</leafValues></_>
    <_>
      <internalNodes>
        0 -1 282943 -1.3219041749835014e-02</internalNodes>
      <leafValues>
        6.9330519437789917e-01 -5.9297278523445129e-02</leafValues></_>
    <_>
      <internalNodes>
        0 -1 71599 -1.0466482490301132e-04</internalNodes>
      <leafValues>
        -2.9558163881301880e-01 1.6107033193111420e-01</leafValues></_>
    <_>
      <internalNodes>
        0 -1 151282 -1.1993180960416794e-03</internalNodes>
      <leafValues>
        -3.8838121294975281e-01 1.2345881760120392e-01</leafValues></_></weakClassifiers></stage9>
</opencv_storage>
