<?xml version="1.0"?>
<opencv_storage>
<stage7>
  <maxWeakCount>5</maxWeakCount>
  <stageThreshold>-1.6840043067932129e+00</stageThreshold>
  <weakClassifiers>
    <_>
      <internalNodes>
        0 -1 1361225 -3.3112585544586182e-02</internalNodes>
      <leafValues>
        5.0666666030883789e-01 -6.0430109500885010e-01</leafValues></_>
    <_>
      <internalNodes>
        0 -1 2618068 1.7709066014504060e-05</internalNodes>
      <leafValues>
        2.5776466727256775e-01 -8.0424290895462036e-01</leafValues></_>
    <_>
      <internalNodes>
        0 -1 2369483 -1.8420756532577798e-05</internalNodes>
      <leafValues>
        -8.4546190500259399e-01 2.2430157661437988e-01</leafValues></_>
    <_>
      <internalNodes>
        0 -1 2579379 -2.1276980987749994e-04</internalNodes>
      <leafValues>
        -8.7796252965927124e-01 2.3050512373447418e-01</leafValues></_>
    <_>
      <internalNodes>
        0 -1 2126276 -6.6882712417282164e-05</internalNodes>
      <leafValues>
        -7.3026704788208008e-01 2.9548391699790955e-01</leafValues></_></weakClassifiers></stage7>
</opencv_storage>
