<?xml version="1.0"?>
<opencv_storage>
<stage18>
  <maxWeakCount>47</maxWeakCount>
  <stageThreshold>-1.2803848981857300e+00</stageThreshold>
  <weakClassifiers>
    <_>
      <internalNodes>
        0 -1 139990 -1.1129400134086609e-01</internalNodes>
      <leafValues>
        4.5631068944931030e-01 -3.6546820402145386e-01</leafValues></_>
    <_>
      <internalNodes>
        0 -1 309031 7.9591777175664902e-03</internalNodes>
      <leafValues>
        -2.4467718601226807e-01 1.3613268733024597e-01</leafValues></_>
    <_>
      <internalNodes>
        0 -1 333456 -1.1796447215601802e-03</internalNodes>
      <leafValues>
        -2.7344992756843567e-01 1.2034650146961212e-01</leafValues></_>
    <_>
      <internalNodes>
        0 -1 330890 4.8030056059360504e-03</internalNodes>
      <leafValues>
        7.0133656263351440e-02 -4.5342558622360229e-01</leafValues></_>
    <_>
      <internalNodes>
        0 -1 382093 1.5311453491449356e-02</internalNodes>
      <leafValues>
        -5.4707366973161697e-02 4.0664690732955933e-01</leafValues></_>
    <_>
      <internalNodes>
        0 -1 264560 -3.5095811472274363e-04</internalNodes>
      <leafValues>
        -2.7710077166557312e-01 1.0262691974639893e-01</leafValues></_>
    <_>
      <internalNodes>
        0 -1 340672 -6.1358464881777763e-04</internalNodes>
      <leafValues>
        -2.5973063707351685e-01 1.2405072897672653e-01</leafValues></_>
    <_>
      <internalNodes>
        0 -1 318156 -1.6017116606235504e-02</internalNodes>
      <leafValues>
        4.7992819547653198e-01 -6.5128386020660400e-02</leafValues></_>
    <_>
      <internalNodes>
        0 -1 304262 1.0044880211353302e-02</internalNodes>
      <leafValues>
        -1.6713362932205200e-01 1.9317102432250977e-01</leafValues></_>
    <_>
      <internalNodes>
        0 -1 9424 -4.5614810660481453e-03</internalNodes>
      <leafValues>
        4.3226799368858337e-01 -7.0471867918968201e-02</leafValues></_>
    <_>
      <internalNodes>
        0 -1 314759 2.6816490571945906e-04</internalNodes>
      <leafValues>
        1.0371850430965424e-01 -2.8877466917037964e-01</leafValues></_>
    <_>
      <internalNodes>
        0 -1 245524 -5.4079428082332015e-04</internalNodes>
      <leafValues>
        -3.6259692907333374e-01 8.4050916135311127e-02</leafValues></_>
    <_>
      <internalNodes>
        0 -1 13430 9.0566109865903854e-03</internalNodes>
      <leafValues>
        -9.2935159802436829e-02 3.2496482133865356e-01</leafValues></_>
    <_>
      <internalNodes>
        0 -1 35805 5.8741169050335884e-03</internalNodes>
      <leafValues>
        4.0880110114812851e-02 -7.1096390485763550e-01</leafValues></_>
    <_>
      <internalNodes>
        0 -1 295528 4.5522162690758705e-03</internalNodes>
      <leafValues>
        -1.2068988382816315e-01 2.4074059724807739e-01</leafValues></_>
    <_>
      <internalNodes>
        0 -1 44544 -3.4770570346154273e-04</internalNodes>
      <leafValues>
        -3.3868014812469482e-01 8.9477449655532837e-02</leafValues></_>
    <_>
      <internalNodes>
        0 -1 366594 -1.4356538653373718e-01</internalNodes>
      <leafValues>
        -5.6452763080596924e-01 5.6879743933677673e-02</leafValues></_>
    <_>
      <internalNodes>
        0 -1 75922 -2.2259820252656937e-03</internalNodes>
      <leafValues>
        -4.0013316273689270e-01 6.8218022584915161e-02</leafValues></_>
    <_>
      <internalNodes>
        0 -1 46898 -1.4543870929628611e-03</internalNodes>
      <leafValues>
        -4.2973572015762329e-01 6.4742095768451691e-02</leafValues></_>
    <_>
      <internalNodes>
        0 -1 14604 -1.9223408773541451e-02</internalNodes>
      <leafValues>
        6.0523307323455811e-01 -5.7995367795228958e-02</leafValues></_>
    <_>
      <internalNodes>
        0 -1 263620 -1.0849090176634490e-04</internalNodes>
      <leafValues>
        -2.2553291916847229e-01 1.2336821109056473e-01</leafValues></_>
    <_>
      <internalNodes>
        0 -1 215839 -6.8940287455916405e-03</internalNodes>
      <leafValues>
        5.9759849309921265e-01 -5.1114421337842941e-02</leafValues></_>
    <_>
      <internalNodes>
        0 -1 320296 -6.2391730025410652e-03</internalNodes>
      <leafValues>
        3.7162411212921143e-01 -7.4666038155555725e-02</leafValues></_>
    <_>
      <internalNodes>
        0 -1 267537 -8.2291138824075460e-04</internalNodes>
      <leafValues>
        -3.2479748129844666e-01 1.0381921380758286e-01</leafValues></_>
    <_>
      <internalNodes>
        0 -1 2013 1.0261097922921181e-03</internalNodes>
      <leafValues>
        7.2343759238719940e-02 -4.1884148120880127e-01</leafValues></_>
    <_>
      <internalNodes>
        0 -1 121768 4.3834429234266281e-03</internalNodes>
      <leafValues>
        -1.3949334621429443e-01 2.1713496744632721e-01</leafValues></_>
    <_>
      <internalNodes>
        0 -1 21241 2.8050118125975132e-03</internalNodes>
      <leafValues>
        -9.6056051552295685e-02 3.0565363168716431e-01</leafValues></_>
    <_>
      <internalNodes>
        0 -1 267547 1.0447291424497962e-03</internalNodes>
      <leafValues>
        9.6874758601188660e-02 -3.0137935280799866e-01</leafValues></_>
    <_>
      <internalNodes>
        0 -1 17193 -1.9453023560345173e-03</internalNodes>
      <leafValues>
        -4.4854247570037842e-01 5.7374808937311172e-02</leafValues></_>
    <_>
      <internalNodes>
        0 -1 231616 5.4111024364829063e-03</internalNodes>
      <leafValues>
        9.9607408046722412e-02 -2.7144068479537964e-01</leafValues></_>
    <_>
      <internalNodes>
        0 -1 27626 3.3901748247444630e-03</internalNodes>
      <leafValues>
        7.8499920666217804e-02 -3.6451306939125061e-01</leafValues></_>
    <_>
      <internalNodes>
        0 -1 53445 -2.6441290974617004e-01</internalNodes>
      <leafValues>
        -4.8841565847396851e-01 5.5554650723934174e-02</leafValues></_>
    <_>
      <internalNodes>
        0 -1 274092 -7.3606375372037292e-04</internalNodes>
      <leafValues>
        -2.3917365074157715e-01 1.2064484506845474e-01</leafValues></_>
    <_>
      <internalNodes>
        0 -1 392406 8.7222293950617313e-04</internalNodes>
      <leafValues>
        6.2366954982280731e-02 -4.3596059083938599e-01</leafValues></_>
    <_>
      <internalNodes>
        0 -1 393632 5.5863680317997932e-03</internalNodes>
      <leafValues>
        -8.1184163689613342e-02 3.9644843339920044e-01</leafValues></_>
    <_>
      <internalNodes>
        0 -1 381210 1.5895701944828033e-02</internalNodes>
      <leafValues>
        -7.4605144560337067e-02 4.1619491577148438e-01</leafValues></_>
    <_>
      <internalNodes>
        0 -1 68698 -2.8204410336911678e-03</internalNodes>
      <leafValues>
        -4.5091339945793152e-01 7.2311587631702423e-02</leafValues></_>
    <_>
      <internalNodes>
        0 -1 316987 3.6447453312575817e-03</internalNodes>
      <leafValues>
        4.7429215162992477e-02 -5.3472381830215454e-01</leafValues></_>
    <_>
      <internalNodes>
        0 -1 307200 -7.1317388210445642e-04</internalNodes>
      <leafValues>
        8.1581711769104004e-01 -3.8000471889972687e-02</leafValues></_>
    <_>
      <internalNodes>
        0 -1 318658 7.9127098433673382e-04</internalNodes>
      <leafValues>
        -1.2296126037836075e-01 2.2298380732536316e-01</leafValues></_>
    <_>
      <internalNodes>
        0 -1 267316 -4.1202902793884277e-02</internalNodes>
      <leafValues>
        -7.6708185672760010e-01 3.8523938506841660e-02</leafValues></_>
    <_>
      <internalNodes>
        0 -1 266659 -2.8062090277671814e-03</internalNodes>
      <leafValues>
        -6.3418763875961304e-01 3.4120418131351471e-02</leafValues></_>
    <_>
      <internalNodes>
        0 -1 251236 -1.1878017336130142e-02</internalNodes>
      <leafValues>
        5.9839951992034912e-01 -5.1509320735931396e-02</leafValues></_>
    <_>
      <internalNodes>
        0 -1 318348 3.5075731575489044e-03</internalNodes>
      <leafValues>
        6.5159782767295837e-02 -4.8598358035087585e-01</leafValues></_>
    <_>
      <internalNodes>
        0 -1 249669 -9.9691841751337051e-04</internalNodes>
      <leafValues>
        -2.5683444738388062e-01 1.0768685489892960e-01</leafValues></_>
    <_>
      <internalNodes>
        0 -1 21941 -2.5542911142110825e-02</internalNodes>
      <leafValues>
        6.8718510866165161e-01 -4.8770532011985779e-02</leafValues></_>
    <_>
      <internalNodes>
        0 -1 228836 -6.3653960824012756e-02</internalNodes>
      <leafValues>
        5.0075411796569824e-01 -5.7523954659700394e-02</leafValues></_></weakClassifiers></stage18>
</opencv_storage>
