<?xml version="1.0"?>
<opencv_storage>
<stage3>
  <maxWeakCount>12</maxWeakCount>
  <stageThreshold>-1.7721089124679565e+00</stageThreshold>
  <weakClassifiers>
    <_>
      <internalNodes>
        0 -1 314018 -7.9087831079959869e-02</internalNodes>
      <leafValues>
        3.8728323578834534e-01 -5.9011328220367432e-01</leafValues></_>
    <_>
      <internalNodes>
        0 -1 12438 6.2344942241907120e-02</internalNodes>
      <leafValues>
        -3.3920407295227051e-01 5.1470637321472168e-01</leafValues></_>
    <_>
      <internalNodes>
        0 -1 210340 -8.4032677114009857e-04</internalNodes>
      <leafValues>
        -5.6377637386322021e-01 2.3712889850139618e-01</leafValues></_>
    <_>
      <internalNodes>
        0 -1 229706 -1.5029164496809244e-03</internalNodes>
      <leafValues>
        -5.7670795917510986e-01 2.1063417196273804e-01</leafValues></_>
    <_>
      <internalNodes>
        0 -1 277652 -1.2021204456686974e-03</internalNodes>
      <leafValues>
        -6.4860033988952637e-01 1.6217197477817535e-01</leafValues></_>
    <_>
      <internalNodes>
        0 -1 111194 -2.8044991195201874e-03</internalNodes>
      <leafValues>
        -6.7433512210845947e-01 2.0708873867988586e-01</leafValues></_>
    <_>
      <internalNodes>
        0 -1 238941 5.4878126829862595e-03</internalNodes>
      <leafValues>
        1.3679274916648865e-01 -7.8996086120605469e-01</leafValues></_>
    <_>
      <internalNodes>
        0 -1 386913 2.2445591166615486e-03</internalNodes>
      <leafValues>
        7.6214514672756195e-02 -7.8731578588485718e-01</leafValues></_>
    <_>
      <internalNodes>
        0 -1 326397 2.9948062729090452e-03</internalNodes>
      <leafValues>
        1.3820490241050720e-01 -6.9555789232254028e-01</leafValues></_>
    <_>
      <internalNodes>
        0 -1 390270 -1.5689881984144449e-03</internalNodes>
      <leafValues>
        -7.4243968725204468e-01 1.6423471271991730e-01</leafValues></_>
    <_>
      <internalNodes>
        0 -1 363088 -1.7245799535885453e-03</internalNodes>
      <leafValues>
        -6.6523516178131104e-01 1.3182483613491058e-01</leafValues></_>
    <_>
      <internalNodes>
        0 -1 169475 -3.6496347747743130e-03</internalNodes>
      <leafValues>
        -7.2349232435226440e-01 1.4084543287754059e-01</leafValues></_></weakClassifiers></stage3>
</opencv_storage>
