<?xml version="1.0"?>
<opencv_storage>
<stage10>
  <maxWeakCount>12</maxWeakCount>
  <stageThreshold>-1.2512246370315552e+00</stageThreshold>
  <weakClassifiers>
    <_>
      <internalNodes>
        0 -1 25282 1.1187383532524109e-01</internalNodes>
      <leafValues>
        -4.7496205568313599e-01 6.9230771064758301e-01</leafValues></_>
    <_>
      <internalNodes>
        0 -1 87857 -6.9884201511740685e-03</internalNodes>
      <leafValues>
        -7.9172611236572266e-01 1.4871178567409515e-01</leafValues></_>
    <_>
      <internalNodes>
        0 -1 58414 -2.6053632609546185e-03</internalNodes>
      <leafValues>
        -8.0358195304870605e-01 1.3182279467582703e-01</leafValues></_>
    <_>
      <internalNodes>
        0 -1 3782 -3.2912511378526688e-02</internalNodes>
      <leafValues>
        -6.1621659994125366e-01 1.8824043869972229e-01</leafValues></_>
    <_>
      <internalNodes>
        0 -1 86488 1.1971952393651009e-02</internalNodes>
      <leafValues>
        2.0249095559120178e-01 -6.4734268188476562e-01</leafValues></_>
    <_>
      <internalNodes>
        0 -1 17454 -6.6059054806828499e-03</internalNodes>
      <leafValues>
        -6.7789894342422485e-01 1.6668413579463959e-01</leafValues></_>
    <_>
      <internalNodes>
        0 -1 75208 -1.2640751898288727e-02</internalNodes>
      <leafValues>
        -8.3838742971420288e-01 7.8888811171054840e-02</leafValues></_>
    <_>
      <internalNodes>
        0 -1 80064 4.0208473801612854e-03</internalNodes>
      <leafValues>
        2.4724949896335602e-01 -5.2317559719085693e-01</leafValues></_>
    <_>
      <internalNodes>
        0 -1 73636 -1.3109410181641579e-02</internalNodes>
      <leafValues>
        -6.5214991569519043e-01 1.9009429216384888e-01</leafValues></_>
    <_>
      <internalNodes>
        0 -1 30092 -1.0111952200531960e-02</internalNodes>
      <leafValues>
        -6.2893837690353394e-01 1.5644566714763641e-01</leafValues></_>
    <_>
      <internalNodes>
        0 -1 55096 3.7993791047483683e-03</internalNodes>
      <leafValues>
        1.2212385982275009e-01 -8.4394550323486328e-01</leafValues></_>
    <_>
      <internalNodes>
        0 -1 50659 -1.9211851060390472e-02</internalNodes>
      <leafValues>
        -5.9949916601181030e-01 2.0033931732177734e-01</leafValues></_></weakClassifiers></stage10>
</opencv_storage>
