<?xml version="1.0"?>
<opencv_storage>
<stage15>
  <maxWeakCount>16</maxWeakCount>
  <stageThreshold>-1.4122533798217773e+00</stageThreshold>
  <weakClassifiers>
    <_>
      <internalNodes>
        0 -1 90281 1.2160670012235641e-02</internalNodes>
      <leafValues>
        -5.9919029474258423e-01 1.7968750000000000e-01</leafValues></_>
    <_>
      <internalNodes>
        0 -1 46310 5.4326139390468597e-02</internalNodes>
      <leafValues>
        -2.0475423336029053e-01 5.8875089883804321e-01</leafValues></_>
    <_>
      <internalNodes>
        0 -1 79690 4.8577599227428436e-04</internalNodes>
      <leafValues>
        2.3012849688529968e-01 -4.6596422791481018e-01</leafValues></_>
    <_>
      <internalNodes>
        0 -1 30884 -1.0248100385069847e-02</internalNodes>
      <leafValues>
        5.6338471174240112e-01 -1.6377621889114380e-01</leafValues></_>
    <_>
      <internalNodes>
        0 -1 59942 9.8317712545394897e-03</internalNodes>
      <leafValues>
        1.7720374464988708e-01 -5.3618627786636353e-01</leafValues></_>
    <_>
      <internalNodes>
        0 -1 926 2.9420118778944016e-02</internalNodes>
      <leafValues>
        -1.9819884002208710e-01 4.7895479202270508e-01</leafValues></_>
    <_>
      <internalNodes>
        0 -1 55184 -2.0196666941046715e-02</internalNodes>
      <leafValues>
        -6.9994449615478516e-01 1.1107807606458664e-01</leafValues></_>
    <_>
      <internalNodes>
        0 -1 69630 1.3503470690920949e-03</internalNodes>
      <leafValues>
        2.5056335330009460e-01 -4.0902599692344666e-01</leafValues></_>
    <_>
      <internalNodes>
        0 -1 59637 -4.7215472906827927e-02</internalNodes>
      <leafValues>
        -5.7546275854110718e-01 1.7921327054500580e-01</leafValues></_>
    <_>
      <internalNodes>
        0 -1 57471 2.8692707419395447e-03</internalNodes>
      <leafValues>
        2.5668779015541077e-01 -3.7993851304054260e-01</leafValues></_>
    <_>
      <internalNodes>
        0 -1 86034 2.6546485722064972e-02</internalNodes>
      <leafValues>
        -4.1243660449981689e-01 2.0208275318145752e-01</leafValues></_>
    <_>
      <internalNodes>
        0 -1 98437 -7.8999653458595276e-02</internalNodes>
      <leafValues>
        -8.5411834716796875e-01 1.3156002759933472e-01</leafValues></_>
    <_>
      <internalNodes>
        0 -1 42118 4.9963202327489853e-03</internalNodes>
      <leafValues>
        7.9930037260055542e-02 -7.4405711889266968e-01</leafValues></_>
    <_>
      <internalNodes>
        0 -1 5158 -8.1354118883609772e-03</internalNodes>
      <leafValues>
        5.9757930040359497e-01 -1.7519973218441010e-01</leafValues></_>
    <_>
      <internalNodes>
        0 -1 23016 -7.1027735248208046e-03</internalNodes>
      <leafValues>
        -8.5938525199890137e-01 1.2781488895416260e-01</leafValues></_>
    <_>
      <internalNodes>
        0 -1 40889 -9.5915049314498901e-04</internalNodes>
      <leafValues>
        -6.5903383493423462e-01 1.0831006616353989e-01</leafValues></_></weakClassifiers></stage15>
</opencv_storage>
