<?xml version="1.0"?>
<opencv_storage>
<stage9>
  <maxWeakCount>8</maxWeakCount>
  <stageThreshold>-1.4461631774902344e+00</stageThreshold>
  <weakClassifiers>
    <_>
      <internalNodes>
        0 -1 3127 7.9500272870063782e-02</internalNodes>
      <leafValues>
        -5.1582276821136475e-01 6.4406782388687134e-01</leafValues></_>
    <_>
      <internalNodes>
        0 -1 91740 -1.4127552276477218e-03</internalNodes>
      <leafValues>
        -6.8447893857955933e-01 1.9314303994178772e-01</leafValues></_>
    <_>
      <internalNodes>
        0 -1 97977 2.6841689832508564e-03</internalNodes>
      <leafValues>
        2.3224468529224396e-01 -6.4054024219512939e-01</leafValues></_>
    <_>
      <internalNodes>
        0 -1 62736 -7.5431622099131346e-04</internalNodes>
      <leafValues>
        -5.6979000568389893e-01 2.8188046813011169e-01</leafValues></_>
    <_>
      <internalNodes>
        0 -1 47017 -1.2553516775369644e-02</internalNodes>
      <leafValues>
        -6.9093418121337891e-01 2.1672493219375610e-01</leafValues></_>
    <_>
      <internalNodes>
        0 -1 57441 4.0722936391830444e-03</internalNodes>
      <leafValues>
        1.4254367351531982e-01 -7.3044121265411377e-01</leafValues></_>
    <_>
      <internalNodes>
        0 -1 94928 -1.9626170396804810e-03</internalNodes>
      <leafValues>
        -6.2284189462661743e-01 2.3971739411354065e-01</leafValues></_>
    <_>
      <internalNodes>
        0 -1 88141 -3.7568155676126480e-03</internalNodes>
      <leafValues>
        -7.7309340238571167e-01 1.1885296553373337e-01</leafValues></_></weakClassifiers></stage9>
</opencv_storage>
