<?xml version="1.0"?>
<opencv_storage>
<stage6>
  <maxWeakCount>13</maxWeakCount>
  <stageThreshold>-9.9139368534088135e-01</stageThreshold>
  <weakClassifiers>
    <_>
      <internalNodes>
        0 -1 8294 -2919425 -2649509 -654208055 -598892065 -72650213
        -611220844 1536949111 -1338369</internalNodes>
      <leafValues>
        -5.7563370466232300e-01 3.6804732680320740e-01</leafValues></_>
    <_>
      <internalNodes>
        0 -1 35110 -297089 1867452767 -774381091 1243541887 -609493893
        -81018869 -880083561 -92472329</internalNodes>
      <leafValues>
        -4.7715479135513306e-01 4.0954554080963135e-01</leafValues></_>
    <_>
      <internalNodes>
        0 -1 11314 803192823 -270822945 -783183413 -154152506 1335524223
        -1411673877 -137406415 -19098891</internalNodes>
      <leafValues>
        -4.8568609356880188e-01 3.9317363500595093e-01</leafValues></_>
    <_>
      <internalNodes>
        0 -1 19196 536558431 -1344286513 -784316937 1658769819
        -125158819 -771159672 -527703469 2121591728</internalNodes>
      <leafValues>
        -6.8717759847640991e-01 2.7588883042335510e-01</leafValues></_>
    <_>
      <internalNodes>
        0 -1 30190 769622015 633180383 -1853754933 -287403043 2076859387
        -877723509 466307861 650669540</internalNodes>
      <leafValues>
        -6.0070991516113281e-01 3.1452250480651855e-01</leafValues></_>
    <_>
      <internalNodes>
        0 -1 38683 -78160001 -1496858481 1128911367 -934359033
        -225838521 -1837004670 -654055069 -354763059</internalNodes>
      <leafValues>
        -4.2289319634437561e-01 4.8745116591453552e-01</leafValues></_>
    <_>
      <internalNodes>
        0 -1 25242 55934301 723320913 360730839 -489549549 682127998
        -77922135 33880245 2031653720</internalNodes>
      <leafValues>
        -6.4762604236602783e-01 3.0116978287696838e-01</leafValues></_>
    <_>
      <internalNodes>
        0 -1 5247 -1488197121 -1353984865 -805223977 -866135933
        566268723 -972521334 -611586443 2066670225</internalNodes>
      <leafValues>
        -5.4537451267242432e-01 3.8210085034370422e-01</leafValues></_>
    <_>
      <internalNodes>
        0 -1 12362 745754079 1056461403 -729414689 1041895886
        -1434372028 -1683289873 -1702199429 1996118395</internalNodes>
      <leafValues>
        -6.0960668325424194e-01 3.3938008546829224e-01</leafValues></_>
    <_>
      <internalNodes>
        0 -1 38182 -1349061745 -1441672733 1233244441 -870943461
        -611878085 -1835859832 -74859563 -627058383</internalNodes>
      <leafValues>
        -5.4238778352737427e-01 4.0371197462081909e-01</leafValues></_>
    <_>
      <internalNodes>
        0 -1 22749 554834495 -851111053 -1056587617 -35763877 806052723
        -1383202173 2033285495 512754545</internalNodes>
      <leafValues>
        -5.7171404361724854e-01 3.7712234258651733e-01</leafValues></_>
    <_>
      <internalNodes>
        0 -1 35413 -1972406917 -1433302901 16826449 -321924449
        1909153899 1208057867 319388576 2061428464</internalNodes>
      <leafValues>
        -6.3306707143783569e-01 3.2914295792579651e-01</leafValues></_>
    <_>
      <internalNodes>
        0 -1 22954 551370085 -1530695665 -1053699593 1313723012
        -1165243393 -1416992738 864723303 517761217</internalNodes>
      <leafValues>
        -6.5761196613311768e-01 3.0751115083694458e-01</leafValues></_></weakClassifiers></stage6>
</opencv_storage>
