<?xml version="1.0"?>
<opencv_storage>
<stage7>
  <maxWeakCount>14</maxWeakCount>
  <stageThreshold>-8.2205671072006226e-01</stageThreshold>
  <weakClassifiers>
    <_>
      <internalNodes>
        0 -1 2613 1003295961 -573222422 -1858046465 -42008291
        -2010605314 -71654899 600542127 798493608</internalNodes>
      <leafValues>
        -6.1493885517120361e-01 2.9142856597900391e-01</leafValues></_>
    <_>
      <internalNodes>
        0 -1 2419 321986549 -143507714 -1075479041 -43558275 -1610612802
        -1678491783 -1110460417 -1179646499</internalNodes>
      <leafValues>
        -3.5251086950302124e-01 5.2890592813491821e-01</leafValues></_>
    <_>
      <internalNodes>
        0 -1 4016 439824123 -1020296 -269648133 1266499196 -1092645633
        -304644161 666890143 -1685451543</internalNodes>
      <leafValues>
        -3.2004094123840332e-01 5.3419715166091919e-01</leafValues></_>
    <_>
      <internalNodes>
        0 -1 2310 -2023636692 1765871628 -250916743 256768525 697488031
        -1147187830 1808461055 51528860</internalNodes>
      <leafValues>
        -5.4779225587844849e-01 3.1227442622184753e-01</leafValues></_>
    <_>
      <internalNodes>
        0 -1 2952 461126875 -249348744 922739701 -344525090 -11620417
        -1073741963 1063237630 -1623437316</internalNodes>
      <leafValues>
        -3.2119819521903992e-01 5.2361094951629639e-01</leafValues></_>
    <_>
      <internalNodes>
        0 -1 406 -1426266236 -711962470 -1287335384 -1290522364
        1434912515 -83746672 690121039 -1918285739</internalNodes>
      <leafValues>
        -5.2944171428680420e-01 3.3761638402938843e-01</leafValues></_>
    <_>
      <internalNodes>
        0 -1 4775 -581995516 -979955473 -1860578935 -980655845
        -536150206 -256360262 -1831171257 -1740895170</internalNodes>
      <leafValues>
        -4.6674212813377380e-01 3.8380876183509827e-01</leafValues></_>
    <_>
      <internalNodes>
        0 -1 2121 269553812 2140213457 285298651 1112686649 -1818755046
        -1824847757 151243054 -1624506328</internalNodes>
      <leafValues>
        -4.7254315018653870e-01 3.8158088922500610e-01</leafValues></_>
    <_>
      <internalNodes>
        0 -1 4357 966131848 -213495548 318789977 349966504 839066338
        -888995328 571095627 390357120</internalNodes>
      <leafValues>
        -6.9214642047882080e-01 2.5774025917053223e-01</leafValues></_>
    <_>
      <internalNodes>
        0 -1 2850 268447768 1297438791 1477235143 1262948815 330435460
        -1254424433 454615806 244848648</internalNodes>
      <leafValues>
        -5.5727201700210571e-01 3.0332356691360474e-01</leafValues></_>
    <_>
      <internalNodes>
        0 -1 4565 294130112 -771665448 486625730 941166855 -905852837
        -2012610518 141739 34085296</internalNodes>
      <leafValues>
        -5.8658015727996826e-01 2.8635573387145996e-01</leafValues></_>
    <_>
      <internalNodes>
        0 -1 205 -314178998 1012683346 1384169619 -1444492439 -523947999
        1904222464 1694504987 -211834286</internalNodes>
      <leafValues>
        -4.8942476511001587e-01 3.6774495244026184e-01</leafValues></_>
    <_>
      <internalNodes>
        0 -1 4105 -1898821397 1493652616 49630 2069168769 453634274
        683835432 1124319946 755745224</internalNodes>
      <leafValues>
        -4.3039619922637939e-01 4.4084209203720093e-01</leafValues></_>
    <_>
      <internalNodes>
        0 -1 4145 -711285842 1454882819 201326705 1939046549 -2146858913
        822181904 21574623 1463552265</internalNodes>
      <leafValues>
        -4.7407600283622742e-01 4.0585160255432129e-01</leafValues></_></weakClassifiers></stage7>
</opencv_storage>
