<?xml version="1.0"?>
<opencv_storage>
<stage6>
  <maxWeakCount>13</maxWeakCount>
  <stageThreshold>-2.1333787441253662e+00</stageThreshold>
  <weakClassifiers>
    <_>
      <internalNodes>
        0 -1 166954 1.3220391701906919e-04</internalNodes>
      <leafValues>
        -1.5898251440376043e-03 -8.3433371782302856e-01</leafValues></_>
    <_>
      <internalNodes>
        0 -1 166954 -2.4772854521870613e-04</internalNodes>
      <leafValues>
        -8.7212991714477539e-01 2.1199642121791840e-01</leafValues></_>
    <_>
      <internalNodes>
        0 -1 265777 -1.9207247532904148e-04</internalNodes>
      <leafValues>
        -8.0241829156875610e-01 1.7450708150863647e-01</leafValues></_>
    <_>
      <internalNodes>
        0 -1 265777 3.1260048854164779e-04</internalNodes>
      <leafValues>
        3.7248164415359497e-01 -7.1136057376861572e-01</leafValues></_>
    <_>
      <internalNodes>
        0 -1 177410 1.1622910387814045e-03</internalNodes>
      <leafValues>
        2.1606491506099701e-01 -7.0566779375076294e-01</leafValues></_>
    <_>
      <internalNodes>
        0 -1 178738 -9.4733678270131350e-04</internalNodes>
      <leafValues>
        -7.3806530237197876e-01 2.0775109529495239e-01</leafValues></_>
    <_>
      <internalNodes>
        0 -1 237122 1.8476445984560996e-04</internalNodes>
      <leafValues>
        1.9148838520050049e-01 -7.5077605247497559e-01</leafValues></_>
    <_>
      <internalNodes>
        0 -1 258754 6.9759684265591204e-05</internalNodes>
      <leafValues>
        2.4308402836322784e-01 -5.9863579273223877e-01</leafValues></_>
    <_>
      <internalNodes>
        0 -1 61718 -5.8970626443624496e-02</internalNodes>
      <leafValues>
        8.5292410850524902e-01 -2.0173336565494537e-01</leafValues></_>
    <_>
      <internalNodes>
        0 -1 120009 -1.6972854791674763e-04</internalNodes>
      <leafValues>
        -6.3063871860504150e-01 2.6142674684524536e-01</leafValues></_>
    <_>
      <internalNodes>
        0 -1 123921 3.1376861035823822e-02</internalNodes>
      <leafValues>
        -2.1126028895378113e-01 8.1252968311309814e-01</leafValues></_>
    <_>
      <internalNodes>
        0 -1 120647 5.9375438839197159e-02</internalNodes>
      <leafValues>
        -2.8325447440147400e-01 6.1576074361801147e-01</leafValues></_>
    <_>
      <internalNodes>
        0 -1 291392 -8.8547210907563567e-05</internalNodes>
      <leafValues>
        -7.0006227493286133e-01 2.8286439180374146e-01</leafValues></_></weakClassifiers></stage6>
</opencv_storage>
