<?xml version="1.0"?>
<opencv_storage>
<stage12>
  <maxWeakCount>11</maxWeakCount>
  <stageThreshold>-1.3117226362228394e+00</stageThreshold>
  <weakClassifiers>
    <_>
      <internalNodes>
        0 -1 38484 1004232671 -1411940271 419485131 -321007203
        -1181652165 -79978359 -7099405 -89199623</internalNodes>
      <leafValues>
        -6.5491849184036255e-01 1.0647481679916382e-01</leafValues></_>
    <_>
      <internalNodes>
        0 -1 28764 734998911 -1440788309 855757983 -232893997
        -1693746637 -123170678 -744770891 -19350860</internalNodes>
      <leafValues>
        -6.6569441556930542e-01 2.5439837574958801e-01</leafValues></_>
    <_>
      <internalNodes>
        0 -1 35706 427776255 -35975028 1896993243 -830049959 -209094633
        -1929281400 -1693850649 1559818441</internalNodes>
      <leafValues>
        -5.2313613891601562e-01 3.1319430470466614e-01</leafValues></_>
    <_>
      <internalNodes>
        0 -1 5914 266027007 1847577581 -754322965 -1975205633 -5604753
        1260109835 2035538535 -57213964</internalNodes>
      <leafValues>
        -5.1109421253204346e-01 3.6012601852416992e-01</leafValues></_>
    <_>
      <internalNodes>
        0 -1 38778 198906811 -1503686453 -1056845495 1717261205
        -1190462928 -1308524406 1393293155 1547221729</internalNodes>
      <leafValues>
        -5.9451782703399658e-01 2.9906287789344788e-01</leafValues></_>
    <_>
      <internalNodes>
        0 -1 6215 1065110589 1658278213 -482315825 1924846460 -707179247
        -77713201 19384191 2122062451</internalNodes>
      <leafValues>
        -5.9778642654418945e-01 2.8491088747978210e-01</leafValues></_>
    <_>
      <internalNodes>
        0 -1 36762 -1357417729 -1417166718 1363198275 -435711863
        -779576757 -1465909239 1862443761 -543515947</internalNodes>
      <leafValues>
        -4.5794987678527832e-01 4.0207359194755554e-01</leafValues></_>
    <_>
      <internalNodes>
        0 -1 28062 -1888150593 -455519525 -251035489 1281188319 65253882
        -1458861941 1652880117 1047798517</internalNodes>
      <leafValues>
        -5.4391717910766602e-01 3.4750095009803772e-01</leafValues></_>
    <_>
      <internalNodes>
        0 -1 3168 763327031 574836957 -2124922855 1711460699 -1845247989
        -670269438 64224065 1530056820</internalNodes>
      <leafValues>
        -7.0728093385696411e-01 2.5845184922218323e-01</leafValues></_>
    <_>
      <internalNodes>
        0 -1 18907 -1349303441 -1495428137 -783165953 1591652680
        1647016473 1065418906 1461344017 2104293376</internalNodes>
      <leafValues>
        -6.5225696563720703e-01 2.8265234827995300e-01</leafValues></_>
    <_>
      <internalNodes>
        0 -1 30162 991122655 -1527430711 16896463 1691801241 -913631177
        -233267199 -1316312111 999987332</internalNodes>
      <leafValues>
        -6.0699450969696045e-01 3.0054721236228943e-01</leafValues></_></weakClassifiers></stage12>
</opencv_storage>
