<?xml version="1.0"?>
<opencv_storage>
<stage5>
  <maxWeakCount>7</maxWeakCount>
  <stageThreshold>-9.3957066535949707e-01</stageThreshold>
  <weakClassifiers>
    <_>
      <internalNodes>
        0 -1 2614 357631453 -242216481 -581566977 -581165731 -105534021
        -1145304936 -1660371971 -1075048288</internalNodes>
      <leafValues>
        -6.5699207782745361e-01 5.1999998092651367e-01</leafValues></_>
    <_>
      <internalNodes>
        0 -1 3529 361501687 -2795311 1224742397 1599969757 -1232867074
        -1163349334 437877695 1072446936</internalNodes>
      <leafValues>
        -6.2788087129592896e-01 5.1261878013610840e-01</leafValues></_>
    <_>
      <internalNodes>
        0 -1 184 -831623721 -822411297 -203558977 -287380020 2142992055
        -944653925 -222975745 -2299035</internalNodes>
      <leafValues>
        -5.5214601755142212e-01 5.8498948812484741e-01</leafValues></_>
    <_>
      <internalNodes>
        0 -1 3950 352654335 -136984367 16865349 1967928219 -718539889
        -1178435582 990507795 1562129405</internalNodes>
      <leafValues>
        -6.6164278984069824e-01 4.9609956145286560e-01</leafValues></_>
    <_>
      <internalNodes>
        0 -1 4350 1056775957 2146906331 -721218145 -536877603
        -1009922188 -393558942 -1668754635 -556472417</internalNodes>
      <leafValues>
        -5.5998039245605469e-01 5.9412181377410889e-01</leafValues></_>
    <_>
      <internalNodes>
        0 -1 4268 -1146759259 857576243 1973498612 2132378055 -74577927
        247056699 2013247732 238583260</internalNodes>
      <leafValues>
        -7.0059216022491455e-01 4.3627816438674927e-01</leafValues></_>
    <_>
      <internalNodes>
        0 -1 3632 399772117 -677965601 1132566935 -977993522 -1147078159
        -1148665312 822654233 1603010616</internalNodes>
      <leafValues>
        -5.9484177827835083e-01 5.4451227188110352e-01</leafValues></_></weakClassifiers></stage5>
</opencv_storage>
