<?xml version="1.0"?>
<opencv_storage>
<stage7>
  <maxWeakCount>8</maxWeakCount>
  <stageThreshold>-1.1693775653839111e+00</stageThreshold>
  <weakClassifiers>
    <_>
      <internalNodes>
        0 -1 2431 1073160157 -69 -65537 -163969 -1610613249 -524297
        -1073742177 -1081594696</internalNodes>
      <leafValues>
        -5.7724553346633911e-01 6.3420426845550537e-01</leafValues></_>
    <_>
      <internalNodes>
        0 -1 2850 532754687 -203605541 -1845343873 -34012897 -133781091
        -74940225 -109007649 503844024</internalNodes>
      <leafValues>
        -5.9858900308609009e-01 4.8730173707008362e-01</leafValues></_>
    <_>
      <internalNodes>
        0 -1 4298 336674005 899453085 352932191 -73584171 -1437886534
        -73523071 2074643257 425200660</internalNodes>
      <leafValues>
        -6.0298776626586914e-01 4.2553883790969849e-01</leafValues></_>
    <_>
      <internalNodes>
        0 -1 4189 874329597 -6737445 1434571029 -169895919 813832377
        -1651765168 2030109307 518520984</internalNodes>
      <leafValues>
        -5.4808062314987183e-01 4.7295030951499939e-01</leafValues></_>
    <_>
      <internalNodes>
        0 -1 2747 8720863 -663420713 -1790389859 -1542447076 1754015963
        -209583231 1896352763 466355597</internalNodes>
      <leafValues>
        -5.3240108489990234e-01 5.2477061748504639e-01</leafValues></_>
    <_>
      <internalNodes>
        0 -1 3069 939343869 -34 -1073889473 -303075361 -268644513
        -268632066 -1073856705 -1078194532</internalNodes>
      <leafValues>
        -5.0394040346145630e-01 5.8198851346969604e-01</leafValues></_>
    <_>
      <internalNodes>
        0 -1 1935 195771773 -1074069898 -32769 1845440254 -8405519
        -16777283 -524801 -1076097076</internalNodes>
      <leafValues>
        -4.3452352285385132e-01 6.2154316902160645e-01</leafValues></_>
    <_>
      <internalNodes>
        0 -1 3793 356544767 -176881731 -1090742309 2112749535 -302202947
        -34209953 905297727 1605163624</internalNodes>
      <leafValues>
        -4.7833880782127380e-01 6.1432409286499023e-01</leafValues></_></weakClassifiers></stage7>
</opencv_storage>
