<?xml version="1.0"?>
<opencv_storage>
<stage11>
  <maxWeakCount>10</maxWeakCount>
  <stageThreshold>-1.2038074731826782e+00</stageThreshold>
  <weakClassifiers>
    <_>
      <internalNodes>
        0 -1 19380 1046311935 -27295397 1502728447 -236990275 -208971141
        -1414888822 -244777989 -205845</internalNodes>
      <leafValues>
        -5.8254104852676392e-01 2.5690889358520508e-01</leafValues></_>
    <_>
      <internalNodes>
        0 -1 29646 668941181 -1496854311 1493236047 1860096221
        -652539341 -7733238 1803656183 -19077708</internalNodes>
      <leafValues>
        -6.2221872806549072e-01 2.6035821437835693e-01</leafValues></_>
    <_>
      <internalNodes>
        0 -1 36024 533666655 -1417293669 1459704011 -829037631
        -209555101 -74547192 -84149517 -16853355</internalNodes>
      <leafValues>
        -4.8250293731689453e-01 3.4573394060134888e-01</leafValues></_>
    <_>
      <internalNodes>
        0 -1 37390 -1077936141 -1342226500 -369132185 -523 -1073742465
        -130 -805312656 2147480509</internalNodes>
      <leafValues>
        -3.9113482832908630e-01 4.5229813456535339e-01</leafValues></_>
    <_>
      <internalNodes>
        0 -1 4951 -1894780061 -1435724969 -1056321392 -195636832
        -280924141 -779190101 1271484229 1560147313</internalNodes>
      <leafValues>
        -5.5728882551193237e-01 3.4835749864578247e-01</leafValues></_>
    <_>
      <internalNodes>
        0 -1 31862 -1554041985 727683317 -788147267 -1159868065
        -1588696201 1943253065 -1970537771 1983442932</internalNodes>
      <leafValues>
        -5.6549215316772461e-01 3.3767196536064148e-01</leafValues></_>
    <_>
      <internalNodes>
        0 -1 16920 194738143 -1361329953 -788274945 -187346723
        -1148534145 -1417019262 -1719011501 -1136139</internalNodes>
      <leafValues>
        -4.7494485974311829e-01 3.9844566583633423e-01</leafValues></_>
    <_>
      <internalNodes>
        0 -1 518 -104438039 -1253420774 -582631337 -116210863 1631549967
        687982721 1258450245 1962243877</internalNodes>
      <leafValues>
        -5.7890856266021729e-01 3.2698038220405579e-01</leafValues></_>
    <_>
      <internalNodes>
        0 -1 32149 797933047 -1952464741 -754724586 -601959977
        -107383943 -1417492344 -486080108 243007988</internalNodes>
      <leafValues>
        -6.3976007699966431e-01 2.7214717864990234e-01</leafValues></_>
    <_>
      <internalNodes>
        0 -1 35389 601322347 -1362508913 1073942555 -1428688417
        -208973275 -1870430080 1326105105 1724707309</internalNodes>
      <leafValues>
        -6.4457702636718750e-01 3.0512002110481262e-01</leafValues></_></weakClassifiers></stage11>
</opencv_storage>
