<?xml version="1.0"?>
<opencv_storage>
<stage8>
  <maxWeakCount>8</maxWeakCount>
  <stageThreshold>-1.7657134532928467e+00</stageThreshold>
  <weakClassifiers>
    <_>
      <internalNodes>
        0 -1 2700 521215487 -2410279 -1786554913 -573226597 -1433748485
        -670990190 -1147360277 1067716761</internalNodes>
      <leafValues>
        -6.5546220541000366e-01 3.6048266291618347e-01</leafValues></_>
    <_>
      <internalNodes>
        0 -1 3028 1365513215 -245644851 789861855 769466701 -1696509249
        -113663837 2078970331 260351432</internalNodes>
      <leafValues>
        -5.4219019412994385e-01 5.0660395622253418e-01</leafValues></_>
    <_>
      <internalNodes>
        0 -1 3841 286266877 151360785 1426327007 768934397 -234544195
        -1146516423 1000542654 1018431576</internalNodes>
      <leafValues>
        -6.9273877143859863e-01 4.0252891182899475e-01</leafValues></_>
    <_>
      <internalNodes>
        0 -1 3588 287642079 -573242881 831086079 222793759 -668877633
        -104496977 453622890 529340572</internalNodes>
      <leafValues>
        -5.2435469627380371e-01 5.4804176092147827e-01</leafValues></_>
    <_>
      <internalNodes>
        0 -1 1861 742404053 -1952804839 -1186915555 -573860833
        -1828388881 -771186552 2124134649 251334352</internalNodes>
      <leafValues>
        -6.9153153896331787e-01 4.0295431017875671e-01</leafValues></_>
    <_>
      <internalNodes>
        0 -1 1834 424685821 -780402471 -1827536553 -1390672610
        -1844963151 -1415929672 1209010364 721161128</internalNodes>
      <leafValues>
        -6.2353950738906860e-01 4.1078376770019531e-01</leafValues></_>
    <_>
      <internalNodes>
        0 -1 4049 1064907675 -8437762 -49217 -541737026 -180513
        -16908289 -1375774981 -1747436272</internalNodes>
      <leafValues>
        -5.0846594572067261e-01 5.3257173299789429e-01</leafValues></_>
    <_>
      <internalNodes>
        0 -1 3640 494023583 -578186157 -654151461 -1558638575
        -1312616261 2056388610 -1207520653 403738672</internalNodes>
      <leafValues>
        -7.6513803005218506e-01 3.6584964394569397e-01</leafValues></_></weakClassifiers></stage8>
</opencv_storage>
