<?xml version="1.0"?>
<opencv_storage>
<stage16>
  <maxWeakCount>10</maxWeakCount>
  <stageThreshold>-1.5277841091156006e+00</stageThreshold>
  <weakClassifiers>
    <_>
      <internalNodes>
        0 -1 13730 961888255 -774913573 25203703 1599987819 -1179911949
        -620527483 530862843 526216271</internalNodes>
      <leafValues>
        -6.8262410163879395e-01 6.7073173820972443e-02</leafValues></_>
    <_>
      <internalNodes>
        0 -1 10548 1039106047 -167776257 -8449 -655811 -143155201
        -268468243 -163841 -1080289956</internalNodes>
      <leafValues>
        -3.9080628752708435e-01 4.6596664190292358e-01</leafValues></_>
    <_>
      <internalNodes>
        0 -1 6075 519380593 -134430785 -1107349785 2147299314 -805371905
        -688171 -1074422033 805055484</internalNodes>
      <leafValues>
        -3.3400109410285950e-01 5.4834502935409546e-01</leafValues></_>
    <_>
      <internalNodes>
        0 -1 2136 -289474593 103861021 1879408716 -762525004 -586844139
        1342275763 -911521759 1999821287</internalNodes>
      <leafValues>
        -4.6336233615875244e-01 3.7968647480010986e-01</leafValues></_>
    <_>
      <internalNodes>
        0 -1 6596 211817399 -2015596143 1427133789 -1646542435
        -1196608772 -1198946261 -1157420046 1043334880</internalNodes>
      <leafValues>
        -4.7848212718963623e-01 3.9756637811660767e-01</leafValues></_>
    <_>
      <internalNodes>
        0 -1 11847 1431982557 -747077421 390189765 605620453 -1182093163
        998246570 1931668331 265569196</internalNodes>
      <leafValues>
        -5.2179098129272461e-01 3.5234281420707703e-01</leafValues></_>
    <_>
      <internalNodes>
        0 -1 15264 1020528625 -1450024704 16893399 -170486885
        -1131400917 -611188704 -1031554173 773335216</internalNodes>
      <leafValues>
        -6.6108328104019165e-01 2.9494327306747437e-01</leafValues></_>
    <_>
      <internalNodes>
        0 -1 9800 491337087 1322078473 1107450269 90032393 -637478230
        -2097151862 285233330 200878224</internalNodes>
      <leafValues>
        -6.2509286403656006e-01 3.0286759138107300e-01</leafValues></_>
    <_>
      <internalNodes>
        0 -1 14513 -1108610272 -108527586 -1065205534 948355918
        -2113421063 -1576957629 -1576873564 284836715</internalNodes>
      <leafValues>
        -6.7355448007583618e-01 3.0139130353927612e-01</leafValues></_>
    <_>
      <internalNodes>
        0 -1 8264 23278739 1594966098 1224937757 120651792 -1165848326
        -1228865382 1258866968 -1952929768</internalNodes>
      <leafValues>
        -4.3826547265052795e-01 4.4422012567520142e-01</leafValues></_></weakClassifiers></stage16>
</opencv_storage>
