<?xml version="1.0"?>
<opencv_storage>
<stage12>
  <maxWeakCount>65</maxWeakCount>
  <stageThreshold>-1.5278351306915283e+00</stageThreshold>
  <weakClassifiers>
    <_>
      <internalNodes>
        0 -1 45794 7.8730642795562744e-02</internalNodes>
      <leafValues>
        -2.8554844856262207e-01 2.3563778400421143e-01</leafValues></_>
    <_>
      <internalNodes>
        0 -1 133794 1.9518729299306870e-02</internalNodes>
      <leafValues>
        -2.2044581174850464e-01 1.9763705134391785e-01</leafValues></_>
    <_>
      <internalNodes>
        0 -1 8359 3.8695827126502991e-02</internalNodes>
      <leafValues>
        -1.4577190577983856e-01 2.2932785749435425e-01</leafValues></_>
    <_>
      <internalNodes>
        0 -1 9525 -5.5551030673086643e-03</internalNodes>
      <leafValues>
        3.6546301841735840e-01 -1.4345176517963409e-01</leafValues></_>
    <_>
      <internalNodes>
        0 -1 119305 -4.6489777741953731e-04</internalNodes>
      <leafValues>
        -3.1520417332649231e-01 1.3524287939071655e-01</leafValues></_>
    <_>
      <internalNodes>
        0 -1 62874 9.5835309475660324e-03</internalNodes>
      <leafValues>
        -1.9761665165424347e-01 1.8186846375465393e-01</leafValues></_>
    <_>
      <internalNodes>
        0 -1 112172 -4.2447989108040929e-04</internalNodes>
      <leafValues>
        -3.1230652332305908e-01 1.5146441757678986e-01</leafValues></_>
    <_>
      <internalNodes>
        0 -1 126062 -5.2175244491081685e-05</internalNodes>
      <leafValues>
        -2.2332188487052917e-01 1.4978870749473572e-01</leafValues></_>
    <_>
      <internalNodes>
        0 -1 76434 -1.3639412354677916e-03</internalNodes>
      <leafValues>
        -3.3590942621231079e-01 1.0942191630601883e-01</leafValues></_>
    <_>
      <internalNodes>
        0 -1 128673 -8.6968336254358292e-03</internalNodes>
      <leafValues>
        4.0431916713714600e-01 -1.1124490946531296e-01</leafValues></_>
    <_>
      <internalNodes>
        0 -1 128962 1.8176543526351452e-03</internalNodes>
      <leafValues>
        -1.5823800861835480e-01 2.4822992086410522e-01</leafValues></_>
    <_>
      <internalNodes>
        0 -1 78264 -1.9425140635576099e-04</internalNodes>
      <leafValues>
        -2.5514167547225952e-01 1.2819659709930420e-01</leafValues></_>
    <_>
      <internalNodes>
        0 -1 143773 5.1866308785974979e-03</internalNodes>
      <leafValues>
        -9.9389016628265381e-02 4.1218888759613037e-01</leafValues></_>
    <_>
      <internalNodes>
        0 -1 132210 2.9351603239774704e-02</internalNodes>
      <leafValues>
        -1.0225135087966919e-01 3.8095393776893616e-01</leafValues></_>
    <_>
      <internalNodes>
        0 -1 124861 3.0784390866756439e-02</internalNodes>
      <leafValues>
        -9.5211990177631378e-02 3.1940388679504395e-01</leafValues></_>
    <_>
      <internalNodes>
        0 -1 154024 1.0672559961676598e-02</internalNodes>
      <leafValues>
        -8.8646136224269867e-02 4.0393906831741333e-01</leafValues></_>
    <_>
      <internalNodes>
        0 -1 133315 5.7655526325106621e-03</internalNodes>
      <leafValues>
        -9.8994404077529907e-02 3.1578657031059265e-01</leafValues></_>
    <_>
      <internalNodes>
        0 -1 89663 1.2855993583798409e-02</internalNodes>
      <leafValues>
        -9.5102354884147644e-02 3.3731317520141602e-01</leafValues></_>
    <_>
      <internalNodes>
        0 -1 120522 -2.2834069095551968e-03</internalNodes>
      <leafValues>
        -3.5470068454742432e-01 9.9622614681720734e-02</leafValues></_>
    <_>
      <internalNodes>
        0 -1 127278 9.2577133327722549e-03</internalNodes>
      <leafValues>
        3.6514978855848312e-02 -7.2107529640197754e-01</leafValues></_>
    <_>
      <internalNodes>
        0 -1 120127 -1.2823598808608949e-04</internalNodes>
      <leafValues>
        -2.5508725643157959e-01 1.1723262071609497e-01</leafValues></_>
    <_>
      <internalNodes>
        0 -1 95402 -6.0326952487230301e-02</internalNodes>
      <leafValues>
        7.1630913019180298e-01 -5.6360390037298203e-02</leafValues></_>
    <_>
      <internalNodes>
        0 -1 20248 1.1251535266637802e-02</internalNodes>
      <leafValues>
        6.5703094005584717e-02 -5.7101470232009888e-01</leafValues></_>
    <_>
      <internalNodes>
        0 -1 114997 -1.4275947585701942e-02</internalNodes>
      <leafValues>
        6.0112267732620239e-01 -6.7411251366138458e-02</leafValues></_>
    <_>
      <internalNodes>
        0 -1 89847 7.8506395220756531e-03</internalNodes>
      <leafValues>
        -1.2683013081550598e-01 2.5693804025650024e-01</leafValues></_>
    <_>
      <internalNodes>
        0 -1 18263 -1.1334585025906563e-02</internalNodes>
      <leafValues>
        3.7657502293586731e-01 -8.1052295863628387e-02</leafValues></_>
    <_>
      <internalNodes>
        0 -1 6646 1.3155251741409302e-02</internalNodes>
      <leafValues>
        5.5708244442939758e-02 -6.3255012035369873e-01</leafValues></_>
    <_>
      <internalNodes>
        0 -1 33258 4.2636091820895672e-03</internalNodes>
      <leafValues>
        -1.0746272653341293e-01 2.8713393211364746e-01</leafValues></_>
    <_>
      <internalNodes>
        0 -1 136151 -2.3860746296122670e-04</internalNodes>
      <leafValues>
        -2.1463593840599060e-01 1.3242031633853912e-01</leafValues></_>
    <_>
      <internalNodes>
        0 -1 86631 -1.3161454116925597e-03</internalNodes>
      <leafValues>
        -2.8116935491561890e-01 1.0051777213811874e-01</leafValues></_>
    <_>
      <internalNodes>
        0 -1 10551 -9.4100032001733780e-03</internalNodes>
      <leafValues>
        -5.6799381971359253e-01 4.7895472496747971e-02</leafValues></_>
    <_>
      <internalNodes>
        0 -1 104030 4.5428108423948288e-03</internalNodes>
      <leafValues>
        -1.4154422283172607e-01 2.0179989933967590e-01</leafValues></_>
    <_>
      <internalNodes>
        0 -1 70162 1.1523570865392685e-02</internalNodes>
      <leafValues>
        -8.5772037506103516e-02 3.6432439088821411e-01</leafValues></_>
    <_>
      <internalNodes>
        0 -1 94272 -2.2246803564485162e-04</internalNodes>
      <leafValues>
        -2.2440645098686218e-01 1.2640157341957092e-01</leafValues></_>
    <_>
      <internalNodes>
        0 -1 74481 -1.8047657795250416e-03</internalNodes>
      <leafValues>
        -3.2963880896568298e-01 8.6636021733283997e-02</leafValues></_>
    <_>
      <internalNodes>
        0 -1 32597 -7.0600560866296291e-04</internalNodes>
      <leafValues>
        2.6773646473884583e-01 -1.0661430656909943e-01</leafValues></_>
    <_>
      <internalNodes>
        0 -1 56466 -2.5080048944801092e-03</internalNodes>
      <leafValues>
        -3.7050312757492065e-01 7.4685789644718170e-02</leafValues></_>
    <_>
      <internalNodes>
        0 -1 79332 -2.7888332260772586e-04</internalNodes>
      <leafValues>
        -2.6668128371238708e-01 9.3028567731380463e-02</leafValues></_>
    <_>
      <internalNodes>
        0 -1 30402 -9.7813305910676718e-04</internalNodes>
      <leafValues>
        3.2337382435798645e-01 -8.2918703556060791e-02</leafValues></_>
    <_>
      <internalNodes>
        0 -1 68122 -1.4659238513559103e-04</internalNodes>
      <leafValues>
        -2.2170133888721466e-01 1.2779772281646729e-01</leafValues></_>
    <_>
      <internalNodes>
        0 -1 4149 -9.2480971943587065e-04</internalNodes>
      <leafValues>
        -3.6331138014793396e-01 7.8680388629436493e-02</leafValues></_>
    <_>
      <internalNodes>
        0 -1 47083 -6.4222877845168114e-03</internalNodes>
      <leafValues>
        5.8842623233795166e-01 -5.0837442278862000e-02</leafValues></_>
    <_>
      <internalNodes>
        0 -1 139640 -7.9393163323402405e-03</internalNodes>
      <leafValues>
        6.4472931623458862e-01 -4.1453316807746887e-02</leafValues></_>
    <_>
      <internalNodes>
        0 -1 115290 1.0296609252691269e-02</internalNodes>
      <leafValues>
        -7.7703870832920074e-02 3.6585527658462524e-01</leafValues></_>
    <_>
      <internalNodes>
        0 -1 49483 -9.0824544895440340e-04</internalNodes>
      <leafValues>
        -3.4887504577636719e-01 8.0509655177593231e-02</leafValues></_>
    <_>
      <internalNodes>
        0 -1 138339 5.5971490219235420e-03</internalNodes>
      <leafValues>
        -8.9166581630706787e-02 3.0956438183784485e-01</leafValues></_>
    <_>
      <internalNodes>
        0 -1 124307 -1.1822124943137169e-03</internalNodes>
      <leafValues>
        -2.6039239764213562e-01 1.0812664777040482e-01</leafValues></_>
    <_>
      <internalNodes>
        0 -1 113930 -9.3565676361322403e-03</internalNodes>
      <leafValues>
        7.0173561573028564e-01 -4.1903037577867508e-02</leafValues></_>
    <_>
      <internalNodes>
        0 -1 143046 -1.6858698800206184e-03</internalNodes>
      <leafValues>
        -3.1276008486747742e-01 9.6697792410850525e-02</leafValues></_>
    <_>
      <internalNodes>
        0 -1 111094 -1.9784420728683472e-02</internalNodes>
      <leafValues>
        5.7885938882827759e-01 -5.5683284997940063e-02</leafValues></_>
    <_>
      <internalNodes>
        0 -1 128119 -8.2703065127134323e-03</internalNodes>
      <leafValues>
        -5.2403646707534790e-01 6.8144239485263824e-02</leafValues></_>
    <_>
      <internalNodes>
        0 -1 159434 8.8252977002412081e-04</internalNodes>
      <leafValues>
        -9.8378784954547882e-02 3.1889754533767700e-01</leafValues></_>
    <_>
      <internalNodes>
        0 -1 138273 -1.0651780758053064e-04</internalNodes>
      <leafValues>
        -2.3015852272510529e-01 1.3216680288314819e-01</leafValues></_>
    <_>
      <internalNodes>
        0 -1 78617 9.0389046818017960e-03</internalNodes>
      <leafValues>
        4.0485400706529617e-02 -6.4859354496002197e-01</leafValues></_>
    <_>
      <internalNodes>
        0 -1 106677 -1.1867227731272578e-03</internalNodes>
      <leafValues>
        -3.4309643507003784e-01 7.2544217109680176e-02</leafValues></_>
    <_>
      <internalNodes>
        0 -1 106677 1.6451438423246145e-03</internalNodes>
      <leafValues>
        7.4691198766231537e-02 -3.6039480566978455e-01</leafValues></_>
    <_>
      <internalNodes>
        0 -1 120423 -1.7581034451723099e-02</internalNodes>
      <leafValues>
        5.3311866521835327e-01 -5.7794969528913498e-02</leafValues></_>
    <_>
      <internalNodes>
        0 -1 132407 1.8183684442192316e-03</internalNodes>
      <leafValues>
        -1.9170516729354858e-01 1.7850941419601440e-01</leafValues></_>
    <_>
      <internalNodes>
        0 -1 11483 -2.1581321954727173e-01</internalNodes>
      <leafValues>
        -4.3951731920242310e-01 6.3597969710826874e-02</leafValues></_>
    <_>
      <internalNodes>
        0 -1 159754 3.3017471432685852e-03</internalNodes>
      <leafValues>
        5.4482661187648773e-02 -5.2320462465286255e-01</leafValues></_>
    <_>
      <internalNodes>
        0 -1 149472 -1.7740002658683807e-04</internalNodes>
      <leafValues>
        -2.0524121820926666e-01 1.4028023183345795e-01</leafValues></_>
    <_>
      <internalNodes>
        0 -1 148479 9.3578863888978958e-03</internalNodes>
      <leafValues>
        -1.0749104619026184e-01 2.6342427730560303e-01</leafValues></_>
    <_>
      <internalNodes>
        0 -1 156457 -2.8659906238317490e-03</internalNodes>
      <leafValues>
        2.0254001021385193e-01 -1.5967035293579102e-01</leafValues></_>
    <_>
      <internalNodes>
        0 -1 134664 -3.8032985758036375e-03</internalNodes>
      <leafValues>
        -4.1376760601997375e-01 6.8557299673557281e-02</leafValues></_>
    <_>
      <internalNodes>
        0 -1 159960 -7.6854735612869263e-02</internalNodes>
      <leafValues>
        -7.5135874748229980e-01 3.3983606845140457e-02</leafValues></_></weakClassifiers></stage12>
</opencv_storage>
