<?xml version="1.0"?>
<opencv_storage>
<stage3>
  <maxWeakCount>22</maxWeakCount>
  <stageThreshold>-1.9149343967437744e+00</stageThreshold>
  <weakClassifiers>
    <_>
      <internalNodes>
        0 -1 6299 2.7468752861022949e-01</internalNodes>
      <leafValues>
        -3.8469389081001282e-01 6.3797467947006226e-01</leafValues></_>
    <_>
      <internalNodes>
        0 -1 8797 -9.4265174120664597e-03</internalNodes>
      <leafValues>
        -8.1529945135116577e-01 1.4221499860286713e-01</leafValues></_>
    <_>
      <internalNodes>
        0 -1 87062 -4.2144125327467918e-03</internalNodes>
      <leafValues>
        -7.8951543569564819e-01 1.7032875120639801e-01</leafValues></_>
    <_>
      <internalNodes>
        0 -1 87457 -2.9237903654575348e-03</internalNodes>
      <leafValues>
        -6.8175941705703735e-01 7.5641199946403503e-02</leafValues></_>
    <_>
      <internalNodes>
        0 -1 7396 -1.0087475180625916e-02</internalNodes>
      <leafValues>
        -7.4762386083602905e-01 1.2088727951049805e-01</leafValues></_>
    <_>
      <internalNodes>
        0 -1 11477 -9.5062982290983200e-03</internalNodes>
      <leafValues>
        -7.1247142553329468e-01 1.2188048660755157e-01</leafValues></_>
    <_>
      <internalNodes>
        0 -1 141550 -1.8248806009069085e-03</internalNodes>
      <leafValues>
        -4.8300021886825562e-01 1.8127602338790894e-01</leafValues></_>
    <_>
      <internalNodes>
        0 -1 11477 1.2686600908637047e-02</internalNodes>
      <leafValues>
        7.6260037720203400e-02 -8.1422775983810425e-01</leafValues></_>
    <_>
      <internalNodes>
        0 -1 33125 -9.5033822581171989e-03</internalNodes>
      <leafValues>
        -7.7561813592910767e-01 9.4110928475856781e-02</leafValues></_>
    <_>
      <internalNodes>
        0 -1 91289 -9.4499196857213974e-03</internalNodes>
      <leafValues>
        -8.1406468152999878e-01 8.7297849357128143e-02</leafValues></_>
    <_>
      <internalNodes>
        0 -1 90606 6.3252621330320835e-03</internalNodes>
      <leafValues>
        1.0823175311088562e-01 -6.9671428203582764e-01</leafValues></_>
    <_>
      <internalNodes>
        0 -1 150817 -4.3989680707454681e-03</internalNodes>
      <leafValues>
        -6.9219899177551270e-01 8.8124334812164307e-02</leafValues></_>
    <_>
      <internalNodes>
        0 -1 105367 -6.2443228671327233e-04</internalNodes>
      <leafValues>
        -6.0817921161651611e-01 1.1543984711170197e-01</leafValues></_>
    <_>
      <internalNodes>
        0 -1 11492 -1.8504078034311533e-03</internalNodes>
      <leafValues>
        -5.2662670612335205e-01 1.5242505073547363e-01</leafValues></_>
    <_>
      <internalNodes>
        0 -1 49498 4.7697098925709724e-03</internalNodes>
      <leafValues>
        8.2738511264324188e-02 -7.9112589359283447e-01</leafValues></_>
    <_>
      <internalNodes>
        0 -1 483 -4.6547222882509232e-03</internalNodes>
      <leafValues>
        -6.8374508619308472e-01 5.9277728199958801e-02</leafValues></_>
    <_>
      <internalNodes>
        0 -1 13475 1.7727288650348783e-03</internalNodes>
      <leafValues>
        1.1413595080375671e-01 -6.8039274215698242e-01</leafValues></_>
    <_>
      <internalNodes>
        0 -1 87871 -3.8346983492374420e-03</internalNodes>
      <leafValues>
        -5.0736868381500244e-01 1.3982731103897095e-01</leafValues></_>
    <_>
      <internalNodes>
        0 -1 120522 -6.0336655005812645e-03</internalNodes>
      <leafValues>
        -7.0100063085556030e-01 1.1143522709608078e-01</leafValues></_>
    <_>
      <internalNodes>
        0 -1 161994 -5.3118597716093063e-03</internalNodes>
      <leafValues>
        -6.2558376789093018e-01 1.1304937303066254e-01</leafValues></_>
    <_>
      <internalNodes>
        0 -1 161798 -3.8389177061617374e-03</internalNodes>
      <leafValues>
        -4.7438836097717285e-01 1.6695082187652588e-01</leafValues></_>
    <_>
      <internalNodes>
        0 -1 128557 6.9266636855900288e-03</internalNodes>
      <leafValues>
        7.5192116200923920e-02 -8.0718511343002319e-01</leafValues></_></weakClassifiers></stage3>
</opencv_storage>
